{"learner":{"attributes":{"best_iteration":"883","best_score":"0.7033964550481174"},"feature_names":["soil_moisture","total_rainfall","fertilizer_amount","sunlight_hours","field_id"],"feature_types":["float","float","float","float","int"],"gradient_booster":{"model":{"cats":{"enc":[],"feature_segments":[],"sorted_idx":[]},"gbtree_model_param":{"num_parallel_tree":"1","num_trees":"904"},"iteration_indptr":[0,1,2,3,4,5,6,7,8,9,10,11,12,13,14,15,16,17,18,19,20,21,22,23,24,25,26,27,28,29,30,31,32,33,34,35,36,37,38,39,40,41,42,43,44,45,46,47,48,49,50,51,52,53,54,55,56,57,58,59,60,61,62,63,64,65,66,67,68,69,70,71,72,73,74,75,76,77,78,79,80,81,82,83,84,85,86,87,88,89,90,91,92,93,94,95,96,97,98,99,100,101,102,103,104,105,106,107,108,109,110,111,112,113,114,115,116,117,118,119,120,121,122,123,124,125,126,127,128,129,130,131,132,133,134,135,136,137,138,139,140,141,142,143,144,145,146,147,148,149,150,151,152,153,154,155,156,157,158,159,160,161,162,163,164,165,166,167,168,169,170,171,172,173,174,175,176,177,178,179,180,181,182,183,184,185,186,187,188,189,190,191,192,193,194,195,196,197,198,199,200,201,202,203,204,205,206,207,208,209,210,211,212,213,214,215,216,217,218,219,220,221,222,223,224,225,226,227,228,229,230,231,232,233,234,235,236,237,238,239,240,241,242,243,244,245,246,247,248,249,250,251,252,253,254,255,256,257,258,259,260,261,262,263,264,265,266,267,268,269,270,271,272,273,274,275,276,277,278,279,280,281,282,283,284,285,286,287,288,289,290,291,292,293,294,295,296,297,298,299,300,301,302,303,304,305,306,307,308,309,310,311,312,313,314,315,316,317,318,319,320,321,322,323,324,325,326,327,328,329,330,331,332,333,334,335,336,337,338,339,340,341,342,343,344,345,346,347,348,349,350,351,352,353,354,355,356,357,358,359,360,361,362,363,364,365,366,367,368,369,370,371,372,373,374,375,376,377,378,379,380,381,382,383,384,385,386,387,388,389,390,391,392,393,394,395,396,397,398,399,400,401,402,403,404,405,406,407,408,409,410,411,412,413,414,415,416,417,418,419,420,421,422,423,424,425,426,427,428,429,430,431,432,433,434,435,436,437,438,439,440,441,442,443,444,445,446,447,448,449,450,451,452,453,454,455,456,457,458,459,460,461,462,463,464,465,466,467,468,469,470,471,472,473,474,475,476,477,478,479,480,481,482,483,484,485,486,487,488,489,490,491,492,493,494,495,496,497,498,499,500,501,502,503,504,505,506,507,508,509,510,511,512,513,514,515,516,517,518,519,520,521,522,523,524,525,526,527,528,529,530,531,532,533,534,535,536,537,538,539,540,541,542,543,544,545,546,547,548,549,550,551,552,553,554,555,556,557,558,559,560,561,562,563,564,565,566,567,568,569,570,571,572,573,574,575,576,577,578,579,580,581,582,583,584,585,586,587,588,589,590,591,592,593,594,595,596,597,598,599,600,601,602,603,604,605,606,607,608,609,610,611,612,613,614,615,616,617,618,619,620,621,622,623,624,625,626,627,628,629,630,631,632,633,634,635,636,637,638,639,640,641,642,643,644,645,646,647,648,649,650,651,652,653,654,655,656,657,658,659,660,661,662,663,664,665,666,667,668,669,670,671,672,673,674,675,676,677,678,679,680,681,682,683,684,685,686,687,688,689,690,691,692,693,694,695,696,697,698,699,700,701,702,703,704,705,706,707,708,709,710,711,712,713,714,715,716,717,718,719,720,721,722,723,724,725,726,727,728,729,730,731,732,733,734,735,736,737,738,739,740,741,742,743,744,745,746,747,748,749,750,751,752,753,754,755,756,757,758,759,760,761,762,763,764,765,766,767,768,769,770,771,772,773,774,775,776,777,778,779,780,781,782,783,784,785,786,787,788,789,790,791,792,793,794,795,796,797,798,799,800,801,802,803,804,805,806,807,808,809,810,811,812,813,814,815,816,817,818,819,820,821,822,823,824,825,826,827,828,829,830,831,832,833,834,835,836,837,838,839,840,841,842,843,844,845,846,847,848,849,850,851,852,853,854,855,856,857,858,859,860,861,862,863,864,865,866,867,868,869,870,871,872,873,874,875,876,877,878,879,880,881,882,883,884,885,886,887,888,889,890,891,892,893,894,895,896,897,898,899,900,901,902,903,904],"tree_info":[0,0,0,0,0,0,0,0,0,0,0,0,0,0,0,0,0,0,0,0,0,0,0,0,0,0,0,0,0,0,0,0,0,0,0,0,0,0,0,0,0,0,0,0,0,0,0,0,0,0,0,0,0,0,0,0,0,0,0,0,0,0,0,0,0,0,0,0,0,0,0,0,0,0,0,0,0,0,0,0,0,0,0,0,0,0,0,0,0,0,0,0,0,0,0,0,0,0,0,0,0,0,0,0,0,0,0,0,0,0,0,0,0,0,0,0,0,0,0,0,0,0,0,0,0,0,0,0,0,0,0,0,0,0,0,0,0,0,0,0,0,0,0,0,0,0,0,0,0,0,0,0,0,0,0,0,0,0,0,0,0,0,0,0,0,0,0,0,0,0,0,0,0,0,0,0,0,0,0,0,0,0,0,0,0,0,0,0,0,0,0,0,0,0,0,0,0,0,0,0,0,0,0,0,0,0,0,0,0,0,0,0,0,0,0,0,0,0,0,0,0,0,0,0,0,0,0,0,0,0,0,0,0,0,0,0,0,0,0,0,0,0,0,0,0,0,0,0,0,0,0,0,0,0,0,0,0,0,0,0,0,0,0,0,0,0,0,0,0,0,0,0,0,0,0,0,0,0,0,0,0,0,0,0,0,0,0,0,0,0,0,0,0,0,0,0,0,0,0,0,0,0,0,0,0,0,0,0,0,0,0,0,0,0,0,0,0,0,0,0,0,0,0,0,0,0,0,0,0,0,0,0,0,0,0,0,0,0,0,0,0,0,0,0,0,0,0,0,0,0,0,0,0,0,0,0,0,0,0,0,0,0,0,0,0,0,0,0,0,0,0,0,0,0,0,0,0,0,0,0,0,0,0,0,0,0,0,0,0,0,0,0,0,0,0,0,0,0,0,0,0,0,0,0,0,0,0,0,0,0,0,0,0,0,0,0,0,0,0,0,0,0,0,0,0,0,0,0,0,0,0,0,0,0,0,0,0,0,0,0,0,0,0,0,0,0,0,0,0,0,0,0,0,0,0,0,0,0,0,0,0,0,0,0,0,0,0,0,0,0,0,0,0,0,0,0,0,0,0,0,0,0,0,0,0,0,0,0,0,0,0,0,0,0,0,0,0,0,0,0,0,0,0,0,0,0,0,0,0,0,0,0,0,0,0,0,0,0,0,0,0,0,0,0,0,0,0,0,0,0,0,0,0,0,0,0,0,0,0,0,0,0,0,0,0,0,0,0,0,0,0,0,0,0,0,0,0,0,0,0,0,0,0,0,0,0,0,0,0,0,0,0,0,0,0,0,0,0,0,0,0,0,0,0,0,0,0,0,0,0,0,0,0,0,0,0,0,0,0,0,0,0,0,0,0,0,0,0,0,0,0,0,0,0,0,0,0,0,0,0,0,0,0,0,0,0,0,0,0,0,0,0,0,0,0,0,0,0,0,0,0,0,0,0,0,0,0,0,0,0,0,0,0,0,0,0,0,0,0,0,0,0,0,0,0,0,0,0,0,0,0,0,0,0,0,0,0,0,0,0,0,0,0,0,0,0,0,0,0,0,0,0,0,0,0,0,0,0,0,0,0,0,0,0,0,0,0,0,0,0,0,0,0,0,0,0,0,0,0,0,0,0,0,0,0,0,0,0,0,0,0,0,0,0,0,0,0,0,0,0,0,0,0,0,0,0,0,0,0,0,0,0,0,0,0,0,0,0,0,0,0,0,0,0,0,0,0,0,0,0,0,0,0,0,0,0,0,0,0,0,0,0,0,0,0,0,0,0,0,0,0,0,0,0,0,0,0,0,0,0,0,0,0,0,0,0,0,0,0,0,0,0,0,0,0,0,0,0,0,0,0,0,0,0,0,0,0,0,0,0,0,0,0,0,0,0,0,0,0,0,0,0,0,0,0,0,0,0,0,0,0,0,0,0,0,0,0,0,0,0,0,0,0,0,0,0,0,0,0,0,0,0,0,0,0,0,0,0,0,0,0,0,0,0,0,0,0,0,0,0,0,0,0,0,0,0,0,0,0,0,0,0,0,0],"trees":[{"base_weights":[-1.1299268E-3,-8.792118E-1,6.724208E-1,-1.1653105E0,-4.03909E-1,2.4909475E-1,9.7505003E-1,-1.1997342E-2,-7.7125304E-3,-6.0963742E-3,-2.2092431E-3,-1.5928732E-4,3.3116657E-3,2.7687363E-3,9.432655E-3],"categories":[],"categories_nodes":[],"categories_segments":[],"categories_sizes":[],"default_left":[0,0,0,0,0,0,0,0,0,0,0,0,0,0,0],"id":0,"left_children":[1,3,5,7,9,11,13,-1,-1,-1,-1,-1,-1,-1,-1],"loss_changes":[9.534102E2,8.564673E1,1.1008469E2,3.9938354E0,7.553379E0,1.3815994E1,1.7843964E1,0E0,0E0,0E0,0E0,0E0,0E0,0E0,0E0],"parents":[2147483647,0,0,1,1,2,2,3,3,4,4,5,5,6,6],"right_children":[2,4,6,8,10,12,14,-1,-1,-1,-1,-1,-1,-1,-1],"split_conditions":[1.5578758E2,1.1533673E2,2.1529158E2,8.4866165E1,4.1003604E2,4.207439E2,2.1542764E2,-1.1997342E-2,-7.7125304E-3,-6.0963742E-3,-2.2092431E-3,-1.5928732E-4,3.3116657E-3,2.7687363E-3,9.432655E-3],"split_indices":[2,2,2,2,1,1,1,0,0,0,0,0,0,0,0],"split_type":[0,0,0,0,0,0,0,0,0,0,0,0,0,0,0],"sum_hessian":[1.592E3,6.92E2,9E2,4.19E2,2.73E2,3.87E2,5.13E2,2.44E2,1.75E2,8.1E1,1.92E2,1.13E2,2.74E2,6E1,4.53E2],"tree_param":{"num_deleted":"0","num_feature":"5","num_nodes":"15","size_leaf_vector":"1"}},{"base_weights":[-6.327729E-3,-8.217547E-1,7.116187E-1,-1.154E0,-3.4108803E-1,3.5388017E-1,1.0441452E0,-1.2369314E-2,-7.793574E-3,-5.294196E-3,-1.9816633E-3,1.9686278E-3,4.5864596E-3,7.217092E-3,1.13656055E-2],"categories":[],"categories_nodes":[],"categories_segments":[],"categories_sizes":[],"default_left":[0,0,0,0,0,0,0,0,0,0,0,0,0,0,0],"id":1,"left_children":[1,3,5,7,9,11,13,-1,-1,-1,-1,-1,-1,-1,-1],"loss_changes":[9.334627E2,1.10764496E2,9.236615E1,8.790466E0,5.714031E0,5.464348E0,6.1783752E0,0E0,0E0,0E0,0E0,0E0,0E0,0E0,0E0],"parents":[2147483647,0,0,1,1,2,2,3,3,4,4,5,5,6,6],"right_children":[2,4,6,8,10,12,14,-1,-1,-1,-1,-1,-1,-1,-1],"split_conditions":[1.633894E2,1.1533673E2,2.2662141E2,8.125638E1,1.3024536E2,2.0188345E2,2.6767502E2,-1.2369314E-2,-7.793574E-3,-5.294196E-3,-1.9816633E-3,1.9686278E-3,4.5864596E-3,7.217092E-3,1.13656055E-2],"split_indices":[2,2,2,2,2,2,2,0,0,0,0,0,0,0,0],"split_type":[0,0,0,0,0,0,0,0,0,0,0,0,0,0,0],"sum_hessian":[1.575E3,7.39E2,8.36E2,4.25E2,3.14E2,4.17E2,4.19E2,2.14E2,2.11E2,8.2E1,2.32E2,2.47E2,1.7E2,2.27E2,1.92E2],"tree_param":{"num_deleted":"0","num_feature":"5","num_nodes":"15","size_leaf_vector":"1"}},{"base_weights":[-2.0759813E-2,-8.1540227E-1,6.619094E-1,-1.1662846E0,-3.666771E-1,3.46875E-1,9.254281E-3,-1.2054055E-2,-7.801468E-3,-5.341936E-3,-1.6860531E-3,-0E0,3.6440378E-3],"categories":[],"categories_nodes":[],"categories_segments":[],"categories_sizes":[],"default_left":[0,0,0,0,0,0,0,0,0,0,0,0,0],"id":2,"left_children":[1,3,5,7,9,11,-1,-1,-1,-1,-1,-1,-1],"loss_changes":[8.472233E2,1.046958E2,8.864273E1,2.2003174E0,9.962612E0,8.343243E0,0E0,0E0,0E0,0E0,0E0,0E0,0E0],"parents":[2147483647,0,0,1,1,2,2,3,3,4,4,5,5],"right_children":[2,4,6,8,10,12,-1,-1,-1,-1,-1,-1,-1],"split_conditions":[1.5930504E2,1.0932476E2,2.32647E2,8.125638E1,1.3024536E2,1.7388445E2,9.254281E-3,-1.2054055E-2,-7.801468E-3,-5.341936E-3,-1.6860531E-3,-0E0,3.6440378E-3],"split_indices":[2,2,2,2,2,2,0,0,0,0,0,0,0],"split_type":[0,0,0,0,0,0,0,0,0,0,0,0,0],"sum_hessian":[1.542E3,7.14E2,8.28E2,3.88E2,3.26E2,4.6E2,3.68E2,2.18E2,1.7E2,1.26E2,2E2,7.4E1,3.86E2],"tree_param":{"num_deleted":"0","num_feature":"5","num_nodes":"13","size_leaf_vector":"1"}},{"base_weights":[-0E0,-7.884486E-1,7.355257E-1,-1.1647637E0,-3.0369294E-1,3.9425611E-1,1.0084456E0,-1.2231975E-2,-7.4804677E-3,-4.9472866E-3,-1.5223278E-3,2.203528E-4,4.158767E-3,3.8495606E-3,1.0015999E-2],"categories":[],"categories_nodes":[],"categories_segments":[],"categories_sizes":[],"default_left":[0,0,0,0,0,0,0,0,0,0,0,0,0,0,0],"id":3,"left_children":[1,3,5,7,9,11,13,-1,-1,-1,-1,-1,-1,-1,-1],"loss_changes":[9.527757E2,1.3644492E2,7.0630585E1,1.04435425E1,8.725456E0,8.243736E0,1.8236145E1,0E0,0E0,0E0,0E0,0E0,0E0,0E0,0E0],"parents":[2147483647,0,0,1,1,2,2,3,3,4,4,5,5,6,6],"right_children":[2,4,6,8,10,12,14,-1,-1,-1,-1,-1,-1,-1,-1],"split_conditions":[1.6872975E2,1.14815186E2,2.2435637E2,8.4866165E1,1.3082303E2,2.9370612E2,3.2326636E2,-1.2231975E-2,-7.4804677E-3,-4.9472866E-3,-1.5223278E-3,2.203528E-4,4.158767E-3,3.8495606E-3,1.0015999E-2],"split_indices":[2,2,2,2,2,1,1,0,0,0,0,0,0,0,0],"split_type":[0,0,0,0,0,0,0,0,0,0,0,0,0,0,0],"sum_hessian":[1.624E3,7.84E2,8.4E2,4.3E2,3.54E2,3.89E2,4.51E2,2.47E2,1.83E2,1.06E2,2.48E2,7E1,3.19E2,8.1E1,3.7E2],"tree_param":{"num_deleted":"0","num_feature":"5","num_nodes":"15","size_leaf_vector":"1"}},{"base_weights":[-2.8957487E-3,-8.15552E-1,7.1335775E-1,-1.0589532E0,-2.1401376E-1,3.864183E-1,9.568645E-3,-1.1913054E-2,-6.924787E-3,-2.7622313E-3,-4.0117557E-5,1.7985743E-3,5.0182287E-3],"categories":[],"categories_nodes":[],"categories_segments":[],"categories_sizes":[],"default_left":[0,0,0,0,0,0,0,0,0,0,0,0,0],"id":4,"left_children":[1,3,5,7,9,11,-1,-1,-1,-1,-1,-1,-1],"loss_changes":[9.3622485E2,1.0417154E2,8.872577E1,2.4061523E1,3.4802475E0,1.1095955E1,0E0,0E0,0E0,0E0,0E0,0E0,0E0],"parents":[2147483647,0,0,1,1,2,2,3,3,4,4,5,5],"right_children":[2,4,6,8,10,12,-1,-1,-1,-1,-1,-1,-1],"split_conditions":[1.633894E2,1.3082303E2,2.348891E2,8.4866165E1,2.94E2,2.0188345E2,9.568645E-3,-1.1913054E-2,-6.924787E-3,-2.7622313E-3,-4.0117557E-5,1.7985743E-3,5.0182287E-3],"split_indices":[2,2,2,2,4,2,0,0,0,0,0,0,0],"split_type":[0,0,0,0,0,0,0,0,0,0,0,0,0],"sum_hessian":[1.589E3,7.46E2,8.43E2,5.22E2,2.24E2,4.51E2,3.92E2,2.49E2,2.73E2,1.41E2,8.3E1,2.35E2,2.16E2],"tree_param":{"num_deleted":"0","num_feature":"5","num_nodes":"13","size_leaf_vector":"1"}},{"base_weights":[1.3071745E-2,-8.544633E-1,6.640529E-1,-1.0114077E-2,-4.03839E-1,2.6680192E-1,9.772577E-1,-4.8802556E-3,-1.9239305E-3,-0E0,3.4094101E-3,7.0311786E-3,1.0938362E-2],"categories":[],"categories_nodes":[],"categories_segments":[],"categories_sizes":[],"default_left":[0,0,0,0,0,0,0,0,0,0,0,0,0],"id":5,"left_children":[1,3,5,-1,7,9,11,-1,-1,-1,-1,-1,-1],"loss_changes":[9.249258E2,7.556979E1,1.1010156E2,0E0,3.758339E0,1.2690201E1,8.410217E0,0E0,0E0,0E0,0E0,0E0,0E0],"parents":[2147483647,0,0,1,1,2,2,4,4,5,5,6,6],"right_children":[2,4,6,-1,8,10,12,-1,-1,-1,-1,-1,-1],"split_conditions":[1.5473822E2,1.14383865E2,2.1529158E2,-1.0114077E-2,1.3604088E2,1.7468532E2,2.6767502E2,-4.8802556E-3,-1.9239305E-3,-0E0,3.4094101E-3,7.0311786E-3,1.0938362E-2],"split_indices":[2,2,2,0,2,2,2,0,0,0,0,0,0],"split_type":[0,0,0,0,0,0,0,0,0,0,0,0,0],"sum_hessian":[1.62E3,6.91E2,9.29E2,4.19E2,2.72E2,4.22E2,5.07E2,1.37E2,1.35E2,1.29E2,2.93E2,3.08E2,1.99E2],"tree_param":{"num_deleted":"0","num_feature":"5","num_nodes":"13","size_leaf_vector":"1"}},{"base_weights":[-0E0,-7.973663E-1,7.06766E-1,-1.0593584E0,-3.8058886E-1,3.2472706E-1,1.0094651E0,-1.14242565E-2,-7.482795E-3,-5.0744507E-3,-2.3449373E-3,5.7191643E-5,3.4099517E-3,7.0083006E-3,1.0795232E-2],"categories":[],"categories_nodes":[],"categories_segments":[],"categories_sizes":[],"default_left":[0,0,0,0,0,0,0,0,0,0,0,0,0,0,0],"id":6,"left_children":[1,3,5,7,9,11,13,-1,-1,-1,-1,-1,-1,-1,-1],"loss_changes":[9.1000586E2,7.415152E1,9.144458E1,4.756439E0,2.7038155E0,5.5291176E0,5.0533752E0,0E0,0E0,0E0,0E0,0E0,0E0,0E0,0E0],"parents":[2147483647,0,0,1,1,2,2,3,3,4,4,5,5,6,6],"right_children":[2,4,6,8,10,12,14,-1,-1,-1,-1,-1,-1,-1,-1],"split_conditions":[1.6003741E2,1.179167E2,2.2222826E2,7.902673E1,1.3082303E2,1.7468532E2,2.6306198E2,-1.14242565E-2,-7.482795E-3,-5.0744507E-3,-2.3449373E-3,5.7191643E-5,3.4099517E-3,7.0083006E-3,1.0795232E-2],"split_indices":[2,2,2,2,2,2,2,0,0,0,0,0,0,0,0],"split_type":[0,0,0,0,0,0,0,0,0,0,0,0,0,0,0],"sum_hessian":[1.596E3,7.49E2,8.47E2,4.46E2,3.03E2,3.88E2,4.59E2,2.02E2,2.44E2,9.5E1,2.08E2,6.7E1,3.21E2,2.37E2,2.22E2],"tree_param":{"num_deleted":"0","num_feature":"5","num_nodes":"15","size_leaf_vector":"1"}},{"base_weights":[-0E0,-7.9112715E-1,6.876499E-1,-1.0096045E0,-1.9616603E-3,2.954155E-1,9.6769315E-1,-1.0579708E-2,-6.119012E-3,5.155299E-4,3.1351128E-3,6.7721913E-3,1.0911232E-2],"categories":[],"categories_nodes":[],"categories_segments":[],"categories_sizes":[],"default_left":[0,0,0,0,0,0,0,0,0,0,0,0,0],"id":7,"left_children":[1,3,5,7,-1,9,11,-1,-1,-1,-1,-1,-1],"loss_changes":[8.8957666E2,8.912955E1,8.897977E1,1.5983154E1,0E0,3.262741E0,1.111673E1,0E0,0E0,0E0,0E0,0E0,0E0],"parents":[2147483647,0,0,1,1,2,2,3,3,5,5,6,6],"right_children":[2,4,6,8,-1,10,12,-1,-1,-1,-1,-1,-1],"split_conditions":[1.6003741E2,1.3024536E2,2.1608968E2,9.913585E1,-1.9616603E-3,1.7468532E2,2.652798E2,-1.0579708E-2,-6.119012E-3,5.155299E-4,3.1351128E-3,6.7721913E-3,1.0911232E-2],"split_indices":[2,2,2,2,0,2,2,0,0,0,0,0,0],"split_type":[0,0,0,0,0,0,0,0,0,0,0,0,0],"sum_hessian":[1.616E3,7.52E2,8.64E2,5.35E2,2.17E2,3.73E2,4.91E2,3.33E2,2.02E2,8.3E1,2.9E2,2.89E2,2.02E2],"tree_param":{"num_deleted":"0","num_feature":"5","num_nodes":"13","size_leaf_vector":"1"}},{"base_weights":[-7.2319023E-3,-7.8037405E-1,6.6940373E-1,-1.0468047E0,-3.0860794E-1,3.5302183E-1,9.5351213E-1,-1.1431284E-2,-7.332815E-3,-4.561716E-3,-1.1711295E-3,-0E0,4.066219E-3,2.5641609E-3,9.466793E-3],"categories":[],"categories_nodes":[],"categories_segments":[],"categories_sizes":[],"default_left":[0,0,0,0,0,0,0,0,0,0,0,0,0,0,0],"id":8,"left_children":[1,3,5,7,9,11,13,-1,-1,-1,-1,-1,-1,-1,-1],"loss_changes":[8.378334E2,8.6575745E1,6.8947205E1,7.583313E0,7.43334E0,1.529166E1,2.1426422E1,0E0,0E0,0E0,0E0,0E0,0E0,0E0,0E0],"parents":[2147483647,0,0,1,1,2,2,3,3,4,4,5,5,6,6],"right_children":[2,4,6,8,10,12,14,-1,-1,-1,-1,-1,-1,-1,-1],"split_conditions":[1.6249374E2,1.1988376E2,2.2361906E2,7.982977E1,5.740304E2,3.495318E2,3.344351E2,-1.1431284E-2,-7.332815E-3,-4.561716E-3,-1.1711295E-3,-0E0,4.066219E-3,2.5641609E-3,9.466793E-3],"split_indices":[2,2,2,2,1,1,1,0,0,0,0,0,0,0,0],"split_type":[0,0,0,0,0,0,0,0,0,0,0,0,0,0,0],"sum_hessian":[1.582E3,7.4E2,8.42E2,4.61E2,2.79E2,4.14E2,4.28E2,2.06E2,2.55E2,1.15E2,1.64E2,9E1,3.24E2,6.4E1,3.64E2],"tree_param":{"num_deleted":"0","num_feature":"5","num_nodes":"15","size_leaf_vector":"1"}},{"base_weights":[1.725267E-2,-7.2402865E-1,7.3140013E-1,-1.0185571E-2,-3.1830746E-1,3.4956455E-1,1.0354695E0,-4.163562E-3,-1.9151102E-4,-0E0,3.8207376E-3,2.1028214E-3,9.704898E-3],"categories":[],"categories_nodes":[],"categories_segments":[],"categories_sizes":[],"default_left":[0,0,0,0,0,0,0,0,0,0,0,0,0],"id":9,"left_children":[1,3,5,-1,7,9,11,-1,-1,-1,-1,-1,-1],"loss_changes":[8.400841E2,1.2013925E2,8.60054E1,0E0,1.569479E1,1.0244755E1,8.362549E0,0E0,0E0,0E0,0E0,0E0,0E0],"parents":[2147483647,0,0,1,1,2,2,4,4,5,5,6,6],"right_children":[2,4,6,-1,8,10,12,-1,-1,-1,-1,-1,-1],"split_conditions":[1.6872975E2,1.0689004E2,2.2435637E2,-1.0185571E-2,8.402606E2,3.1427316E2,1.8744092E2,-4.163562E-3,-1.9151102E-4,-0E0,3.8207376E-3,2.1028214E-3,9.704898E-3],"split_indices":[2,2,2,0,1,1,1,0,0,0,0,0,0],"split_type":[0,0,0,0,0,0,0,0,0,0,0,0,0],"sum_hessian":[1.568E3,7.67E2,8.01E2,3.7E2,3.97E2,3.69E2,4.32E2,2.56E2,1.41E2,6.5E1,3.04E2,2.9E1,4.03E2],"tree_param":{"num_deleted":"0","num_feature":"5","num_nodes":"13","size_leaf_vector":"1"}},{"base_weights":[1.30711235E-2,-7.2767323E-1,7.280483E-1,-1.0512394E-2,-3.6071184E-1,4.4175172E-1,1.0166771E0,-5.034541E-3,-1.5076543E-3,2.1927387E-3,5.2221143E-3,6.920012E-3,1.0853745E-2],"categories":[],"categories_nodes":[],"categories_segments":[],"categories_sizes":[],"default_left":[0,0,0,0,0,0,0,0,0,0,0,0,0],"id":10,"left_children":[1,3,5,-1,7,9,11,-1,-1,-1,-1,-1,-1],"loss_changes":[8.536676E2,1.1843692E2,5.8801422E1,0E0,1.387487E1,7.8317337E0,3.1837769E0,0E0,0E0,0E0,0E0,0E0,0E0],"parents":[2147483647,0,0,1,1,2,2,4,4,5,5,6,6],"right_children":[2,4,6,-1,8,10,12,-1,-1,-1,-1,-1,-1],"split_conditions":[1.6872975E2,1.0067473E2,2.348891E2,-1.0512394E-2,1.3082303E2,2.0079028E2,2.6767502E2,-5.034541E-3,-1.5076543E-3,2.1927387E-3,5.2221143E-3,6.920012E-3,1.0853745E-2],"split_indices":[2,2,2,0,2,2,2,0,0,0,0,0,0],"split_type":[0,0,0,0,0,0,0,0,0,0,0,0,0],"sum_hessian":[1.593E3,7.8E2,8.13E2,3.41E2,4.39E2,4.26E2,3.87E2,1.99E2,2.4E2,1.96E2,2.3E2,1.96E2,1.91E2],"tree_param":{"num_deleted":"0","num_feature":"5","num_nodes":"13","size_leaf_vector":"1"}},{"base_weights":[-2.6434727E-3,-7.7856433E-1,6.6654575E-1,-9.966954E-1,-2.0493521E-1,1.7004407E-3,8.901941E-1,-1.1147757E-2,-6.6130986E-3,-2.152683E-3,-0E0,5.61536E-3,9.8371515E-3],"categories":[],"categories_nodes":[],"categories_segments":[],"categories_sizes":[],"default_left":[0,0,0,0,0,0,0,0,0,0,0,0,0],"id":11,"left_children":[1,3,5,7,9,-1,11,-1,-1,-1,-1,-1,-1],"loss_changes":[8.414672E2,8.816583E1,8.74263E1,1.8874146E1,2.140172E0,0E0,1.9280853E1,0E0,0E0,0E0,0E0,0E0,0E0],"parents":[2147483647,0,0,1,1,2,2,3,3,4,4,6,6],"right_children":[2,4,6,8,10,-1,12,-1,-1,-1,-1,-1,-1],"split_conditions":[1.5930504E2,1.2801825E2,2.054454E2,8.4866165E1,4.500138E1,1.7004407E-3,2.5066922E2,-1.1147757E-2,-6.6130986E-3,-2.152683E-3,-0E0,5.61536E-3,9.8371515E-3],"split_indices":[2,2,2,2,0,0,2,0,0,0,0,0,0],"split_type":[0,0,0,0,0,0,0,0,0,0,0,0,0],"sum_hessian":[1.601E3,7.43E2,8.58E2,5.29E2,2.14E2,2.84E2,5.74E2,2.5E2,2.79E2,1.92E2,2.2E1,2.72E2,3.02E2],"tree_param":{"num_deleted":"0","num_feature":"5","num_nodes":"13","size_leaf_vector":"1"}},{"base_weights":[-3.5506133E-3,-7.759831E-1,6.5220577E-1,-1.0965162E-2,-3.7988824E-1,3.188388E-1,9.3581414E-1,-5.0235144E-3,-1.4471466E-3,-4.3191896E-5,3.4511697E-3,1.233166E-3,9.007773E-3],"categories":[],"categories_nodes":[],"categories_segments":[],"categories_sizes":[],"default_left":[0,0,0,0,0,0,0,0,0,0,0,0,0],"id":12,"left_children":[1,3,5,-1,7,9,11,-1,-1,-1,-1,-1,-1],"loss_changes":[8.168643E2,1.20328186E2,7.515146E1,0E0,1.2718773E1,1.0068119E1,1.8737823E1,0E0,0E0,0E0,0E0,0E0,0E0],"parents":[2147483647,0,0,1,1,2,2,4,4,5,5,6,6],"right_children":[2,4,6,-1,8,10,12,-1,-1,-1,-1,-1,-1],"split_conditions":[1.5930504E2,1.0067473E2,2.2361906E2,-1.0965162E-2,1.3082303E2,2.616318E2,1.8744092E2,-5.0235144E-3,-1.4471466E-3,-4.3191896E-5,3.4511697E-3,1.233166E-3,9.007773E-3],"split_indices":[2,2,2,0,2,1,1,0,0,0,0,0,0],"split_type":[0,0,0,0,0,0,0,0,0,0,0,0,0],"sum_hessian":[1.593E3,7.33E2,8.6E2,3.33E2,4E2,4.1E2,4.5E2,2.04E2,1.96E2,6.1E1,3.49E2,4E1,4.1E2],"tree_param":{"num_deleted":"0","num_feature":"5","num_nodes":"13","size_leaf_vector":"1"}},{"base_weights":[1.9148463E-2,-3.7125647E-1,1.2951854E-1,-0E0,-3.508241E-3,6.3865654E-2,3.298251E-1,-1.2823296E-4,1.6979348E-3,2.6234478E-4,3.5024788E-3],"categories":[],"categories_nodes":[],"categories_segments":[],"categories_sizes":[],"default_left":[0,0,0,0,0,0,0,0,0,0,0],"id":13,"left_children":[1,3,5,-1,-1,7,9,-1,-1,-1,-1],"loss_changes":[6.8598175E1,2.487358E0,1.5060902E1,0E0,0E0,1.0113027E1,3.7695923E0,0E0,0E0,0E0,0E0],"parents":[2147483647,0,0,1,1,2,2,5,5,6,6],"right_children":[2,4,6,-1,-1,8,10,-1,-1,-1,-1],"split_conditions":[3.495318E2,1.0854799E3,1.0203891E3,-0E0,-3.508241E-3,2.73E2,1.360862E3,-1.2823296E-4,1.6979348E-3,2.6234478E-4,3.5024788E-3],"split_indices":[1,3,1,0,0,4,3,0,0,0,0],"split_type":[0,0,0,0,0,0,0,0,0,0,0],"sum_hessian":[1.591E3,3.39E2,1.252E3,1.6E1,3.23E2,9.65E2,2.87E2,5.82E2,3.83E2,5.9E1,2.28E2],"tree_param":{"num_deleted":"0","num_feature":"5","num_nodes":"11","size_leaf_vector":"1"}},{"base_weights":[1.425383E-2,-7.526722E-1,6.4867204E-1,-9.4462475E-3,-3.320376E-1,2.715675E-1,9.1017026E-1,-4.5022927E-3,-1.7951872E-3,-0E0,2.7572697E-3,6.48879E-3,1.0438601E-2],"categories":[],"categories_nodes":[],"categories_segments":[],"categories_sizes":[],"default_left":[0,0,0,0,0,0,0,0,0,0,0,0,0],"id":14,"left_children":[1,3,5,-1,7,9,11,-1,-1,-1,-1,-1,-1],"loss_changes":[7.7856537E2,8.227426E1,8.0303406E1,0E0,3.7757378E0,2.5416927E0,9.829071E0,0E0,0E0,0E0,0E0,0E0,0E0],"parents":[2147483647,0,0,1,1,2,2,4,4,5,5,6,6],"right_children":[2,4,6,-1,8,10,12,-1,-1,-1,-1,-1,-1],"split_conditions":[1.6003741E2,1.14815186E2,2.1529158E2,-9.4462475E-3,1.3082303E2,1.6941591E2,2.659923E2,-4.5022927E-3,-1.7951872E-3,-0E0,2.7572697E-3,6.48879E-3,1.0438601E-2],"split_indices":[2,2,2,0,2,2,2,0,0,0,0,0,0],"split_type":[0,0,0,0,0,0,0,0,0,0,0,0,0],"sum_hessian":[1.582E3,7.13E2,8.69E2,4.05E2,3.08E2,3.69E2,5E2,1.13E2,1.95E2,5.4E1,3.15E2,3.13E2,1.87E2],"tree_param":{"num_deleted":"0","num_feature":"5","num_nodes":"13","size_leaf_vector":"1"}},{"base_weights":[2.6574375E-3,-7.5712615E-1,6.456323E-1,-9.627691E-3,-3.5775822E-1,3.1708935E-1,9.531952E-1,-4.449564E-3,-3.6939562E-4,2.9463897E-4,3.404972E-3,2.3440425E-3,9.128168E-3],"categories":[],"categories_nodes":[],"categories_segments":[],"categories_sizes":[],"default_left":[0,0,0,0,0,0,0,0,0,0,0,0,0],"id":15,"left_children":[1,3,5,-1,7,9,11,-1,-1,-1,-1,-1,-1],"loss_changes":[7.753297E2,8.2141235E1,8.000778E1,0E0,1.2603233E1,6.0953407E0,1.1619598E1,0E0,0E0,0E0,0E0,0E0,0E0],"parents":[2147483647,0,0,1,1,2,2,4,4,5,5,6,6],"right_children":[2,4,6,-1,8,10,12,-1,-1,-1,-1,-1,-1],"split_conditions":[1.5930504E2,1.0932476E2,2.2639665E2,-9.627691E-3,8.324422E2,3.344351E2,2.1542764E2,-4.449564E-3,-3.6939562E-4,2.9463897E-4,3.404972E-3,2.3440425E-3,9.128168E-3],"split_indices":[2,2,2,0,1,1,1,0,0,0,0,0,0],"split_type":[0,0,0,0,0,0,0,0,0,0,0,0,0],"sum_hessian":[1.569E3,7.16E2,8.53E2,3.88E2,3.28E2,4.27E2,4.26E2,2.18E2,1.1E2,8.8E1,3.39E2,4.3E1,3.83E2],"tree_param":{"num_deleted":"0","num_feature":"5","num_nodes":"13","size_leaf_vector":"1"}},{"base_weights":[-6.9100754E-3,-6.853402E-2,1.22474946E-1,-2.1585216E-1,-3.8110852E-2,-1.8017387E-3,1.8505286E-1,-3.3967292E-3,6.54022E-4,8.0892275E-4,-1.0264034E-3,-4.4956157E-4,2.1017068E-3],"categories":[],"categories_nodes":[],"categories_segments":[],"categories_sizes":[],"default_left":[0,0,0,0,0,0,0,0,0,0,0,0,0],"id":16,"left_children":[1,3,5,7,9,-1,11,-1,-1,-1,-1,-1,-1],"loss_changes":[1.2370563E1,3.9208188E0,1.0200893E1,8.952192E0,9.201524E0,0E0,5.56429E0,0E0,0E0,0E0,0E0,0E0,0E0],"parents":[2147483647,0,0,1,1,2,2,3,3,4,4,6,6],"right_children":[2,4,6,8,10,-1,12,-1,-1,-1,-1,-1,-1],"split_conditions":[3.8157467E1,1.4243682E1,1.2887594E3,2.3318286E3,2.1629755E1,-1.8017387E-3,6.8E1,-3.3967292E-3,6.54022E-4,8.0892275E-4,-1.0264034E-3,-4.4956157E-4,2.1017068E-3],"split_indices":[0,0,3,3,0,0,4,0,0,0,0,0,0],"split_type":[0,0,0,0,0,0,0,0,0,0,0,0,0],"sum_hessian":[1.555E3,1.074E3,4.81E2,1.55E2,9.19E2,6.6E1,4.15E2,1.05E2,5E1,3.25E2,5.94E2,5.9E1,3.56E2],"tree_param":{"num_deleted":"0","num_feature":"5","num_nodes":"13","size_leaf_vector":"1"}},{"base_weights":[-2.61E-3,-3.6652076E-1,9.9148385E-2,-4.0773743E-1,3.4807585E-5,5.9671327E-3,2.167096E-1,-0E0,-3.888488E-3,-2.432071E-3,2.260343E-4,2.2229261E-3,-0E0],"categories":[],"categories_nodes":[],"categories_segments":[],"categories_sizes":[],"default_left":[0,0,0,0,0,0,0,0,0,0,0,0,0],"id":17,"left_children":[1,3,5,7,-1,9,11,-1,-1,-1,-1,-1,-1],"loss_changes":[5.9399857E1,6.7586403E0,1.2681889E1,3.4722023E0,0E0,2.9935997E0,4.2198086E0,0E0,0E0,0E0,0E0,0E0,0E0],"parents":[2147483647,0,0,1,1,2,2,3,3,5,5,6,6],"right_children":[2,4,6,8,-1,10,12,-1,-1,-1,-1,-1,-1],"split_conditions":[3.5346274E2,2.8477107E3,8.536773E2,1.0854799E3,3.4807585E-5,1.0692656E3,1.1690317E3,-0E0,-3.888488E-3,-2.432071E-3,2.260343E-4,2.2229261E-3,-0E0],"split_indices":[1,3,1,3,0,3,1,0,0,0,0,0,0],"split_type":[0,0,0,0,0,0,0,0,0,0,0,0,0],"sum_hessian":[1.561E3,3.43E2,1.218E3,3.16E2,2.7E1,7.01E2,5.17E2,1.7E1,2.99E2,2.6E1,6.75E2,4.65E2,5.2E1],"tree_param":{"num_deleted":"0","num_feature":"5","num_nodes":"13","size_leaf_vector":"1"}},{"base_weights":[1.0022053E-2,-6.9779575E-1,6.68802E-1,-1.014497E-2,-3.4611E-1,3.315823E-1,9.267018E-1,-5.040274E-3,-1.4129211E-3,-0E0,3.5980255E-3,3.7061286E-3,9.349706E-3],"categories":[],"categories_nodes":[],"categories_segments":[],"categories_sizes":[],"default_left":[0,0,0,0,0,0,0,0,0,0,0,0,0],"id":18,"left_children":[1,3,5,-1,7,9,11,-1,-1,-1,-1,-1,-1],"loss_changes":[7.561722E2,1.09058075E2,6.61196E1,0E0,1.4811127E1,8.516071E0,1.800467E1,0E0,0E0,0E0,0E0,0E0,0E0],"parents":[2147483647,0,0,1,1,2,2,4,4,5,5,6,6],"right_children":[2,4,6,-1,8,10,12,-1,-1,-1,-1,-1,-1],"split_conditions":[1.6872975E2,1.0067473E2,2.2080727E2,-1.014497E-2,1.3082303E2,2.8823465E2,3.5346274E2,-5.040274E-3,-1.4129211E-3,-0E0,3.5980255E-3,3.7061286E-3,9.349706E-3],"split_indices":[2,2,2,0,2,1,1,0,0,0,0,0,0],"split_type":[0,0,0,0,0,0,0,0,0,0,0,0,0],"sum_hessian":[1.603E3,7.7E2,8.33E2,3.33E2,4.37E2,3.76E2,4.57E2,1.88E2,2.49E2,6.7E1,3.09E2,9.5E1,3.62E2],"tree_param":{"num_deleted":"0","num_feature":"5","num_nodes":"13","size_leaf_vector":"1"}},{"base_weights":[9.311652E-3,-6.883568E-1,6.801459E-1,-9.514385E-3,-3.1887567E-1,2.6574226E-3,8.9891213E-1,-4.7911815E-3,-1.4117971E-3,5.923897E-3,9.183624E-3],"categories":[],"categories_nodes":[],"categories_segments":[],"categories_sizes":[],"default_left":[0,0,0,0,0,0,0,0,0,0,0],"id":19,"left_children":[1,3,5,-1,7,-1,9,-1,-1,-1,-1],"loss_changes":[7.4452716E2,9.811096E1,6.195465E1,0E0,1.0942196E1,0E0,2.8677368E0,0E0,0E0,0E0,0E0],"parents":[2147483647,0,0,1,1,2,2,4,4,6,6],"right_children":[2,4,6,-1,8,-1,10,-1,-1,-1,-1],"split_conditions":[1.6872975E2,1.0771339E2,2.1529158E2,-9.514385E-3,1.3082303E2,2.6574226E-3,2.4938431E2,-4.7911815E-3,-1.4117971E-3,5.923897E-3,9.183624E-3],"split_indices":[2,2,2,0,2,0,2,0,0,0,0],"split_type":[0,0,0,0,0,0,0,0,0,0,0],"sum_hessian":[1.572E3,7.68E2,8.04E2,3.71E2,3.97E2,3.05E2,4.99E2,1.53E2,2.44E2,1.97E2,3.02E2],"tree_param":{"num_deleted":"0","num_feature":"5","num_nodes":"11","size_leaf_vector":"1"}},{"base_weights":[-3.9403397E-3,-2.827119E-1,1.096285E-1,-3.17494E-1,-0E0,-1.5259467E-1,1.4207365E-1,-3.8247288E-3,-1.5566997E-3,-2.2490427E-3,-0E0,8.18455E-4,2.511905E-3],"categories":[],"categories_nodes":[],"categories_segments":[],"categories_sizes":[],"default_left":[0,0,0,0,0,0,0,0,0,0,0,0,0],"id":20,"left_children":[1,3,5,7,-1,9,11,-1,-1,-1,-1,-1,-1],"loss_changes":[5.2084015E1,5.674267E0,9.931072E0,4.0673294E0,0E0,2.3665133E0,5.780386E0,0E0,0E0,0E0,0E0,0E0,0E0],"parents":[2147483647,0,0,1,1,2,2,3,3,5,5,6,6],"right_children":[2,4,6,8,-1,10,12,-1,-1,-1,-1,-1,-1],"split_conditions":[4.443748E2,4.19E2,1.4591451E1,2.982868E1,-0E0,9.6398956E2,1.0203891E3,-3.8247288E-3,-1.5566997E-3,-2.2490427E-3,-0E0,8.18455E-4,2.511905E-3],"split_indices":[1,4,0,0,0,1,1,0,0,0,0,0,0],"split_type":[0,0,0,0,0,0,0,0,0,0,0,0,0],"sum_hessian":[1.608E3,4.7E2,1.138E3,4.27E2,4.3E1,1.1E2,1.028E3,2.21E2,2.06E2,7.3E1,3.7E1,7.78E2,2.5E2],"tree_param":{"num_deleted":"0","num_feature":"5","num_nodes":"13","size_leaf_vector":"1"}},{"base_weights":[-1.6820334E-2,-7.410681E-1,6.2424713E-1,-9.6013045E-1,-1.6619446E-3,2.4421743E-1,8.551966E-1,-1.0603049E-2,-6.3772635E-3,1.2185727E-3,3.8261143E-3,6.084699E-3,9.9717695E-3],"categories":[],"categories_nodes":[],"categories_segments":[],"categories_sizes":[],"default_left":[0,0,0,0,0,0,0,0,0,0,0,0,0],"id":21,"left_children":[1,3,5,7,-1,9,11,-1,-1,-1,-1,-1,-1],"loss_changes":[7.4503656E2,8.6540955E1,6.878357E1,1.5118225E1,0E0,4.2469616E0,1.0386719E1,0E0,0E0,0E0,0E0,0E0,0E0],"parents":[2147483647,0,0,1,1,2,2,3,3,5,5,6,6],"right_children":[2,4,6,8,-1,10,12,-1,-1,-1,-1,-1,-1],"split_conditions":[1.633894E2,1.3024536E2,2.1164792E2,8.4866165E1,-1.6619446E-3,1.99176E2,2.6767502E2,-1.0603049E-2,-6.3772635E-3,1.2185727E-3,3.8261143E-3,6.084699E-3,9.9717695E-3],"split_indices":[2,2,2,2,0,2,2,0,0,0,0,0,0],"split_type":[0,0,0,0,0,0,0,0,0,0,0,0,0],"sum_hessian":[1.585E3,7.46E2,8.39E2,5.26E2,2.2E2,3.3E2,5.09E2,2.56E2,2.7E2,2.28E2,1.02E2,3.26E2,1.83E2],"tree_param":{"num_deleted":"0","num_feature":"5","num_nodes":"13","size_leaf_vector":"1"}},{"base_weights":[1.9733952E-3,-7.383727E-1,5.941024E-1,-9.174207E-3,-3.819457E-1,2.8054354E-1,9.07924E-1,-5.0036805E-3,-1.812357E-3,-7.102127E-4,3.3093693E-3,2.0302886E-3,8.887259E-3],"categories":[],"categories_nodes":[],"categories_segments":[],"categories_sizes":[],"default_left":[0,0,0,0,0,0,0,0,0,0,0,0,0],"id":22,"left_children":[1,3,5,-1,7,9,11,-1,-1,-1,-1,-1,-1],"loss_changes":[7.048075E2,6.2947723E1,8.179584E1,0E0,6.8962517E0,1.58939705E1,1.7601746E1,0E0,0E0,0E0,0E0,0E0,0E0],"parents":[2147483647,0,0,1,1,2,2,4,4,5,5,6,6],"right_children":[2,4,6,-1,8,10,12,-1,-1,-1,-1,-1,-1],"split_conditions":[1.5578758E2,1.05750046E2,2.2435637E2,-9.174207E-3,1.3024536E2,2.9370612E2,2.8411014E2,-5.0036805E-3,-1.812357E-3,-7.102127E-4,3.3093693E-3,2.0302886E-3,8.887259E-3],"split_indices":[2,2,2,0,2,1,1,0,0,0,0,0,0],"split_type":[0,0,0,0,0,0,0,0,0,0,0,0,0],"sum_hessian":[1.59E3,7.03E2,8.87E2,3.78E2,3.25E2,4.58E2,4.29E2,1.46E2,1.79E2,8.2E1,3.76E2,5.3E1,3.76E2],"tree_param":{"num_deleted":"0","num_feature":"5","num_nodes":"13","size_leaf_vector":"1"}},{"base_weights":[-1.3063571E-2,-7.1979576E-1,6.168934E-1,-9.900996E-3,-4.1036677E-1,3.1852743E-1,7.888035E-3,-5.127451E-3,-2.0113497E-3,-0E0,3.2352787E-3],"categories":[],"categories_nodes":[],"categories_segments":[],"categories_sizes":[],"default_left":[0,0,0,0,0,0,0,0,0,0,0],"id":23,"left_children":[1,3,5,-1,7,9,-1,-1,-1,-1,-1],"loss_changes":[7.2017926E2,8.060202E1,5.934732E1,0E0,9.26722E0,4.611004E0,0E0,0E0,0E0,0E0,0E0],"parents":[2147483647,0,0,1,1,2,2,4,4,5,5],"right_children":[2,4,6,-1,8,10,-1,-1,-1,-1,-1],"split_conditions":[1.633894E2,9.8295975E1,2.2564786E2,-9.900996E-3,1.3082303E2,1.7176108E2,7.888035E-3,-5.127451E-3,-2.0113497E-3,-0E0,3.2352787E-3],"split_indices":[2,2,2,0,2,2,0,0,0,0,0],"split_type":[0,0,0,0,0,0,0,0,0,0,0],"sum_hessian":[1.598E3,7.55E2,8.43E2,3.23E2,4.32E2,4.08E2,4.35E2,2.13E2,2.19E2,5.4E1,3.54E2],"tree_param":{"num_deleted":"0","num_feature":"5","num_nodes":"11","size_leaf_vector":"1"}},{"base_weights":[-1.2492557E-3,-2.592077E-1,1.1481867E-1,-3.728102E-1,-1.1984802E-1,4.686964E-2,2.7735433E-1,-3.7259106E-3,-0E0,-1.8155752E-3,4.7478417E-4,-1.7750871E-4,1.7819867E-3,3.5021943E-3,6.7568367E-4],"categories":[],"categories_nodes":[],"categories_segments":[],"categories_sizes":[],"default_left":[0,0,0,0,0,0,0,0,0,0,0,0,0,0,0],"id":24,"left_children":[1,3,5,7,9,11,13,-1,-1,-1,-1,-1,-1,-1,-1],"loss_changes":[4.799744E1,5.8538437E0,1.0770426E1,5.116829E0,4.1709137E0,8.603727E0,5.017935E0,0E0,0E0,0E0,0E0,0E0,0E0,0E0,0E0],"parents":[2147483647,0,0,1,1,2,2,3,3,4,4,5,5,6,6],"right_children":[2,4,6,8,10,12,14,-1,-1,-1,-1,-1,-1,-1,-1],"split_conditions":[4.4768768E2,2.982868E1,1.00524536E3,2.8295776E3,3.495318E2,3.7478096E1,1.117286E3,-3.7259106E-3,-0E0,-1.8155752E-3,4.7478417E-4,-1.7750871E-4,1.7819867E-3,3.5021943E-3,6.7568367E-4],"split_indices":[1,0,1,3,1,0,1,0,0,0,0,0,0,0,0],"split_type":[0,0,0,0,0,0,0,0,0,0,0,0,0,0,0],"sum_hessian":[1.568E3,4.92E2,1.076E3,2.49E2,2.43E2,7.82E2,2.94E2,2.3E2,1.9E1,1.77E2,6.6E1,5.33E2,2.49E2,1.73E2,1.21E2],"tree_param":{"num_deleted":"0","num_feature":"5","num_nodes":"15","size_leaf_vector":"1"}},{"base_weights":[-1.07942745E-2,-7.81312E-1,5.32712E-1,-9.789386E-3,-4.2074636E-1,1.12738565E-1,8.039191E-1,-4.7609103E-3,-1.6098886E-3,-1.04432795E-4,1.849056E-3,5.268277E-3,8.740021E-3],"categories":[],"categories_nodes":[],"categories_segments":[],"categories_sizes":[],"default_left":[0,0,0,0,0,0,0,0,0,0,0,0,0],"id":25,"left_children":[1,3,5,-1,7,9,11,-1,-1,-1,-1,-1,-1],"loss_changes":[6.7708734E2,6.465857E1,1.0362088E2,0E0,5.31649E0,5.1317024E0,1.0119598E1,0E0,0E0,0E0,0E0,0E0,0E0],"parents":[2147483647,0,0,1,1,2,2,4,4,5,5,6,6],"right_children":[2,4,6,-1,8,10,12,-1,-1,-1,-1,-1,-1],"split_conditions":[1.4803336E2,1.0067473E2,2.0589136E2,-9.789386E-3,1.3082303E2,1.7176108E2,2.5066922E2,-4.7609103E-3,-1.6098886E-3,-1.04432795E-4,1.849056E-3,5.268277E-3,8.740021E-3],"split_indices":[2,2,2,0,2,2,2,0,0,0,0,0,0],"split_type":[0,0,0,0,0,0,0,0,0,0,0,0,0],"sum_hessian":[1.596E3,6.61E2,9.35E2,3.42E2,3.19E2,3.77E2,5.58E2,2.03E2,1.16E2,1.49E2,2.28E2,2.69E2,2.89E2],"tree_param":{"num_deleted":"0","num_feature":"5","num_nodes":"13","size_leaf_vector":"1"}},{"base_weights":[-2.3812164E-2,-2.3326606E-1,1.3077797E-1,-3.5281894E-1,-1.0209515E-1,4.5306142E-2,2.4868934E-1,-3.386863E-3,-0E0,1.4958025E-3,-1.401316E-3,-4.8539083E-4,1.3303743E-3,2.5761912E-3,-0E0],"categories":[],"categories_nodes":[],"categories_segments":[],"categories_sizes":[],"default_left":[0,0,0,0,0,0,0,0,0,0,0,0,0,0,0],"id":26,"left_children":[1,3,5,7,9,11,13,-1,-1,-1,-1,-1,-1,-1,-1],"loss_changes":[5.239E1,8.967384E0,8.137052E0,2.2194977E0,5.3348694E0,6.083362E0,4.0837555E0,0E0,0E0,0E0,0E0,0E0,0E0,0E0,0E0],"parents":[2147483647,0,0,1,1,2,2,3,3,4,4,5,5,6,6],"right_children":[2,4,6,8,10,12,14,-1,-1,-1,-1,-1,-1,-1,-1],"split_conditions":[5.936148E2,3.5346274E2,9.6398956E2,2.8477107E3,3.8159518E2,2.8601414E1,1.1732173E3,-3.386863E-3,-0E0,1.4958025E-3,-1.401316E-3,-4.8539083E-4,1.3303743E-3,2.5761912E-3,-0E0],"split_indices":[1,1,1,3,1,0,1,0,0,0,0,0,0,0,0],"split_type":[0,0,0,0,0,0,0,0,0,0,0,0,0,0,0],"sum_hessian":[1.589E3,6.82E2,9.07E2,3.35E2,3.47E2,5.5E2,3.57E2,3.09E2,2.6E1,4.4E1,3.03E2,2.65E2,2.85E2,3.17E2,4E1],"tree_param":{"num_deleted":"0","num_feature":"5","num_nodes":"15","size_leaf_vector":"1"}},{"base_weights":[-0E0,-6.406789E-2,1.4229931E-1,-2.059721E-1,-2.5537008E-2,2.0591803E-1,-1.9188352E-4,-3.7432231E-3,-3.4727267E-4,-7.143778E-4,5.9414026E-4,-2.2525697E-3,2.182835E-3],"categories":[],"categories_nodes":[],"categories_segments":[],"categories_sizes":[],"default_left":[0,0,0,0,0,0,0,0,0,0,0,0,0],"id":27,"left_children":[1,3,5,7,9,11,-1,-1,-1,-1,-1,-1,-1],"loss_changes":[1.4999599E1,5.3004265E0,6.0090504E0,6.0252504E0,4.58698E0,6.9851246E0,0E0,0E0,0E0,0E0,0E0,0E0,0E0],"parents":[2147483647,0,0,1,1,2,2,3,3,4,4,5,5],"right_children":[2,4,6,8,10,12,-1,-1,-1,-1,-1,-1,-1],"split_conditions":[3.689052E1,1.49429E1,4.6595448E1,1.7606262E3,3.02E2,1.0942631E3,-1.9188352E-4,-3.7432231E-3,-3.4727267E-4,-7.143778E-4,5.9414026E-4,-2.2525697E-3,2.182835E-3],"split_indices":[0,0,0,3,4,3,0,0,0,0,0,0,0],"split_type":[0,0,0,0,0,0,0,0,0,0,0,0,0],"sum_hessian":[1.616E3,1.112E3,5.04E2,2.1E2,9.02E2,3.76E2,1.28E2,7.8E1,1.32E2,5.92E2,3.1E2,1.7E1,3.59E2],"tree_param":{"num_deleted":"0","num_feature":"5","num_nodes":"13","size_leaf_vector":"1"}},{"base_weights":[1.2881624E-2,-7.0488584E-1,6.1386055E-1,-9.452867E-3,-3.796858E-1,2.7493808E-1,9.1164285E-1,-4.959518E-3,-1.5884088E-3,1.2614186E-3,3.6981748E-3,2.2876728E-3,8.472099E-3],"categories":[],"categories_nodes":[],"categories_segments":[],"categories_sizes":[],"default_left":[0,0,0,0,0,0,0,0,0,0,0,0,0],"id":28,"left_children":[1,3,5,-1,7,9,11,-1,-1,-1,-1,-1,-1],"loss_changes":[6.868056E2,7.267804E1,8.137778E1,0E0,1.0291836E1,5.392948E0,2.5618591E0,0E0,0E0,0E0,0E0,0E0,0E0],"parents":[2147483647,0,0,1,1,2,2,4,4,5,5,6,6],"right_children":[2,4,6,-1,8,10,12,-1,-1,-1,-1,-1,-1],"split_conditions":[1.5930504E2,1.0067473E2,2.2361906E2,-9.452867E-3,1.3024536E2,1.9535153E2,1.3573596E1,-4.959518E-3,-1.5884088E-3,1.2614186E-3,3.6981748E-3,2.2876728E-3,8.472099E-3],"split_indices":[2,2,2,0,2,2,0,0,0,0,0,0,0],"split_type":[0,0,0,0,0,0,0,0,0,0,0,0,0],"sum_hessian":[1.574E3,7.14E2,8.6E2,3.31E2,3.83E2,4.16E2,4.44E2,1.9E2,1.93E2,2.31E2,1.85E2,2.8E1,4.16E2],"tree_param":{"num_deleted":"0","num_feature":"5","num_nodes":"13","size_leaf_vector":"1"}},{"base_weights":[4.814867E-3,-6.2185597E-2,1.54073E-1,-2.300636E-1,-2.8194604E-2,-2.8267952E-2,1.9865702E-1,-3.3859245E-3,2.4565152E-4,2.1231423E-4,-9.0022135E-4,9.948981E-4,-2.4293954E-3,-0E0,2.0398232E-3],"categories":[],"categories_nodes":[],"categories_segments":[],"categories_sizes":[],"default_left":[0,0,0,0,0,0,0,0,0,0,0,0,0,0,0],"id":29,"left_children":[1,3,5,7,9,11,13,-1,-1,-1,-1,-1,-1,-1,-1],"loss_changes":[1.6575447E1,5.3862863E0,4.8509045E0,7.6099453E0,3.8081946E0,4.020747E0,2.796688E0,0E0,0E0,0E0,0E0,0E0,0E0,0E0,0E0],"parents":[2147483647,0,0,1,1,2,2,3,3,4,4,5,5,6,6],"right_children":[2,4,6,8,10,12,14,-1,-1,-1,-1,-1,-1,-1,-1],"split_conditions":[3.7677094E1,1.3878085E1,8E1,2.3318286E3,2.6737871E1,4.500138E1,1.2418975E3,-3.3859245E-3,2.4565152E-4,2.1231423E-4,-9.0022135E-4,9.948981E-4,-2.4293954E-3,-0E0,2.0398232E-3],"split_indices":[0,0,4,3,0,0,3,0,0,0,0,0,0,0,0],"split_type":[0,0,0,0,0,0,0,0,0,0,0,0,0,0,0],"sum_hessian":[1.608E3,1.098E3,5.1E2,1.59E2,9.39E2,8.6E1,4.24E2,1.07E2,5.2E1,5.22E2,4.17E2,4.9E1,3.7E1,4.6E1,3.78E2],"tree_param":{"num_deleted":"0","num_feature":"5","num_nodes":"15","size_leaf_vector":"1"}},{"base_weights":[-1.0732627E-2,-3.121595E-1,1.5881369E-2,-3.7374764E-3,-0E0,-4.834571E-3,2.185103E-1,-3.9105563E-4,5.788132E-4,-0E0,3.753775E-3],"categories":[],"categories_nodes":[],"categories_segments":[],"categories_sizes":[],"default_left":[0,0,0,0,0,0,0,0,0,0,0],"id":30,"left_children":[1,3,5,-1,-1,7,9,-1,-1,-1,-1],"loss_changes":[1.3869902E1,3.2905254E0,6.891115E0,0E0,0E0,3.4950633E0,7.457108E0,0E0,0E0,0E0,0E0],"parents":[2147483647,0,0,1,1,2,2,5,5,6,6],"right_children":[2,4,6,-1,-1,8,10,-1,-1,-1,-1],"split_conditions":[1.338595E1,2.3318286E3,4.28E2,-3.7374764E-3,-0E0,3.7677094E1,2.982868E1,-3.9105563E-4,5.788132E-4,-0E0,3.753775E-3],"split_indices":[0,3,4,0,0,0,0,0,0,0,0],"split_type":[0,0,0,0,0,0,0,0,0,0,0],"sum_hessian":[1.589E3,1.31E2,1.458E3,8.9E1,4.2E1,1.316E3,1.42E2,8.78E2,4.38E2,6.7E1,7.5E1],"tree_param":{"num_deleted":"0","num_feature":"5","num_nodes":"11","size_leaf_vector":"1"}},{"base_weights":[-9.479978E-4,-6.8884325E-1,5.7967347E-1,-8.931261E-3,-3.530274E-1,2.2115369E-1,8.3455354E-1,-4.4637094E-3,-1.9092545E-3,-0E0,2.359524E-3,5.959458E-3,9.436013E-3],"categories":[],"categories_nodes":[],"categories_segments":[],"categories_sizes":[],"default_left":[0,0,0,0,0,0,0,0,0,0,0,0,0],"id":31,"left_children":[1,3,5,-1,7,9,11,-1,-1,-1,-1,-1,-1],"loss_changes":[6.441546E2,6.762381E1,7.4326294E1,0E0,4.0973053E0,2.6615295E0,6.131073E0,0E0,0E0,0E0,0E0,0E0,0E0],"parents":[2147483647,0,0,1,1,2,2,4,4,5,5,6,6],"right_children":[2,4,6,-1,8,10,12,-1,-1,-1,-1,-1,-1],"split_conditions":[1.6003741E2,1.05750046E2,2.1529158E2,-8.931261E-3,1.3024536E2,1.7176108E2,2.6767502E2,-4.4637094E-3,-1.9092545E-3,-0E0,2.359524E-3,5.959458E-3,9.436013E-3],"split_indices":[2,2,2,0,2,2,2,0,0,0,0,0,0],"split_type":[0,0,0,0,0,0,0,0,0,0,0,0,0],"sum_hessian":[1.593E3,7.31E2,8.62E2,3.69E2,3.62E2,3.71E2,4.91E2,1.56E2,2.06E2,7.1E1,3E2,3.02E2,1.89E2],"tree_param":{"num_deleted":"0","num_feature":"5","num_nodes":"13","size_leaf_vector":"1"}},{"base_weights":[1.6017394E-2,-7.415413E-1,5.70453E-1,-9.457065E-3,-4.1506505E-1,3.0580905E-1,8.033139E-3,-5.2306186E-3,-1.73E-3,7.229041E-5,3.450224E-3],"categories":[],"categories_nodes":[],"categories_segments":[],"categories_sizes":[],"default_left":[0,0,0,0,0,0,0,0,0,0,0],"id":32,"left_children":[1,3,5,-1,7,9,-1,-1,-1,-1,-1],"loss_changes":[6.751993E2,5.9332367E1,7.2781494E1,0E0,9.307507E0,1.0921513E1,0E0,0E0,0E0,0E0,0E0],"parents":[2147483647,0,0,1,1,2,2,4,4,5,5],"right_children":[2,4,6,-1,8,10,-1,-1,-1,-1,-1],"split_conditions":[1.5473822E2,1.0067473E2,2.32647E2,-9.457065E-3,1.3024536E2,1.7468532E2,8.033139E-3,-5.2306186E-3,-1.73E-3,7.229041E-5,3.450224E-3],"split_indices":[2,2,2,0,2,2,0,0,0,0,0],"split_type":[0,0,0,0,0,0,0,0,0,0,0],"sum_hessian":[1.59E3,6.68E2,9.22E2,3.27E2,3.41E2,5.22E2,4E2,1.78E2,1.63E2,1.19E2,4.03E2],"tree_param":{"num_deleted":"0","num_feature":"5","num_nodes":"11","size_leaf_vector":"1"}},{"base_weights":[6.864215E-3,-7.153425E-1,5.885982E-1,-9.153379E-3,-3.5023537E-1,1.8878837E-1,8.0319536E-1,-5.7666483E-3,-2.0520382E-3,-1.1163199E-3,2.470326E-3,3.7039989E-3,7.97868E-3],"categories":[],"categories_nodes":[],"categories_segments":[],"categories_sizes":[],"default_left":[0,0,0,0,0,0,0,0,0,0,0,0,0],"id":33,"left_children":[1,3,5,-1,7,9,11,-1,-1,-1,-1,-1,-1],"loss_changes":[6.700521E2,7.0170685E1,7.1275085E1,0E0,7.77763E0,9.606202E0,1.0726929E1,0E0,0E0,0E0,0E0,0E0,0E0],"parents":[2147483647,0,0,1,1,2,2,4,4,5,5,6,6],"right_children":[2,4,6,-1,8,10,12,-1,-1,-1,-1,-1,-1],"split_conditions":[1.5578758E2,1.0689004E2,2.0589136E2,-9.153379E-3,3.601324E2,3.344351E2,3.5346274E2,-5.7666483E-3,-2.0520382E-3,-1.1163199E-3,2.470326E-3,3.7039989E-3,7.97868E-3],"split_indices":[2,2,2,0,1,1,1,0,0,0,0,0,0],"split_type":[0,0,0,0,0,0,0,0,0,0,0,0,0],"sum_hessian":[1.577E3,7E2,8.77E2,3.69E2,3.31E2,3.18E2,5.59E2,7.8E1,2.53E2,5.9E1,2.59E2,1.15E2,4.44E2],"tree_param":{"num_deleted":"0","num_feature":"5","num_nodes":"13","size_leaf_vector":"1"}},{"base_weights":[-1.3023698E-2,-3.7450325E-1,8.689554E-2,-3.683159E-3,-0E0,3.341154E-2,2.5641224E-1,5.686527E-5,1.8086159E-3,5.815263E-3,1.6976527E-3],"categories":[],"categories_nodes":[],"categories_segments":[],"categories_sizes":[],"default_left":[0,0,0,0,0,0,0,0,0,0,0],"id":34,"left_children":[1,3,5,-1,-1,7,9,-1,-1,-1,-1],"loss_changes":[5.8541588E1,5.7427635E0,1.0205129E1,0E0,0E0,3.6933484E0,3.4670944E0,0E0,0E0,0E0,0E0],"parents":[2147483647,0,0,1,1,2,2,5,5,6,6],"right_children":[2,4,6,-1,-1,8,10,-1,-1,-1,-1],"split_conditions":[3.5346274E2,2.9066177E3,1.0203891E3,-3.683159E-3,-0E0,4.25E2,1.0297664E3,5.686527E-5,1.8086159E-3,5.815263E-3,1.6976527E-3],"split_indices":[1,3,1,0,0,4,1,0,0,0,0],"split_type":[0,0,0,0,0,0,0,0,0,0,0],"sum_hessian":[1.576E3,3.43E2,1.233E3,3.2E2,2.3E1,9.61E2,2.72E2,8.53E2,1.08E2,2.1E1,2.51E2],"tree_param":{"num_deleted":"0","num_feature":"5","num_nodes":"11","size_leaf_vector":"1"}},{"base_weights":[-1.4906717E-2,-3.52086E-1,7.741333E-2,-3.6728014E-3,-3.4300305E-2,3.3772722E-2,2.0614205E-1,9.2100905E-4,-2.029468E-3,-4.6023077E-4,1.1811485E-3,-0E0,2.353955E-3],"categories":[],"categories_nodes":[],"categories_segments":[],"categories_sizes":[],"default_left":[0,0,0,0,0,0,0,0,0,0,0,0,0],"id":35,"left_children":[1,3,5,-1,7,9,11,-1,-1,-1,-1,-1,-1],"loss_changes":[5.112766E1,4.682205E0,6.1995854E0,0E0,2.5255396E0,8.373058E0,3.8767405E0,0E0,0E0,0E0,0E0,0E0,0E0],"parents":[2147483647,0,0,1,1,2,2,4,4,5,5,6,6],"right_children":[2,4,6,-1,8,10,12,-1,-1,-1,-1,-1,-1],"split_conditions":[3.5346274E2,4.282306E1,1.0203891E3,-3.6728014E-3,2.0464126E3,3.0637835E1,1.3677688E3,9.2100905E-4,-2.029468E-3,-4.6023077E-4,1.1811485E-3,-0E0,2.353955E-3],"split_indices":[1,0,1,0,3,0,3,0,0,0,0,0,0],"split_type":[0,0,0,0,0,0,0,0,0,0,0,0,0],"sum_hessian":[1.595E3,3.45E2,1.25E3,2.82E2,6.3E1,9.62E2,2.88E2,2.9E1,3.4E1,4.98E2,4.64E2,5.6E1,2.32E2],"tree_param":{"num_deleted":"0","num_feature":"5","num_nodes":"13","size_leaf_vector":"1"}},{"base_weights":[-0E0,-6.8936616E-1,5.7231927E-1,-9.36691E-3,-3.6210898E-1,3.2758948E-1,8.855693E-1,-4.4005183E-3,-9.523202E-4,-0E0,3.5492205E-3,2.3682322E-3,8.684187E-3],"categories":[],"categories_nodes":[],"categories_segments":[],"categories_sizes":[],"default_left":[0,0,0,0,0,0,0,0,0,0,0,0,0],"id":36,"left_children":[1,3,5,-1,7,9,11,-1,-1,-1,-1,-1,-1],"loss_changes":[6.252143E2,7.432849E1,5.9590607E1,0E0,1.0228706E1,1.1085175E1,1.1654388E1,0E0,0E0,0E0,0E0,0E0,0E0],"parents":[2147483647,0,0,1,1,2,2,4,4,5,5,6,6],"right_children":[2,4,6,-1,8,10,12,-1,-1,-1,-1,-1,-1],"split_conditions":[1.5930504E2,1.0067473E2,2.348891E2,-9.36691E-3,8.083939E2,1.7176108E2,2.8411014E2,-4.4005183E-3,-9.523202E-4,-0E0,3.5492205E-3,2.3682322E-3,8.684187E-3],"split_indices":[2,2,2,0,1,2,1,0,0,0,0,0,0],"split_type":[0,0,0,0,0,0,0,0,0,0,0,0,0],"sum_hessian":[1.566E3,7.09E2,8.57E2,3.27E2,3.82E2,4.98E2,3.59E2,2.41E2,1.41E2,8.6E1,4.12E2,5E1,3.09E2],"tree_param":{"num_deleted":"0","num_feature":"5","num_nodes":"13","size_leaf_vector":"1"}},{"base_weights":[-6.6651395E-3,-6.5790826E-1,5.641037E-1,-9.303026E-3,-3.41632E-1,2.5388452E-1,8.280561E-1,-4.772665E-3,-1.2419609E-3,-0E0,3.0216088E-3,-0E0,7.87118E-3],"categories":[],"categories_nodes":[],"categories_segments":[],"categories_sizes":[],"default_left":[0,0,0,0,0,0,0,0,0,0,0,0,0],"id":37,"left_children":[1,3,5,-1,7,9,11,-1,-1,-1,-1,-1,-1],"loss_changes":[5.953651E2,8.12113E1,6.400067E1,0E0,1.3436668E1,7.4084587E0,1.647525E1,0E0,0E0,0E0,0E0,0E0,0E0],"parents":[2147483647,0,0,1,1,2,2,4,4,5,5,6,6],"right_children":[2,4,6,-1,8,10,12,-1,-1,-1,-1,-1,-1],"split_conditions":[1.6249374E2,1.0067473E2,2.2080727E2,-9.303026E-3,1.3082303E2,4.1695978E2,1.6184741E2,-4.772665E-3,-1.2419609E-3,-0E0,3.0216088E-3,-0E0,7.87118E-3],"split_indices":[2,2,2,0,2,1,1,0,0,0,0,0,0],"split_type":[0,0,0,0,0,0,0,0,0,0,0,0,0],"sum_hessian":[1.582E3,7.41E2,8.41E2,3.24E2,4.17E2,4.01E2,4.4E2,2E2,2.17E2,1.1E2,2.91E2,2.5E1,4.15E2],"tree_param":{"num_deleted":"0","num_feature":"5","num_nodes":"13","size_leaf_vector":"1"}},{"base_weights":[-7.830652E-3,-6.442938E-1,6.01663E-1,-9.781092E-3,-4.1734976E-1,3.869139E-1,8.580232E-3,-5.342528E-3,-1.7134937E-3,1.3104209E-3,4.642822E-3],"categories":[],"categories_nodes":[],"categories_segments":[],"categories_sizes":[],"default_left":[0,0,0,0,0,0,0,0,0,0,0],"id":38,"left_children":[1,3,5,-1,7,9,-1,-1,-1,-1,-1],"loss_changes":[6.327843E2,7.102524E1,5.4716278E1,0E0,1.8267502E1,1.3782463E1,0E0,0E0,0E0,0E0,0E0],"parents":[2147483647,0,0,1,1,2,2,4,4,5,5],"right_children":[2,4,6,-1,8,10,-1,-1,-1,-1,-1],"split_conditions":[1.6872975E2,8.4866165E1,2.5066922E2,-9.781092E-3,1.3024536E2,1.9986345E2,8.580232E-3,-5.342528E-3,-1.7134937E-3,1.3104209E-3,4.642822E-3],"split_indices":[2,2,2,0,2,2,0,0,0,0,0],"split_type":[0,0,0,0,0,0,0,0,0,0,0],"sum_hessian":[1.612E3,7.91E2,8.21E2,2.51E2,5.4E2,5.28E2,2.93E2,2.87E2,2.53E2,2E2,3.28E2],"tree_param":{"num_deleted":"0","num_feature":"5","num_nodes":"11","size_leaf_vector":"1"}},{"base_weights":[2.5041027E-2,-6.530634E-1,5.9188604E-1,-8.916282E-3,-3.5460183E-1,2.6917237E-1,8.908462E-1,-4.7884528E-3,-1.4518552E-3,1.373147E-5,2.696349E-3,5.4251547E-3,8.971051E-3],"categories":[],"categories_nodes":[],"categories_segments":[],"categories_sizes":[],"default_left":[0,0,0,0,0,0,0,0,0,0,0,0,0],"id":39,"left_children":[1,3,5,-1,7,9,11,-1,-1,-1,-1,-1,-1],"loss_changes":[5.974704E2,6.323236E1,7.57742E1,0E0,1.0377956E1,2.4593353E0,2.0993042E0,0E0,0E0,0E0,0E0,0E0,0E0],"parents":[2147483647,0,0,1,1,2,2,4,4,5,5,6,6],"right_children":[2,4,6,-1,8,10,12,-1,-1,-1,-1,-1,-1],"split_conditions":[1.633894E2,9.913585E1,2.2564786E2,-8.916282E-3,1.3082303E2,1.7176108E2,2.5066922E2,-4.7884528E-3,-1.4518552E-3,1.373147E-5,2.696349E-3,5.4251547E-3,8.971051E-3],"split_indices":[2,2,2,0,2,2,2,0,0,0,0,0,0],"split_type":[0,0,0,0,0,0,0,0,0,0,0,0,0],"sum_hessian":[1.536E3,6.96E2,8.4E2,3.11E2,3.85E2,4.18E2,4.22E2,1.83E2,2.02E2,5.5E1,3.63E2,1.39E2,2.83E2],"tree_param":{"num_deleted":"0","num_feature":"5","num_nodes":"13","size_leaf_vector":"1"}},{"base_weights":[-2.075535E-2,-1.716993E-1,2.9374383E-2,-2.032589E-1,2.3907605E-5,1.4138308E-3,1.988299E-3,-0E0,-2.0857605E-3,2.1444679E-4,-2.799523E-3],"categories":[],"categories_nodes":[],"categories_segments":[],"categories_sizes":[],"default_left":[0,0,0,0,0,0,0,0,0,0,0],"id":40,"left_children":[1,3,5,7,-1,9,-1,-1,-1,-1,-1],"loss_changes":[1.2554926E1,2.9627924E0,5.5899577E0,2.889104E0,0E0,6.5129857E0,0E0,0E0,0E0,0E0,0E0],"parents":[2147483647,0,0,1,1,2,2,3,3,5,5],"right_children":[2,4,6,8,-1,10,-1,-1,-1,-1,-1],"split_conditions":[1.9653988E1,2.7894827E3,2.8058064E3,1.153646E3,2.3907605E-5,2.7062185E3,1.988299E-3,-0E0,-2.0857605E-3,2.1444679E-4,-2.799523E-3],"split_indices":[0,3,3,3,0,3,0,0,0,0,0],"split_type":[0,0,0,0,0,0,0,0,0,0,0],"sum_hessian":[1.58E3,4.05E2,1.175E3,3.58E2,4.7E1,1.049E3,1.26E2,3.1E1,3.27E2,9.97E2,5.2E1],"tree_param":{"num_deleted":"0","num_feature":"5","num_nodes":"11","size_leaf_vector":"1"}},{"base_weights":[1.1018182E-2,-5.874333E-1,6.266107E-1,-8.944561E-1,-2.0391779E-1,2.709302E-3,7.999583E-1,-9.762413E-3,-5.6793247E-3,-2.5689646E-3,-2.1224646E-4,5.6011397E-3,8.65166E-3],"categories":[],"categories_nodes":[],"categories_segments":[],"categories_sizes":[],"default_left":[0,0,0,0,0,0,0,0,0,0,0,0,0],"id":41,"left_children":[1,3,5,7,9,-1,11,-1,-1,-1,-1,-1,-1],"loss_changes":[5.8436304E2,8.893857E1,3.8283813E1,9.676025E0,4.3831463E0,0E0,3.3234863E0,0E0,0E0,0E0,0E0,0E0,0E0],"parents":[2147483647,0,0,1,1,2,2,3,3,4,4,6,6],"right_children":[2,4,6,8,10,-1,12,-1,-1,-1,-1,-1,-1],"split_conditions":[1.7176108E2,1.1533673E2,2.1608968E2,8.125638E1,1.5117319E2,2.709302E-3,2.619223E2,-9.762413E-3,-5.6793247E-3,-2.5689646E-3,-2.1224646E-4,5.6011397E-3,8.65166E-3],"split_indices":[2,2,2,2,2,0,2,0,0,0,0,0,0],"split_type":[0,0,0,0,0,0,0,0,0,0,0,0,0],"sum_hessian":[1.567E3,7.92E2,7.75E2,4.28E2,3.64E2,2.85E2,4.9E2,2.24E2,2.04E2,2.34E2,1.3E2,2.65E2,2.25E2],"tree_param":{"num_deleted":"0","num_feature":"5","num_nodes":"13","size_leaf_vector":"1"}},{"base_weights":[1.5187279E-2,-5.9670466E-1,5.8537227E-1,-8.8853925E-1,-2.4166213E-1,3.0548987E-1,7.887942E-1,-9.50004E-3,-5.6004263E-3,-3.342783E-3,-3.404926E-4,-0E0,3.400006E-3,1.8898044E-4,7.592035E-3],"categories":[],"categories_nodes":[],"categories_segments":[],"categories_sizes":[],"default_left":[0,0,0,0,0,0,0,0,0,0,0,0,0,0,0],"id":42,"left_children":[1,3,5,7,9,11,13,-1,-1,-1,-1,-1,-1,-1,-1],"loss_changes":[5.4907153E2,7.253598E1,4.057309E1,6.216919E0,7.992193E0,8.394131E0,1.6274475E1,0E0,0E0,0E0,0E0,0E0,0E0,0E0,0E0],"parents":[2147483647,0,0,1,1,2,2,3,3,4,4,5,5,6,6],"right_children":[2,4,6,8,10,12,14,-1,-1,-1,-1,-1,-1,-1,-1],"split_conditions":[1.6872975E2,1.14815186E2,2.2222826E2,8.4866165E1,7.0020526E2,3.280197E2,1.8744092E2,-9.50004E-3,-5.6004263E-3,-3.342783E-3,-3.404926E-4,-0E0,3.400006E-3,1.8898044E-4,7.592035E-3],"split_indices":[2,2,2,2,1,1,1,0,0,0,0,0,0,0,0],"split_type":[0,0,0,0,0,0,0,0,0,0,0,0,0,0,0],"sum_hessian":[1.555E3,7.47E2,8.08E2,3.97E2,3.5E2,3.57E2,4.51E2,2.19E2,1.78E2,1.99E2,1.51E2,6.8E1,2.89E2,3.5E1,4.16E2],"tree_param":{"num_deleted":"0","num_feature":"5","num_nodes":"15","size_leaf_vector":"1"}},{"base_weights":[-2.1564864E-2,-3.3854905E-1,6.498515E-2,-3.2489982E-3,7.631532E-5,-4.0228994E-4,2.1329269E-1,-1.0348642E-3,1.352715E-3,-4.5378163E-4,2.654055E-3],"categories":[],"categories_nodes":[],"categories_segments":[],"categories_sizes":[],"default_left":[0,0,0,0,0,0,0,0,0,0,0],"id":43,"left_children":[1,3,5,-1,-1,7,9,-1,-1,-1,-1],"loss_changes":[4.4819305E1,3.9570312E0,1.2845531E1,0E0,0E0,1.4918929E1,9.539606E0,0E0,0E0,0E0,0E0],"parents":[2147483647,0,0,1,1,2,2,5,5,6,6],"right_children":[2,4,6,-1,-1,8,10,-1,-1,-1,-1],"split_conditions":[3.5346274E2,4.7807545E1,3.7478096E1,-3.2489982E-3,7.631532E-5,8.467505E2,1.4755581E3,-1.0348642E-3,1.352715E-3,-4.5378163E-4,2.654055E-3],"split_indices":[1,0,0,0,0,1,3,0,0,0,0],"split_type":[0,0,0,0,0,0,0,0,0,0,0],"sum_hessian":[1.583E3,3.42E2,1.241E3,3.3E2,1.2E1,8.52E2,3.89E2,4.98E2,3.54E2,8.3E1,3.06E2],"tree_param":{"num_deleted":"0","num_feature":"5","num_nodes":"11","size_leaf_vector":"1"}},{"base_weights":[-4.850322E-3,-3.748685E-1,8.997603E-2,-4.6349075E-1,-6.9581845E-4,2.0041648E-2,2.2625062E-1,-4.513593E-3,-0E0,-4.90806E-4,1.1534857E-3,2.882468E-3,-7.552943E-4],"categories":[],"categories_nodes":[],"categories_segments":[],"categories_sizes":[],"default_left":[0,0,0,0,0,0,0,0,0,0,0,0,0],"id":44,"left_children":[1,3,5,7,-1,9,11,-1,-1,-1,-1,-1,-1],"loss_changes":[5.6206825E1,6.496971E0,1.1004542E1,5.3732834E0,0E0,7.171822E0,1.287513E1,0E0,0E0,0E0,0E0,0E0,0E0],"parents":[2147483647,0,0,1,1,2,2,3,3,5,5,6,6],"right_children":[2,4,6,8,-1,10,12,-1,-1,-1,-1,-1,-1],"split_conditions":[3.5346274E2,3.33E2,3.782563E1,4.6984913E1,-6.9581845E-4,8.506468E2,4.7171227E1,-4.513593E-3,-0E0,-4.90806E-4,1.1534857E-3,2.882468E-3,-7.552943E-4],"split_indices":[1,4,0,0,0,1,0,0,0,0,0,0,0],"split_type":[0,0,0,0,0,0,0,0,0,0,0,0,0],"sum_hessian":[1.556E3,3.19E2,1.237E3,2.33E2,8.6E1,8.41E2,3.96E2,2.19E2,1.4E1,4.82E2,3.59E2,3.12E2,8.4E1],"tree_param":{"num_deleted":"0","num_feature":"5","num_nodes":"13","size_leaf_vector":"1"}},{"base_weights":[-1.650593E-2,-3.4534703E-3,7.416675E-2,-2.3173945E-1,1.05883114E-1,-3.5999352E-3,1.2127626E-3,5.2517E-4,2.0207835E-3],"categories":[],"categories_nodes":[],"categories_segments":[],"categories_sizes":[],"default_left":[0,0,0,0,0,0,0,0,0],"id":45,"left_children":[1,-1,3,5,7,-1,-1,-1,-1],"loss_changes":[5.4535034E1,0E0,1.224888E1,8.398134E0,5.56711E0,0E0,0E0,0E0,0E0],"parents":[2147483647,0,0,2,2,3,3,4,4],"right_children":[2,-1,4,6,8,-1,-1,-1,-1],"split_conditions":[3.5346274E2,-3.4534703E-3,1.338595E1,9.540042E2,1.00524536E3,-3.5999352E-3,1.2127626E-3,5.2517E-4,2.0207835E-3],"split_indices":[1,0,0,1,1,0,0,0,0],"split_type":[0,0,0,0,0,0,0,0,0],"sum_hessian":[1.589E3,3.16E2,1.273E3,1.04E2,1.169E3,7.7E1,2.7E1,8.65E2,3.04E2],"tree_param":{"num_deleted":"0","num_feature":"5","num_nodes":"9","size_leaf_vector":"1"}},{"base_weights":[1.8793565E-3,-3.7506074E-1,1.0993824E-1,6.733252E-4,-3.6755095E-3,4.196218E-2,2.5242946E-1,-3.5551272E-4,1.3846988E-3,-2.246173E-3,2.992468E-3],"categories":[],"categories_nodes":[],"categories_segments":[],"categories_sizes":[],"default_left":[0,0,0,0,0,0,0,0,0,0,0],"id":46,"left_children":[1,3,5,-1,-1,7,9,-1,-1,-1,-1],"loss_changes":[6.517072E1,6.728592E0,1.1182518E1,0E0,0E0,8.514268E0,1.6795502E1,0E0,0E0,0E0,0E0],"parents":[2147483647,0,0,1,1,2,2,5,5,6,6],"right_children":[2,4,6,-1,-1,8,10,-1,-1,-1,-1],"split_conditions":[3.495318E2,1.0854799E3,3.782563E1,6.733252E-4,-3.6755095E-3,8.402606E2,1.2527185E3,-3.5551272E-4,1.3846988E-3,-2.246173E-3,2.992468E-3],"split_indices":[1,3,0,0,0,1,3,0,0,0,0],"split_type":[0,0,0,0,0,0,0,0,0,0,0],"sum_hessian":[1.603E3,3.45E2,1.258E3,1.6E1,3.29E2,8.76E2,3.82E2,4.93E2,3.83E2,4.4E1,3.38E2],"tree_param":{"num_deleted":"0","num_feature":"5","num_nodes":"11","size_leaf_vector":"1"}},{"base_weights":[-0E0,-5.897526E-1,5.622847E-1,-8.694663E-3,-3.029988E-1,4.1380033E-1,8.654932E-3,-4.452901E-3,-1.2259566E-3,1.4394028E-3,4.751913E-3],"categories":[],"categories_nodes":[],"categories_segments":[],"categories_sizes":[],"default_left":[0,0,0,0,0,0,0,0,0,0,0],"id":47,"left_children":[1,3,5,-1,7,9,-1,-1,-1,-1,-1],"loss_changes":[5.358888E2,7.825174E1,4.0552704E1,0E0,1.2184162E1,1.4982834E1,0E0,0E0,0E0,0E0,0E0],"parents":[2147483647,0,0,1,1,2,2,4,4,5,5],"right_children":[2,4,6,-1,8,10,-1,-1,-1,-1,-1],"split_conditions":[1.6872975E2,1.0067473E2,2.652798E2,-8.694663E-3,1.3024536E2,2.0079028E2,8.654932E-3,-4.452901E-3,-1.2259566E-3,1.4394028E-3,4.751913E-3],"split_indices":[2,2,2,0,2,2,0,0,0,0,0],"split_type":[0,0,0,0,0,0,0,0,0,0,0],"sum_hessian":[1.597E3,7.81E2,8.16E2,3.23E2,4.58E2,6.15E2,2.01E2,1.95E2,2.63E2,2.07E2,4.08E2],"tree_param":{"num_deleted":"0","num_feature":"5","num_nodes":"11","size_leaf_vector":"1"}},{"base_weights":[-7.114296E-3,-6.857845E-1,5.089023E-1,-8.599478E-3,-4.0316075E-1,2.2083332E-1,7.967294E-1,-4.5222836E-3,-1.983614E-3,-7.5648073E-4,2.5030246E-3,9.633595E-4,7.5995475E-3],"categories":[],"categories_nodes":[],"categories_segments":[],"categories_sizes":[],"default_left":[0,0,0,0,0,0,0,0,0,0,0,0,0],"id":48,"left_children":[1,3,5,-1,7,9,11,-1,-1,-1,-1,-1,-1],"loss_changes":[5.678684E2,4.532495E1,7.097331E1,0E0,3.148037E0,9.213457E0,1.0710083E1,0E0,0E0,0E0,0E0,0E0,0E0],"parents":[2147483647,0,0,1,1,2,2,4,4,5,5,6,6],"right_children":[2,4,6,-1,8,10,12,-1,-1,-1,-1,-1,-1],"split_conditions":[1.5473822E2,1.0067473E2,2.2564786E2,-8.599478E-3,1.3160252E2,2.616318E2,1.8744092E2,-4.5222836E-3,-1.983614E-3,-7.5648073E-4,2.5030246E-3,9.633595E-4,7.5995475E-3],"split_indices":[2,2,2,0,2,1,1,0,0,0,0,0,0],"split_type":[0,0,0,0,0,0,0,0,0,0,0,0,0],"sum_hessian":[1.601E3,6.93E2,9.08E2,3.37E2,3.56E2,4.68E2,4.4E2,2.08E2,1.48E2,6.4E1,4.04E2,3.5E1,4.05E2],"tree_param":{"num_deleted":"0","num_feature":"5","num_nodes":"13","size_leaf_vector":"1"}},{"base_weights":[1.1137721E-2,-6.388473E-1,5.200638E-1,-7.858241E-3,-2.9873013E-1,2.1851578E-1,7.501377E-1,-3.8029891E-3,-1.506127E-3,5.1850788E-5,2.557567E-3,5.2989866E-3,8.748706E-3],"categories":[],"categories_nodes":[],"categories_segments":[],"categories_sizes":[],"default_left":[0,0,0,0,0,0,0,0,0,0,0,0,0],"id":49,"left_children":[1,3,5,-1,7,9,11,-1,-1,-1,-1,-1,-1],"loss_changes":[5.414068E2,5.0673706E1,5.9111343E1,0E0,2.4243488E0,4.8507805E0,7.68515E0,0E0,0E0,0E0,0E0,0E0,0E0],"parents":[2147483647,0,0,1,1,2,2,4,4,5,5,6,6],"right_children":[2,4,6,-1,8,10,12,-1,-1,-1,-1,-1,-1],"split_conditions":[1.5578758E2,1.1224582E2,2.1529158E2,-7.858241E-3,1.3259262E2,1.7468532E2,2.6767502E2,-3.8029891E-3,-1.506127E-3,5.1850788E-5,2.557567E-3,5.2989866E-3,8.748706E-3],"split_indices":[2,2,2,0,2,2,2,0,0,0,0,0,0],"split_type":[0,0,0,0,0,0,0,0,0,0,0,0,0],"sum_hessian":[1.619E3,7.07E2,9.12E2,4.04E2,3.03E2,4.09E2,5.03E2,1.32E2,1.71E2,1.11E2,2.98E2,3.2E2,1.83E2],"tree_param":{"num_deleted":"0","num_feature":"5","num_nodes":"13","size_leaf_vector":"1"}},{"base_weights":[-1.7233176E-2,-6.548991E-1,5.2093273E-1,-8.861618E-3,-3.674694E-1,1.8144517E-1,7.5267345E-1,-4.4791065E-3,-1.8565402E-3,-0E0,2.0644532E-3,5.2647227E-3,8.307271E-3],"categories":[],"categories_nodes":[],"categories_segments":[],"categories_sizes":[],"default_left":[0,0,0,0,0,0,0,0,0,0,0,0,0],"id":50,"left_children":[1,3,5,-1,7,9,11,-1,-1,-1,-1,-1,-1],"loss_changes":[5.497999E2,6.1722168E1,6.364453E1,0E0,5.3323746E0,3.1190004E0,4.2574463E0,0E0,0E0,0E0,0E0,0E0,0E0],"parents":[2147483647,0,0,1,1,2,2,4,4,5,5,6,6],"right_children":[2,4,6,-1,8,10,12,-1,-1,-1,-1,-1,-1],"split_conditions":[1.6003741E2,9.913585E1,2.1372588E2,-8.861618E-3,1.3024536E2,1.7388445E2,2.6306198E2,-4.4791065E-3,-1.8565402E-3,-0E0,2.0644532E-3,5.2647227E-3,8.307271E-3],"split_indices":[2,2,2,0,2,2,2,0,0,0,0,0,0],"split_type":[0,0,0,0,0,0,0,0,0,0,0,0,0],"sum_hessian":[1.582E3,7.26E2,8.56E2,3.22E2,4.04E2,3.6E2,4.96E2,2.01E2,2.03E2,7.9E1,2.81E2,2.81E2,2.15E2],"tree_param":{"num_deleted":"0","num_feature":"5","num_nodes":"13","size_leaf_vector":"1"}},{"base_weights":[-6.070629E-3,-6.118584E-1,5.445251E-1,-8.174603E-3,-3.5004443E-1,2.872403E-1,7.605691E-1,-4.561225E-3,-1.4797671E-3,-0E0,3.2579831E-3,2.1153595E-3,7.5245174E-3],"categories":[],"categories_nodes":[],"categories_segments":[],"categories_sizes":[],"default_left":[0,0,0,0,0,0,0,0,0,0,0,0,0],"id":51,"left_children":[1,3,5,-1,7,9,11,-1,-1,-1,-1,-1,-1],"loss_changes":[5.3651556E2,5.2391357E1,4.106201E1,0E0,9.443851E0,7.88393E0,1.21223755E1,0E0,0E0,0E0,0E0,0E0,0E0],"parents":[2147483647,0,0,1,1,2,2,4,4,5,5,6,6],"right_children":[2,4,6,-1,8,10,12,-1,-1,-1,-1,-1,-1],"split_conditions":[1.6249374E2,1.0067473E2,2.2435637E2,-8.174603E-3,1.3082303E2,3.6382593E2,2.8411014E2,-4.561225E-3,-1.4797671E-3,-0E0,3.2579831E-3,2.1153595E-3,7.5245174E-3],"split_indices":[2,2,2,0,2,1,1,0,0,0,0,0,0],"split_type":[0,0,0,0,0,0,0,0,0,0,0,0,0],"sum_hessian":[1.589E3,7.59E2,8.3E2,3.39E2,4.2E2,3.96E2,4.34E2,2.09E2,2.11E2,9E1,3.06E2,6.5E1,3.69E2],"tree_param":{"num_deleted":"0","num_feature":"5","num_nodes":"13","size_leaf_vector":"1"}},{"base_weights":[-0E0,-2.5105697E-1,1.1169673E-1,-3.1507605E-1,-2.6658492E-4,2.1771548E-2,1.8850042E-1,-3.5272841E-3,-8.5666205E-4,-1.2737588E-3,7.819353E-4,1.8421822E-3,-0E0],"categories":[],"categories_nodes":[],"categories_segments":[],"categories_sizes":[],"default_left":[0,0,0,0,0,0,0,0,0,0,0,0,0],"id":52,"left_children":[1,3,5,7,-1,9,11,-1,-1,-1,-1,-1,-1],"loss_changes":[4.4261204E1,5.587242E0,6.9206686E0,4.1109314E0,0E0,5.6988287E0,2.2085648E0,0E0,0E0,0E0,0E0,0E0,0E0],"parents":[2147483647,0,0,1,1,2,2,3,3,5,5,6,6],"right_children":[2,4,6,8,-1,10,12,-1,-1,-1,-1,-1,-1],"split_conditions":[4.443748E2,4.0298763E1,8.324422E2,3.4560703E2,-2.6658492E-4,1.994143E1,4.7171227E1,-3.5272841E-3,-8.5666205E-4,-1.2737588E-3,7.819353E-4,1.8421822E-3,-0E0],"split_indices":[1,0,1,1,0,0,0,0,0,0,0,0,0],"split_type":[0,0,0,0,0,0,0,0,0,0,0,0,0],"sum_hessian":[1.574E3,4.73E2,1.101E3,3.52E2,1.21E2,5.33E2,5.68E2,2.44E2,1.08E2,1.34E2,3.99E2,5.33E2,3.5E1],"tree_param":{"num_deleted":"0","num_feature":"5","num_nodes":"13","size_leaf_vector":"1"}},{"base_weights":[-1.0625448E-3,-2.4357559E-1,2.2644747E-2,-3.0038494E-3,6.47672E-4,-1.7582033E-2,1.0074114E-3,1.9448593E-4,-1.2269582E-3],"categories":[],"categories_nodes":[],"categories_segments":[],"categories_sizes":[],"default_left":[0,0,0,0,0,0,0,0,0],"id":53,"left_children":[1,3,5,-1,-1,7,-1,-1,-1],"loss_changes":[1.0091285E1,5.59031E0,5.6114726E0,0E0,0E0,5.0430307E0,0E0,0E0,0E0],"parents":[2147483647,0,0,1,1,2,2,5,5],"right_children":[2,4,6,-1,-1,8,-1,-1,-1],"split_conditions":[1.3721215E1,2.6579094E3,3.16E2,-3.0038494E-3,6.47672E-4,2.35E2,1.0074114E-3,1.9448593E-4,-1.2269582E-3],"split_indices":[0,3,4,0,0,4,0,0,0],"split_type":[0,0,0,0,0,0,0,0,0],"sum_hessian":[1.607E3,1.48E2,1.459E3,1.23E2,2.5E1,9.85E2,4.74E2,7.25E2,2.6E2],"tree_param":{"num_deleted":"0","num_feature":"5","num_nodes":"9","size_leaf_vector":"1"}},{"base_weights":[-1.3300863E-2,-3.28748E-1,7.227578E-2,-0E0,-3.494896E-1,2.2077732E-2,2.0564366E-3,-3.3863327E-3,-0E0,-1.2529298E-3,7.856211E-4],"categories":[],"categories_nodes":[],"categories_segments":[],"categories_sizes":[],"default_left":[0,0,0,0,0,0,0,0,0,0,0],"id":54,"left_children":[1,3,5,-1,7,9,-1,-1,-1,-1,-1],"loss_changes":[4.4266365E1,2.867382E0,8.966973E0,0E0,2.5333061E0,1.023082E1,0E0,0E0,0E0,0E0,0E0],"parents":[2147483647,0,0,1,1,2,2,4,4,5,5],"right_children":[2,4,6,-1,8,10,-1,-1,-1,-1,-1],"split_conditions":[3.495318E2,1.0692656E3,1.0203891E3,-0E0,2.8331848E3,2.018655E1,2.0564366E-3,-3.3863327E-3,-0E0,-1.2529298E-3,7.856211E-4],"split_indices":[1,3,1,0,3,0,0,0,0,0,0],"split_type":[0,0,0,0,0,0,0,0,0,0,0],"sum_hessian":[1.59E3,3.42E2,1.248E3,1.7E1,3.25E2,9.69E2,2.79E2,2.97E2,2.8E1,2.61E2,7.08E2],"tree_param":{"num_deleted":"0","num_feature":"5","num_nodes":"11","size_leaf_vector":"1"}},{"base_weights":[-0E0,-3.072247E-1,8.507376E-2,-3.752641E-1,-3.05223E-5,-2.4980894E-1,1.0579589E-1,-3.6692987E-3,-0E0,-3.800344E-3,-0E0,2.8856203E-4,1.6359126E-3],"categories":[],"categories_nodes":[],"categories_segments":[],"categories_sizes":[],"default_left":[0,0,0,0,0,0,0,0,0,0,0,0,0],"id":55,"left_children":[1,3,5,7,-1,9,11,-1,-1,-1,-1,-1,-1],"loss_changes":[4.124816E1,5.809185E0,8.232136E0,3.0701904E0,0E0,3.901216E0,5.751498E0,0E0,0E0,0E0,0E0,0E0,0E0],"parents":[2147483647,0,0,1,1,2,2,3,3,5,5,6,6],"right_children":[2,4,6,8,-1,10,12,-1,-1,-1,-1,-1,-1],"split_conditions":[3.495318E2,3.6E2,1.1782802E1,4.580425E1,-3.05223E-5,9.2293286E2,2.5E2,-3.6692987E-3,-0E0,-3.800344E-3,-0E0,2.8856203E-4,1.6359126E-3],"split_indices":[1,4,0,0,0,1,4,0,0,0,0,0,0],"split_type":[0,0,0,0,0,0,0,0,0,0,0,0,0],"sum_hessian":[1.545E3,3.34E2,1.211E3,2.62E2,7.2E1,5.5E1,1.156E3,2.39E2,2.3E1,3.5E1,2E1,6.16E2,5.4E2],"tree_param":{"num_deleted":"0","num_feature":"5","num_nodes":"13","size_leaf_vector":"1"}},{"base_weights":[-0E0,-6.19075E-1,5.191946E-1,-8.367332E-3,-3.5152805E-1,1.9343357E-1,7.295753E-1,-4.0451908E-3,-1.1671556E-3,-3.060817E-4,2.2469098E-3,7.9103233E-4,6.9403024E-3],"categories":[],"categories_nodes":[],"categories_segments":[],"categories_sizes":[],"default_left":[0,0,0,0,0,0,0,0,0,0,0,0,0],"id":56,"left_children":[1,3,5,-1,7,9,11,-1,-1,-1,-1,-1,-1],"loss_changes":[5.164622E2,5.329709E1,5.5686676E1,0E0,6.477619E0,5.4554768E0,1.0422821E1,0E0,0E0,0E0,0E0,0E0,0E0],"parents":[2147483647,0,0,1,1,2,2,4,4,5,5,6,6],"right_children":[2,4,6,-1,8,10,12,-1,-1,-1,-1,-1,-1],"split_conditions":[1.6003741E2,1.0067473E2,2.1529158E2,-8.367332E-3,8.083939E2,2.9370612E2,1.8744092E2,-4.0451908E-3,-1.1671556E-3,-3.060817E-4,2.2469098E-3,7.9103233E-4,6.9403024E-3],"split_indices":[2,2,2,0,1,1,1,0,0,0,0,0,0],"split_type":[0,0,0,0,0,0,0,0,0,0,0,0,0],"sum_hessian":[1.589E3,7.21E2,8.68E2,3.17E2,4.04E2,3.54E2,5.14E2,2.63E2,1.41E2,5.9E1,2.95E2,3.8E1,4.76E2],"tree_param":{"num_deleted":"0","num_feature":"5","num_nodes":"13","size_leaf_vector":"1"}},{"base_weights":[-1.6581465E-2,-1.5407756E-3,1.1224908E-2,-1.2247693E-3,4.0141463E-2,-0E0,1.1753257E-3],"categories":[],"categories_nodes":[],"categories_segments":[],"categories_sizes":[],"default_left":[0,0,0,0,0,0,0],"id":57,"left_children":[1,-1,3,-1,5,-1,-1],"loss_changes":[7.4217467E0,0E0,5.450204E0,0E0,3.8683596E0,0E0,0E0],"parents":[2147483647,0,0,2,2,4,4],"right_children":[2,-1,4,-1,6,-1,-1],"split_conditions":[1.5898157E1,-1.5407756E-3,6.8E1,-1.2247693E-3,4.0453987E1,-0E0,1.1753257E-3],"split_indices":[0,0,4,0,0,0,0],"split_type":[0,0,0,0,0,0,0],"sum_hessian":[1.587E3,2.53E2,1.334E3,1.94E2,1.14E3,8.14E2,3.26E2],"tree_param":{"num_deleted":"0","num_feature":"5","num_nodes":"7","size_leaf_vector":"1"}},{"base_weights":[4.272585E-3,-6.427775E-1,5.0601196E-1,-8.818298E-3,-4.4311702E-1,2.1623516E-1,7.7384067E-1,-5.0827763E-3,-1.8006333E-3,-0E0,2.6563965E-3,1.5291369E-3,7.4720117E-3],"categories":[],"categories_nodes":[],"categories_segments":[],"categories_sizes":[],"default_left":[0,0,0,0,0,0,0,0,0,0,0,0,0],"id":58,"left_children":[1,3,5,-1,7,9,11,-1,-1,-1,-1,-1,-1],"loss_changes":[5.0822525E2,3.695703E1,6.3798187E1,0E0,9.69812E0,7.8311577E0,1.0631256E1,0E0,0E0,0E0,0E0,0E0,0E0],"parents":[2147483647,0,0,1,1,2,2,4,4,5,5,6,6],"right_children":[2,4,6,-1,8,10,12,-1,-1,-1,-1,-1,-1],"split_conditions":[1.5473822E2,8.4866165E1,2.2435637E2,-8.818298E-3,1.3082303E2,1.7597455E2,2.1542764E2,-5.0827763E-3,-1.8006333E-3,-0E0,2.6563965E-3,1.5291369E-3,7.4720117E-3],"split_indices":[2,2,2,0,2,2,1,0,0,0,0,0,0],"split_type":[0,0,0,0,0,0,0,0,0,0,0,0,0],"sum_hessian":[1.548E3,6.72E2,8.76E2,2.3E2,4.42E2,4.35E2,4.41E2,2.77E2,1.65E2,1.16E2,3.19E2,4.6E1,3.95E2],"tree_param":{"num_deleted":"0","num_feature":"5","num_nodes":"13","size_leaf_vector":"1"}},{"base_weights":[-0E0,-6.4259803E-1,4.9999455E-1,-8.752722E-1,-3.1775707E-1,1.8376754E-1,7.3468107E-1,-9.476578E-3,-5.7002795E-3,-3.3938526E-3,-0E0,-5.93186E-4,2.4285263E-3,2.3170817E-3,7.3071113E-3],"categories":[],"categories_nodes":[],"categories_segments":[],"categories_sizes":[],"default_left":[0,0,0,0,0,0,0,0,0,0,0,0,0,0,0],"id":59,"left_children":[1,3,5,7,9,11,13,-1,-1,-1,-1,-1,-1,-1,-1],"loss_changes":[5.150709E2,4.6516357E1,6.2302338E1,5.1438904E0,4.716566E0,9.482648E0,1.3081451E1,0E0,0E0,0E0,0E0,0E0,0E0,0E0,0E0],"parents":[2147483647,0,0,1,1,2,2,3,3,4,4,5,5,6,6],"right_children":[2,4,6,8,10,12,14,-1,-1,-1,-1,-1,-1,-1,-1],"split_conditions":[1.5473822E2,1.0771339E2,2.1529158E2,7.902673E1,9.971775E2,3.495318E2,3.2326636E2,-9.476578E-3,-5.7002795E-3,-3.3938526E-3,-0E0,-5.93186E-4,2.4285263E-3,2.3170817E-3,7.3071113E-3],"split_indices":[2,2,2,2,1,1,1,0,0,0,0,0,0,0,0],"split_type":[0,0,0,0,0,0,0,0,0,0,0,0,0,0,0],"sum_hessian":[1.583E3,6.94E2,8.89E2,3.89E2,3.05E2,3.92E2,4.97E2,1.98E2,1.91E2,2.47E2,5.8E1,9.1E1,3.01E2,8.1E1,4.16E2],"tree_param":{"num_deleted":"0","num_feature":"5","num_nodes":"15","size_leaf_vector":"1"}},{"base_weights":[3.2364288E-3,-6.2270725E-1,4.8992825E-1,-8.4235173E-1,-2.4744302E-1,1.9251314E-1,7.138363E-1,-9.126863E-3,-5.7406463E-3,-5.1499E-3,-8.10487E-4,-0E0,2.75058E-3,5.8212585E-4,6.8520075E-3],"categories":[],"categories_nodes":[],"categories_segments":[],"categories_sizes":[],"default_left":[0,0,0,0,0,0,0,0,0,0,0,0,0,0,0],"id":60,"left_children":[1,3,5,7,9,11,13,-1,-1,-1,-1,-1,-1,-1,-1],"loss_changes":[4.9851572E2,5.3159485E1,5.7205383E1,3.7924805E0,1.1714546E1,9.078411E0,1.2701019E1,0E0,0E0,0E0,0E0,0E0,0E0,0E0,0E0],"parents":[2147483647,0,0,1,1,2,2,3,3,4,4,5,5,6,6],"right_children":[2,4,6,8,10,12,14,-1,-1,-1,-1,-1,-1,-1,-1],"split_conditions":[1.5473822E2,1.1533673E2,2.1529158E2,7.902673E1,4.207439E2,5.252137E2,1.8744092E2,-9.126863E-3,-5.7406463E-3,-5.1499E-3,-8.10487E-4,-0E0,2.75058E-3,5.8212585E-4,6.8520075E-3],"split_indices":[2,2,2,2,1,1,1,0,0,0,0,0,0,0,0],"split_type":[0,0,0,0,0,0,0,0,0,0,0,0,0,0,0],"sum_hessian":[1.619E3,7.04E2,9.15E2,4.31E2,2.73E2,4.07E2,5.08E2,2.05E2,2.26E2,7.4E1,1.99E2,1.54E2,2.53E2,4.1E1,4.67E2],"tree_param":{"num_deleted":"0","num_feature":"5","num_nodes":"15","size_leaf_vector":"1"}},{"base_weights":[-1.4656012E-2,-6.319374E-1,4.622949E-1,-7.815314E-3,-3.7474003E-1,1.02604315E-1,6.6844815E-1,-4.456213E-3,-1.4916442E-3,1.3833809E-4,1.8144124E-3,4.3595983E-3,7.286589E-3],"categories":[],"categories_nodes":[],"categories_segments":[],"categories_sizes":[],"default_left":[0,0,0,0,0,0,0,0,0,0,0,0,0],"id":61,"left_children":[1,3,5,-1,7,9,11,-1,-1,-1,-1,-1,-1],"loss_changes":[4.7098145E2,3.526657E1,6.3369843E1,0E0,6.0140686E0,2.2126884E0,6.572647E0,0E0,0E0,0E0,0E0,0E0,0E0],"parents":[2147483647,0,0,1,1,2,2,4,4,5,5,6,6],"right_children":[2,4,6,-1,8,10,12,-1,-1,-1,-1,-1,-1],"split_conditions":[1.5473822E2,1.0067473E2,2.0589136E2,-7.815314E-3,1.3082303E2,3.4900635E1,2.5066922E2,-4.456213E-3,-1.4916442E-3,1.3833809E-4,1.8144124E-3,4.3595983E-3,7.286589E-3],"split_indices":[2,2,2,0,2,0,2,0,0,0,0,0,0],"split_type":[0,0,0,0,0,0,0,0,0,0,0,0,0],"sum_hessian":[1.579E3,6.9E2,8.89E2,3.41E2,3.49E2,3.35E2,5.54E2,2.03E2,1.46E2,2.02E2,1.33E2,2.69E2,2.85E2],"tree_param":{"num_deleted":"0","num_feature":"5","num_nodes":"13","size_leaf_vector":"1"}},{"base_weights":[-0E0,-5.252863E-1,5.484047E-1,-7.963825E-1,-1.9151676E-1,2.4828494E-3,6.9893706E-1,-8.67759E-3,-5.563449E-3,-2.5531556E-3,-4.1156082E-4,4.9234726E-3,7.828766E-3],"categories":[],"categories_nodes":[],"categories_segments":[],"categories_sizes":[],"default_left":[0,0,0,0,0,0,0,0,0,0,0,0,0],"id":62,"left_children":[1,3,5,7,9,-1,11,-1,-1,-1,-1,-1,-1],"loss_changes":[4.7214587E2,7.08192E1,2.785144E1,2.5675964E0,4.0385456E0,0E0,3.7988586E0,0E0,0E0,0E0,0E0,0E0,0E0],"parents":[2147483647,0,0,1,1,2,2,3,3,4,4,6,6],"right_children":[2,4,6,8,10,-1,12,-1,-1,-1,-1,-1,-1],"split_conditions":[1.7468532E2,1.1533673E2,2.1529158E2,7.811267E1,1.4803336E2,2.4828494E-3,2.652798E2,-8.67759E-3,-5.563449E-3,-2.5531556E-3,-4.1156082E-4,4.9234726E-3,7.828766E-3],"split_indices":[2,2,2,2,2,0,2,0,0,0,0,0,0],"split_type":[0,0,0,0,0,0,0,0,0,0,0,0,0],"sum_hessian":[1.62E3,8.26E2,7.94E2,4.43E2,3.83E2,3E2,4.94E2,1.97E2,2.46E2,2.15E2,1.68E2,2.93E2,2.01E2],"tree_param":{"num_deleted":"0","num_feature":"5","num_nodes":"13","size_leaf_vector":"1"}},{"base_weights":[1.2563733E-2,-5.705434E-1,5.0741524E-1,-8.247056E-1,-2.7471352E-1,1.348623E-1,6.9156724E-1,-8.671697E-3,-4.972294E-3,-3.2903661E-3,-5.0627208E-5,-4.8603993E-4,1.9300381E-3,4.297308E-3,7.71749E-3],"categories":[],"categories_nodes":[],"categories_segments":[],"categories_sizes":[],"default_left":[0,0,0,0,0,0,0,0,0,0,0,0,0,0,0],"id":63,"left_children":[1,3,5,7,9,11,13,-1,-1,-1,-1,-1,-1,-1,-1],"loss_changes":[4.5076083E2,4.7869003E1,5.4538116E1,3.9741974E0,7.297222E0,5.1366396E0,1.1505463E1,0E0,0E0,0E0,0E0,0E0,0E0,0E0,0E0],"parents":[2147483647,0,0,1,1,2,2,3,3,4,4,5,5,6,6],"right_children":[2,4,6,8,10,12,14,-1,-1,-1,-1,-1,-1,-1,-1],"split_conditions":[1.6003741E2,1.0689004E2,2.054454E2,8.125638E1,9.2617114E2,4.207439E2,2.5066922E2,-8.671697E-3,-4.972294E-3,-3.2903661E-3,-5.0627208E-5,-4.8603993E-4,1.9300381E-3,4.297308E-3,7.71749E-3],"split_indices":[2,2,2,2,1,1,2,0,0,0,0,0,0,0,0],"split_type":[0,0,0,0,0,0,0,0,0,0,0,0,0,0,0],"sum_hessian":[1.544E3,7.05E2,8.39E2,3.64E2,3.41E2,2.89E2,5.5E2,2.17E2,1.47E2,2.43E2,9.8E1,7.4E1,2.15E2,2.65E2,2.85E2],"tree_param":{"num_deleted":"0","num_feature":"5","num_nodes":"15","size_leaf_vector":"1"}},{"base_weights":[-1.9952117E-2,-6.041707E-1,4.935711E-1,-8.308056E-1,-2.5637037E-1,3.244003E-1,7.1155494E-3,-8.642346E-3,-5.417125E-3,-3.7938675E-3,-1.2481831E-3,1.4345578E-3,3.873339E-3],"categories":[],"categories_nodes":[],"categories_segments":[],"categories_sizes":[],"default_left":[0,0,0,0,0,0,0,0,0,0,0,0,0],"id":64,"left_children":[1,3,5,7,9,11,-1,-1,-1,-1,-1,-1,-1],"loss_changes":[4.7462927E2,5.2842224E1,3.5949448E1,2.2974548E0,3.6302795E0,7.109062E0,0E0,0E0,0E0,0E0,0E0,0E0,0E0],"parents":[2147483647,0,0,1,1,2,2,3,3,4,4,5,5],"right_children":[2,4,6,8,10,12,-1,-1,-1,-1,-1,-1,-1],"split_conditions":[1.6249374E2,1.1533673E2,2.5066922E2,8.4866165E1,1.3082303E2,2.0079028E2,7.1155494E-3,-8.642346E-3,-5.417125E-3,-3.7938675E-3,-1.2481831E-3,1.4345578E-3,3.873339E-3],"split_indices":[2,2,2,2,2,2,0,0,0,0,0,0,0],"split_type":[0,0,0,0,0,0,0,0,0,0,0,0,0],"sum_hessian":[1.562E3,7.33E2,8.29E2,4.3E2,3.03E2,5.48E2,2.81E2,2.46E2,1.84E2,1.04E2,1.99E2,2.36E2,3.12E2],"tree_param":{"num_deleted":"0","num_feature":"5","num_nodes":"13","size_leaf_vector":"1"}},{"base_weights":[-0E0,-5.4734504E-1,5.5585283E-1,-7.5262237E-1,-1.0515471E-3,3.9380968E-1,8.329755E-3,-8.873553E-3,-4.9618655E-3,1.6807974E-3,4.2869677E-3],"categories":[],"categories_nodes":[],"categories_segments":[],"categories_sizes":[],"default_left":[0,0,0,0,0,0,0,0,0,0,0],"id":65,"left_children":[1,3,5,7,-1,9,-1,-1,-1,-1,-1],"loss_changes":[4.9315637E2,6.820914E1,4.041681E1,1.5256287E1,0E0,6.8910904E0,0E0,0E0,0E0,0E0,0E0],"parents":[2147483647,0,0,1,1,2,2,3,3,5,5],"right_children":[2,4,6,8,-1,10,-1,-1,-1,-1,-1],"split_conditions":[1.7176108E2,1.3024536E2,2.6306198E2,8.125638E1,-1.0515471E-3,2.0079028E2,8.329755E-3,-8.873553E-3,-4.9618655E-3,1.6807974E-3,4.2869677E-3],"split_indices":[2,2,2,2,0,2,0,0,0,0,0],"split_type":[0,0,0,0,0,0,0,0,0,0,0],"sum_hessian":[1.602E3,8.05E2,7.97E2,5.35E2,2.7E2,5.74E2,2.23E2,2.23E2,3.12E2,1.84E2,3.9E2],"tree_param":{"num_deleted":"0","num_feature":"5","num_nodes":"11","size_leaf_vector":"1"}},{"base_weights":[3.444789E-3,-5.100781E-1,5.2890337E-1,-7.34104E-3,-2.6814976E-1,2.0707643E-3,7.050098E-1,-3.5438042E-3,-1.2871299E-3,4.980693E-3,8.164799E-3],"categories":[],"categories_nodes":[],"categories_segments":[],"categories_sizes":[],"default_left":[0,0,0,0,0,0,0,0,0,0,0],"id":66,"left_children":[1,3,5,-1,7,-1,9,-1,-1,-1,-1],"loss_changes":[4.3311E2,5.404698E1,3.7224625E1,0E0,5.06662E0,0E0,5.336792E0,0E0,0E0,0E0,0E0],"parents":[2147483647,0,0,1,1,2,2,4,4,6,6],"right_children":[2,4,6,-1,8,-1,10,-1,-1,-1,-1],"split_conditions":[1.6872975E2,1.0067473E2,2.1529158E2,-7.34104E-3,1.3160252E2,2.0707643E-3,2.7104105E2,-3.5438042E-3,-1.2871299E-3,4.980693E-3,8.164799E-3],"split_indices":[2,2,2,0,2,0,2,0,0,0,0],"split_type":[0,0,0,0,0,0,0,0,0,0,0],"sum_hessian":[1.586E3,7.99E2,7.87E2,3.37E2,4.62E2,3.07E2,4.8E2,2.07E2,2.55E2,3.04E2,1.76E2],"tree_param":{"num_deleted":"0","num_feature":"5","num_nodes":"11","size_leaf_vector":"1"}},{"base_weights":[4.9798544E-3,-5.8985716E-1,4.6571687E-1,-7.979313E-3,-2.858173E-1,8.238294E-4,6.309243E-1,-3.5018793E-3,-1.2039046E-3,4.5134737E-3,7.8475075E-3],"categories":[],"categories_nodes":[],"categories_segments":[],"categories_sizes":[],"default_left":[0,0,0,0,0,0,0,0,0,0,0],"id":67,"left_children":[1,3,5,-1,7,-1,9,-1,-1,-1,-1],"loss_changes":[4.4764175E2,5.7746414E1,5.416208E1,0E0,3.5611038E0,0E0,1.0999512E1,0E0,0E0,0E0,0E0],"parents":[2147483647,0,0,1,1,2,2,4,4,6,6],"right_children":[2,4,6,-1,8,-1,10,-1,-1,-1,-1],"split_conditions":[1.5473822E2,9.913585E1,2.0079028E2,-7.979313E-3,1.3024536E2,8.238294E-4,2.6767502E2,-3.5018793E-3,-1.2039046E-3,4.5134737E-3,7.8475075E-3],"split_indices":[2,2,2,0,2,0,2,0,0,0,0],"split_type":[0,0,0,0,0,0,0,0,0,0,0],"sum_hessian":[1.616E3,7.01E2,9.15E2,3.4E2,3.61E2,2.91E2,6.24E2,1.93E2,1.68E2,4.34E2,1.9E2],"tree_param":{"num_deleted":"0","num_feature":"5","num_nodes":"11","size_leaf_vector":"1"}},{"base_weights":[7.21518E-3,-2.5340435E-1,1.270362E-1,-0E0,-2.865754E-1,5.8213215E-2,2.63545E-1,-3.2511696E-3,-9.426208E-4,-0E0,1.3156661E-3,-3.9943238E-4,2.8199856E-3],"categories":[],"categories_nodes":[],"categories_segments":[],"categories_sizes":[],"default_left":[0,0,0,0,0,0,0,0,0,0,0,0,0],"id":68,"left_children":[1,3,5,-1,7,9,11,-1,-1,-1,-1,-1,-1],"loss_changes":[5.0260582E1,4.9752045E0,9.295403E0,0E0,4.2263336E0,4.2907295E0,6.5034275E0,0E0,0E0,0E0,0E0,0E0,0E0],"parents":[2147483647,0,0,1,1,2,2,4,4,5,5,6,6],"right_children":[2,4,6,-1,8,10,12,-1,-1,-1,-1,-1,-1],"split_conditions":[4.443748E2,1.1707686E3,3.782563E1,-0E0,3.280197E2,8.845783E2,1.2975687E3,-3.2511696E-3,-9.426208E-4,-0E0,1.3156661E-3,-3.9943238E-4,2.8199856E-3],"split_indices":[1,3,0,0,1,1,3,0,0,0,0,0,0],"split_type":[0,0,0,0,0,0,0,0,0,0,0,0,0],"sum_hessian":[1.604E3,4.93E2,1.111E3,4.9E1,4.44E2,7.64E2,3.47E2,2.95E2,1.49E2,4.5E2,3.14E2,3.9E1,3.08E2],"tree_param":{"num_deleted":"0","num_feature":"5","num_nodes":"13","size_leaf_vector":"1"}},{"base_weights":[-6.2709684E-3,-3.2504782E-1,7.706353E-2,-3.5850492E-3,-5.593196E-4,1.9758314E-2,2.6768225E-1,-1.1912925E-3,7.32278E-4,2.964296E-3,-0E0],"categories":[],"categories_nodes":[],"categories_segments":[],"categories_sizes":[],"default_left":[0,0,0,0,0,0,0,0,0,0,0],"id":69,"left_children":[1,3,5,-1,-1,7,9,-1,-1,-1,-1],"loss_changes":[4.340304E1,4.7714043E0,1.2769764E1,0E0,0E0,9.248898E0,3.8168068E0,0E0,0E0,0E0,0E0],"parents":[2147483647,0,0,1,1,2,2,5,5,6,6],"right_children":[2,4,6,-1,-1,8,10,-1,-1,-1,-1],"split_conditions":[3.409735E2,3.43E2,1.0203891E3,-3.5850492E-3,-5.593196E-4,2.0330574E1,1.1664792E3,-1.1912925E-3,7.32278E-4,2.964296E-3,-0E0],"split_indices":[1,4,1,0,0,0,1,0,0,0,0],"split_type":[0,0,0,0,0,0,0,0,0,0,0],"sum_hessian":[1.584E3,3.31E2,1.253E3,2.45E2,8.6E1,9.85E2,2.68E2,2.65E2,7.2E2,2.09E2,5.9E1],"tree_param":{"num_deleted":"0","num_feature":"5","num_nodes":"11","size_leaf_vector":"1"}},{"base_weights":[-1.349799E-2,-5.900389E-1,4.403806E-1,-7.959899E-3,-4.0791076E-1,1.5842985E-1,6.471149E-1,-4.563899E-3,-1.574243E-3,-0E0,2.0042302E-3,4.0014167E-3,6.8738894E-3],"categories":[],"categories_nodes":[],"categories_segments":[],"categories_sizes":[],"default_left":[0,0,0,0,0,0,0,0,0,0,0,0,0],"id":70,"left_children":[1,3,5,-1,7,9,11,-1,-1,-1,-1,-1,-1],"loss_changes":[4.2541852E2,3.0755478E1,4.909012E1,0E0,7.6867065E0,4.153159E0,4.8237457E0,0E0,0E0,0E0,0E0,0E0,0E0],"parents":[2147483647,0,0,1,1,2,2,4,4,5,5,6,6],"right_children":[2,4,6,-1,8,10,12,-1,-1,-1,-1,-1,-1],"split_conditions":[1.5473822E2,8.4866165E1,2.1529158E2,-7.959899E-3,1.3082303E2,1.7597455E2,2.5066922E2,-4.563899E-3,-1.574243E-3,-0E0,2.0042302E-3,4.0014167E-3,6.8738894E-3],"split_indices":[2,2,2,0,2,2,2,0,0,0,0,0,0],"split_type":[0,0,0,0,0,0,0,0,0,0,0,0,0],"sum_hessian":[1.605E3,7.09E2,8.96E2,2.5E2,4.59E2,3.93E2,5.03E2,3.04E2,1.55E2,1.15E2,2.78E2,2.11E2,2.92E2],"tree_param":{"num_deleted":"0","num_feature":"5","num_nodes":"13","size_leaf_vector":"1"}},{"base_weights":[-8.500226E-3,-3.3399168E-1,8.0201544E-2,-3.8699983E-3,-1.1558228E-3,3.4200873E-2,2.1581686E-1,1.0269835E-4,2.139718E-3,2.482704E-3,1.06947635E-4],"categories":[],"categories_nodes":[],"categories_segments":[],"categories_sizes":[],"default_left":[0,0,0,0,0,0,0,0,0,0,0],"id":71,"left_children":[1,3,5,-1,-1,7,9,-1,-1,-1,-1],"loss_changes":[4.795164E1,4.6482353E0,7.0366974E0,0E0,0E0,3.685872E0,2.7005863E0,0E0,0E0,0E0,0E0],"parents":[2147483647,0,0,1,1,2,2,5,5,6,6],"right_children":[2,4,6,-1,-1,8,10,-1,-1,-1,-1],"split_conditions":[3.5346274E2,2.78E2,1.0203891E3,-3.8699983E-3,-1.1558228E-3,4.38E2,1.1566515E3,1.0269835E-4,2.139718E-3,2.482704E-3,1.06947635E-4],"split_indices":[1,4,1,0,0,4,1,0,0,0,0],"split_type":[0,0,0,0,0,0,0,0,0,0,0],"sum_hessian":[1.613E3,3.48E2,1.265E3,2.19E2,1.29E2,9.72E2,2.93E2,8.98E2,7.4E1,2.11E2,8.2E1],"tree_param":{"num_deleted":"0","num_feature":"5","num_nodes":"11","size_leaf_vector":"1"}},{"base_weights":[1.5266264E-2,-5.6039286E-1,5.1688206E-1,-7.187376E-1,-1.3376762E-1,1.4301537E-3,6.7059696E-1,-7.907551E-3,-4.938356E-3,4.3605844E-4,-1.5877185E-3,4.649718E-3,7.7536944E-3],"categories":[],"categories_nodes":[],"categories_segments":[],"categories_sizes":[],"default_left":[0,0,0,0,0,0,0,0,0,0,0,0,0],"id":72,"left_children":[1,3,5,7,9,-1,11,-1,-1,-1,-1,-1,-1],"loss_changes":[4.5779355E2,4.589633E1,4.29906E1,5.0004272E0,2.1944435E0,0E0,8.359039E0,0E0,0E0,0E0,0E0,0E0,0E0],"parents":[2147483647,0,0,1,1,2,2,3,3,4,4,6,6],"right_children":[2,4,6,8,10,-1,12,-1,-1,-1,-1,-1,-1],"split_conditions":[1.633894E2,1.3082303E2,2.054454E2,8.4866165E1,5.8E1,1.4301537E-3,2.619223E2,-7.907551E-3,-4.938356E-3,4.3605844E-4,-1.5877185E-3,4.649718E-3,7.7536944E-3],"split_indices":[2,2,2,2,4,0,2,0,0,0,0,0,0],"split_type":[0,0,0,0,0,0,0,0,0,0,0,0,0],"sum_hessian":[1.567E3,7.26E2,8.41E2,5.19E2,2.07E2,2.65E2,5.76E2,2.37E2,2.82E2,2.4E1,1.83E2,3.48E2,2.28E2],"tree_param":{"num_deleted":"0","num_feature":"5","num_nodes":"13","size_leaf_vector":"1"}},{"base_weights":[1.0250296E-2,-2.9536155E-1,1.01463206E-1,-3.3552526E-3,-9.2726696E-4,3.7726205E-2,2.2109221E-1,-4.839377E-5,1.0125275E-3,2.167542E-3,-2.466774E-4],"categories":[],"categories_nodes":[],"categories_segments":[],"categories_sizes":[],"default_left":[0,0,0,0,0,0,0,0,0,0,0],"id":73,"left_children":[1,3,5,-1,-1,7,9,-1,-1,-1,-1],"loss_changes":[4.298669E1,3.2658768E0,8.29969E0,0E0,0E0,3.0149488E0,2.7525635E0,0E0,0E0,0E0,0E0],"parents":[2147483647,0,0,1,1,2,2,5,5,6,6],"right_children":[2,4,6,-1,-1,8,10,-1,-1,-1,-1],"split_conditions":[3.5346274E2,3.07E2,3.782563E1,-3.3552526E-3,-9.2726696E-4,8.787687E2,4.9471863E1,-4.839377E-5,1.0125275E-3,2.167542E-3,-2.466774E-4],"split_indices":[1,4,0,0,0,1,0,0,0,0,0],"split_type":[0,0,0,0,0,0,0,0,0,0,0],"sum_hessian":[1.546E3,3.42E2,1.204E3,2.25E2,1.17E2,8.12E2,3.92E2,4.92E2,3.2E2,3.76E2,1.6E1],"tree_param":{"num_deleted":"0","num_feature":"5","num_nodes":"11","size_leaf_vector":"1"}},{"base_weights":[-1.0545092E-2,-5.341154E-1,4.6789145E-1,-7.4920547E-3,-2.892485E-1,2.9841065E-1,7.6222056E-1,-3.404885E-3,-7.009236E-4,9.838644E-4,3.690129E-3,-0E0,7.433712E-3],"categories":[],"categories_nodes":[],"categories_segments":[],"categories_sizes":[],"default_left":[0,0,0,0,0,0,0,0,0,0,0,0,0],"id":74,"left_children":[1,3,5,-1,7,9,11,-1,-1,-1,-1,-1,-1],"loss_changes":[4.14752E2,5.1904465E1,3.7245224E1,0E0,6.7751656E0,9.840908E0,1.277977E1,0E0,0E0,0E0,0E0,0E0,0E0],"parents":[2147483647,0,0,1,1,2,2,4,4,5,5,6,6],"right_children":[2,4,6,-1,8,10,12,-1,-1,-1,-1,-1,-1],"split_conditions":[1.633894E2,9.913585E1,2.5066922E2,-7.4920547E-3,8.467505E2,2.0079028E2,1.8744092E2,-3.404885E-3,-7.009236E-4,9.838644E-4,3.690129E-3,-0E0,7.433712E-3],"split_indices":[2,2,2,0,1,2,1,0,0,0,0,0,0],"split_type":[0,0,0,0,0,0,0,0,0,0,0,0,0],"sum_hessian":[1.636E3,7.84E2,8.52E2,3.37E2,4.47E2,5.6E2,2.92E2,2.98E2,1.49E2,2.26E2,3.34E2,2.6E1,2.66E2],"tree_param":{"num_deleted":"0","num_feature":"5","num_nodes":"13","size_leaf_vector":"1"}},{"base_weights":[-4.741096E-3,-5.585078E-2,9.252392E-2,-1.9242373E-1,-2.3650356E-2,-0E0,1.4600484E-3,-3.60915E-3,-1.4165886E-4,-0E0,-1.8746612E-3],"categories":[],"categories_nodes":[],"categories_segments":[],"categories_sizes":[],"default_left":[0,0,0,0,0,0,0,0,0,0,0],"id":75,"left_children":[1,3,5,7,9,-1,-1,-1,-1,-1,-1],"loss_changes":[7.8859105E0,3.9702058E0,3.901352E0,5.330585E0,4.5461974E0,0E0,0E0,0E0,0E0,0E0,0E0],"parents":[2147483647,0,0,1,1,2,2,3,3,4,4],"right_children":[2,4,6,8,10,-1,-1,-1,-1,-1,-1],"split_conditions":[3.689052E1,1.4243682E1,1.8564755E3,1.7540364E3,3.377327E1,-0E0,1.4600484E-3,-3.60915E-3,-1.4165886E-4,-0E0,-1.8746612E-3],"split_indices":[0,0,3,3,0,0,0,0,0,0,0],"split_type":[0,0,0,0,0,0,0,0,0,0,0],"sum_hessian":[1.592E3,1.069E3,5.23E2,1.75E2,8.94E2,2.11E2,3.12E2,6.6E1,1.09E2,7.87E2,1.07E2],"tree_param":{"num_deleted":"0","num_feature":"5","num_nodes":"11","size_leaf_vector":"1"}},{"base_weights":[1.179357E-2,-5.500544E-1,4.8205712E-1,-6.9607145E-1,-1.319622E-1,2.76287E-1,7.273971E-1,-7.896988E-3,-4.600241E-3,-2.9187517E-3,3.5051454E-4,1.5466318E-5,2.9829885E-3,-0E0,6.7895306E-3],"categories":[],"categories_nodes":[],"categories_segments":[],"categories_sizes":[],"default_left":[0,0,0,0,0,0,0,0,0,0,0,0,0,0,0],"id":76,"left_children":[1,3,5,7,9,11,13,-1,-1,-1,-1,-1,-1,-1,-1],"loss_changes":[4.246022E2,4.0868927E1,3.906273E1,8.94162E0,7.868476E0,6.448406E0,5.822815E0,0E0,0E0,0E0,0E0,0E0,0E0,0E0,0E0],"parents":[2147483647,0,0,1,1,2,2,3,3,4,4,5,5,6,6],"right_children":[2,4,6,8,10,12,14,-1,-1,-1,-1,-1,-1,-1,-1],"split_conditions":[1.6003741E2,1.3024536E2,2.348891E2,8.4866165E1,6.355124E2,3.0973544E2,1.6184741E2,-7.896988E-3,-4.600241E-3,-2.9187517E-3,3.5051454E-4,1.5466318E-5,2.9829885E-3,-0E0,6.7895306E-3],"split_indices":[2,2,2,2,1,1,1,0,0,0,0,0,0,0,0],"split_type":[0,0,0,0,0,0,0,0,0,0,0,0,0,0,0],"sum_hessian":[1.589E3,7.2E2,8.69E2,5.23E2,1.97E2,4.91E2,3.78E2,2.37E2,2.86E2,9.8E1,9.9E1,9.4E1,3.97E2,1.7E1,3.61E2],"tree_param":{"num_deleted":"0","num_feature":"5","num_nodes":"15","size_leaf_vector":"1"}},{"base_weights":[-6.149565E-3,-4.6171153E-1,4.690434E-1,-7.003499E-1,-1.6463107E-1,2.2274888E-1,5.796309E-3,-7.96526E-3,-4.614551E-3,-2.079098E-3,-3.7470474E-4,9.6128054E-4,2.879469E-3],"categories":[],"categories_nodes":[],"categories_segments":[],"categories_sizes":[],"default_left":[0,0,0,0,0,0,0,0,0,0,0,0,0],"id":77,"left_children":[1,3,5,7,9,11,-1,-1,-1,-1,-1,-1,-1],"loss_changes":[3.4761194E2,5.436937E1,2.9443085E1,6.5056E0,2.1356716E0,2.1519985E0,0E0,0E0,0E0,0E0,0E0,0E0,0E0],"parents":[2147483647,0,0,1,1,2,2,3,3,4,4,5,5],"right_children":[2,4,6,8,10,12,-1,-1,-1,-1,-1,-1,-1],"split_conditions":[1.7176108E2,1.1533673E2,2.2435637E2,7.902673E1,1.4803336E2,2.0188345E2,5.796309E-3,-7.96526E-3,-4.614551E-3,-2.079098E-3,-3.7470474E-4,9.6128054E-4,2.879469E-3],"split_indices":[2,2,2,2,2,2,0,0,0,0,0,0,0],"split_type":[0,0,0,0,0,0,0,0,0,0,0,0,0],"sum_hessian":[1.587E3,8.14E2,7.73E2,4.38E2,3.76E2,3.38E2,4.35E2,1.94E2,2.44E2,2.21E2,1.55E2,1.79E2,1.59E2],"tree_param":{"num_deleted":"0","num_feature":"5","num_nodes":"13","size_leaf_vector":"1"}},{"base_weights":[-1.0616328E-2,-2.8006702E-3,6.670464E-2,5.381389E-3,1.8654422E-1,-5.080351E-4,8.611199E-4,-1.510195E-3,2.1850022E-3],"categories":[],"categories_nodes":[],"categories_segments":[],"categories_sizes":[],"default_left":[0,0,0,0,0,0,0,0,0],"id":78,"left_children":[1,-1,3,5,7,-1,-1,-1,-1],"loss_changes":[3.802967E1,0E0,8.642143E0,5.0151896E0,8.795585E0,0E0,0E0,0E0,0E0],"parents":[2147483647,0,0,2,2,3,3,4,4],"right_children":[2,-1,4,6,8,-1,-1,-1,-1],"split_conditions":[3.495318E2,-2.8006702E-3,3.7677094E1,8.536773E2,1.2418975E3,-5.080351E-4,8.611199E-4,-1.510195E-3,2.1850022E-3],"split_indices":[1,0,0,1,3,0,0,0,0],"split_type":[0,0,0,0,0,0,0,0,0],"sum_hessian":[1.583E3,3.27E2,1.256E3,8.56E2,4E2,4.88E2,3.68E2,4.4E1,3.56E2],"tree_param":{"num_deleted":"0","num_feature":"5","num_nodes":"9","size_leaf_vector":"1"}},{"base_weights":[5.060285E-3,-2.2741307E-1,1.4952451E-1,-2.7051636E-3,-4.3829236E-2,8.436971E-2,2.6112953E-3,7.6485734E-4,-1.0816959E-3,-2.245117E-5,1.5383878E-3],"categories":[],"categories_nodes":[],"categories_segments":[],"categories_sizes":[],"default_left":[0,0,0,0,0,0,0,0,0,0,0],"id":79,"left_children":[1,3,5,-1,7,9,-1,-1,-1,-1,-1],"loss_changes":[5.2866253E1,6.7371635E0,7.5241356E0,0E0,2.1275866E0,5.854374E0,0E0,0E0,0E0,0E0,0E0],"parents":[2147483647,0,0,1,1,2,2,4,4,5,5],"right_children":[2,4,6,-1,8,10,-1,-1,-1,-1,-1],"split_conditions":[5.303238E2,3.689052E1,1.0114305E3,-2.7051636E-3,1.5264742E3,2.8415447E1,2.6112953E-3,7.6485734E-4,-1.0816959E-3,-2.245117E-5,1.5383878E-3],"split_indices":[1,0,1,0,3,0,0,0,0,0,0],"split_type":[0,0,0,0,0,0,0,0,0,0,0],"sum_hessian":[1.563E3,5.88E2,9.75E2,4.03E2,1.85E2,6.93E2,2.82E2,5.2E1,1.33E2,3.31E2,3.62E2],"tree_param":{"num_deleted":"0","num_feature":"5","num_nodes":"11","size_leaf_vector":"1"}},{"base_weights":[4.5866246E-4,-5.871104E-1,4.3137625E-1,-7.386455E-3,-3.2380638E-1,1.2798186E-1,6.290305E-1,-3.7699125E-3,-1.3024972E-3,-0E0,1.9048463E-3,3.9070407E-3,6.9089625E-3],"categories":[],"categories_nodes":[],"categories_segments":[],"categories_sizes":[],"default_left":[0,0,0,0,0,0,0,0,0,0,0,0,0],"id":80,"left_children":[1,3,5,-1,7,9,11,-1,-1,-1,-1,-1,-1],"loss_changes":[4.0505554E2,3.5113937E1,5.2300476E1,0E0,3.304741E0,4.2942715E0,7.7277527E0,0E0,0E0,0E0,0E0,0E0,0E0],"parents":[2147483647,0,0,1,1,2,2,4,4,5,5,6,6],"right_children":[2,4,6,-1,8,10,12,-1,-1,-1,-1,-1,-1],"split_conditions":[1.5117319E2,1.0067473E2,2.085225E2,-7.386455E-3,1.3082303E2,1.7468532E2,2.5066922E2,-3.7699125E-3,-1.3024972E-3,-0E0,1.9048463E-3,3.9070407E-3,6.9089625E-3],"split_indices":[2,2,2,0,2,2,2,0,0,0,0,0,0],"split_type":[0,0,0,0,0,0,0,0,0,0,0,0,0],"sum_hessian":[1.583E3,6.65E2,9.18E2,3.35E2,3.3E2,3.75E2,5.43E2,1.95E2,1.35E2,1.48E2,2.27E2,2.52E2,2.91E2],"tree_param":{"num_deleted":"0","num_feature":"5","num_nodes":"13","size_leaf_vector":"1"}},{"base_weights":[-4.413907E-3,-5.7461534E-2,9.4066195E-2,-1.0627639E-1,1.5120576E-2,-1.2170295E-3,1.1577352E-3,1.8356707E-3,-1.1191722E-3,-1.1017369E-3,8.5488055E-4],"categories":[],"categories_nodes":[],"categories_segments":[],"categories_sizes":[],"default_left":[0,0,0,0,0,0,0,0,0,0,0],"id":81,"left_children":[1,3,5,7,9,-1,-1,-1,-1,-1,-1],"loss_changes":[8.136743E0,4.0411253E0,4.354339E0,3.6515756E0,4.4375014E0,0E0,0E0,0E0,0E0,0E0,0E0],"parents":[2147483647,0,0,1,1,2,2,3,3,4,4],"right_children":[2,4,6,8,10,-1,-1,-1,-1,-1,-1],"split_conditions":[3.07E2,3.4483173E1,1.4374236E1,1.078225E3,1.6301857E3,-1.2170295E-3,1.1577352E-3,1.8356707E-3,-1.1191722E-3,-1.1017369E-3,8.5488055E-4],"split_indices":[4,0,0,3,3,0,0,0,0,0,0],"split_type":[0,0,0,0,0,0,0,0,0,0,0],"sum_hessian":[1.562E3,1.04E3,5.22E2,6.47E2,3.93E2,5.2E1,4.7E2,2E1,6.27E2,1.27E2,2.66E2],"tree_param":{"num_deleted":"0","num_feature":"5","num_nodes":"11","size_leaf_vector":"1"}},{"base_weights":[9.266764E-3,-2.6927948E-1,8.843678E-2,3.7319867E-5,-2.6344191E-3,8.696634E-3,2.5124082E-1,-4.273878E-4,8.6264836E-4,-1.0470988E-3,2.866963E-3],"categories":[],"categories_nodes":[],"categories_segments":[],"categories_sizes":[],"default_left":[0,0,0,0,0,0,0,0,0,0,0],"id":82,"left_children":[1,3,5,-1,-1,7,9,-1,-1,-1,-1],"loss_changes":[3.503979E1,3.2182178E0,1.5555597E1,0E0,0E0,4.4879513E0,1.0989195E1,0E0,0E0,0E0,0E0],"parents":[2147483647,0,0,1,1,2,2,5,5,6,6],"right_children":[2,4,6,-1,-1,8,10,-1,-1,-1,-1],"split_conditions":[3.495318E2,1.0854799E3,3.782563E1,3.7319867E-5,-2.6344191E-3,8.506468E2,1.3254374E3,-4.273878E-4,8.6264836E-4,-1.0470988E-3,2.866963E-3],"split_indices":[1,3,0,0,0,1,3,0,0,0,0],"split_type":[0,0,0,0,0,0,0,0,0,0,0],"sum_hessian":[1.597E3,3.39E2,1.258E3,1.6E1,3.23E2,8.65E2,3.93E2,5.05E2,3.6E2,5.2E1,3.41E2],"tree_param":{"num_deleted":"0","num_feature":"5","num_nodes":"11","size_leaf_vector":"1"}},{"base_weights":[-0E0,-5.652464E-2,1.0489724E-1,-2.1105166E-1,-2.3184273E-2,-1.6123605E-3,1.3198955E-3,-3.067799E-3,4.1468642E-4,3.5462203E-4,-7.924417E-4],"categories":[],"categories_nodes":[],"categories_segments":[],"categories_sizes":[],"default_left":[0,0,0,0,0,0,0,0,0,0,0],"id":83,"left_children":[1,3,5,7,9,-1,-1,-1,-1,-1,-1],"loss_changes":[9.505423E0,4.7242513E0,6.666797E0,6.8988657E0,3.917356E0,0E0,0E0,0E0,0E0,0E0,0E0],"parents":[2147483647,0,0,1,1,2,2,3,3,4,4],"right_children":[2,4,6,8,10,-1,-1,-1,-1,-1,-1],"split_conditions":[3.689052E1,1.4243682E1,5.4E1,2.3318286E3,2.4576395E1,-1.6123605E-3,1.3198955E-3,-3.067799E-3,4.1468642E-4,3.5462203E-4,-7.924417E-4],"split_indices":[0,0,4,3,0,0,0,0,0,0,0],"split_type":[0,0,0,0,0,0,0,0,0,0,0],"sum_hessian":[1.611E3,1.07E3,5.41E2,1.63E2,9.07E2,5.5E1,4.86E2,1.15E2,4.8E1,4.37E2,4.7E2],"tree_param":{"num_deleted":"0","num_feature":"5","num_nodes":"11","size_leaf_vector":"1"}},{"base_weights":[-1.4503382E-2,-2.2171538E-1,6.905468E-2,-2.6362047E-3,-4.1908314E-4,2.5681205E-2,1.7874987E-1,-2.4690464E-4,1.0446565E-3,2.1384798E-3,-0E0],"categories":[],"categories_nodes":[],"categories_segments":[],"categories_sizes":[],"default_left":[0,0,0,0,0,0,0,0,0,0,0],"id":84,"left_children":[1,3,5,-1,-1,7,9,-1,-1,-1,-1],"loss_changes":[2.7867859E1,4.5292015E0,4.5735826E0,0E0,0E0,4.3259115E0,3.7224665E0,0E0,0E0,0E0,0E0],"parents":[2147483647,0,0,1,1,2,2,5,5,6,6],"right_children":[2,4,6,-1,-1,8,10,-1,-1,-1,-1],"split_conditions":[4.4768768E2,3.07E2,1.0203891E3,-2.6362047E-3,-4.1908314E-4,2.75E2,1.1664792E3,-2.4690464E-4,1.0446565E-3,2.1384798E-3,-0E0],"split_indices":[1,4,1,0,0,4,1,0,0,0,0],"split_type":[0,0,0,0,0,0,0,0,0,0,0],"sum_hessian":[1.562E3,4.56E2,1.106E3,3.06E2,1.5E2,8.23E2,2.83E2,4.99E2,3.24E2,2.22E2,6.1E1],"tree_param":{"num_deleted":"0","num_feature":"5","num_nodes":"11","size_leaf_vector":"1"}},{"base_weights":[1.9070584E-2,-4.9193338E-1,5.0279474E-1,-6.716691E-1,-1.3038333E-1,2.0291953E-1,6.6759574E-1,-7.540612E-3,-4.393366E-3,-2.5912435E-3,-0E0,-0E0,2.3788782E-3,1.1732477E-3,6.470892E-3],"categories":[],"categories_nodes":[],"categories_segments":[],"categories_sizes":[],"default_left":[0,0,0,0,0,0,0,0,0,0,0,0,0,0,0],"id":85,"left_children":[1,3,5,7,9,11,13,-1,-1,-1,-1,-1,-1,-1,-1],"loss_changes":[3.9278E2,4.6466537E1,3.6279633E1,7.08049E0,6.2466493E0,4.602844E0,1.053479E1,0E0,0E0,0E0,0E0,0E0,0E0,0E0,0E0],"parents":[2147483647,0,0,1,1,2,2,3,3,4,4,5,5,6,6],"right_children":[2,4,6,8,10,12,14,-1,-1,-1,-1,-1,-1,-1,-1],"split_conditions":[1.6872975E2,1.2801825E2,2.1529158E2,8.4866165E1,5.7789056E2,3.344351E2,2.1951366E2,-7.540612E-3,-4.393366E-3,-2.5912435E-3,-0E0,-0E0,2.3788782E-3,1.1732477E-3,6.470892E-3],"split_indices":[2,2,2,2,1,1,1,0,0,0,0,0,0,0,0],"split_type":[0,0,0,0,0,0,0,0,0,0,0,0,0,0,0],"sum_hessian":[1.57E3,7.6E2,8.1E2,4.96E2,2.64E2,3.02E2,5.08E2,2.33E2,2.63E2,1.22E2,1.42E2,6.2E1,2.4E2,5.3E1,4.55E2],"tree_param":{"num_deleted":"0","num_feature":"5","num_nodes":"15","size_leaf_vector":"1"}},{"base_weights":[-7.7847356E-4,-5.144618E-1,4.43528E-1,-6.5569836E-3,-2.0864317E-1,2.7276874E-1,7.2227293E-1,-2.7338606E-3,-0E0,6.900535E-4,3.312565E-3,-0E0,6.9649583E-3],"categories":[],"categories_nodes":[],"categories_segments":[],"categories_sizes":[],"default_left":[0,0,0,0,0,0,0,0,0,0,0,0,0],"id":86,"left_children":[1,3,5,-1,7,9,11,-1,-1,-1,-1,-1,-1],"loss_changes":[3.7222614E2,4.512491E1,3.6213852E1,0E0,6.7907553E0,8.742405E0,9.539032E0,0E0,0E0,0E0,0E0,0E0,0E0],"parents":[2147483647,0,0,1,1,2,2,4,4,5,5,6,6],"right_children":[2,4,6,-1,8,10,12,-1,-1,-1,-1,-1,-1],"split_conditions":[1.6249374E2,1.1533673E2,2.501E2,-6.5569836E-3,8.613159E2,5.0135437E2,1.7998233E2,-2.7338606E-3,-0E0,6.900535E-4,3.312565E-3,-0E0,6.9649583E-3],"split_indices":[2,2,2,0,1,1,1,0,0,0,0,0,0],"split_type":[0,0,0,0,0,0,0,0,0,0,0,0,0],"sum_hessian":[1.611E3,7.5E2,8.61E2,4.27E2,3.23E2,5.53E2,3.08E2,2.21E2,1.02E2,1.98E2,3.55E2,2.5E1,2.83E2],"tree_param":{"num_deleted":"0","num_feature":"5","num_nodes":"13","size_leaf_vector":"1"}},{"base_weights":[-0E0,-5.338485E-1,4.4943944E-1,-7.457768E-3,-2.980049E-1,1.830089E-1,5.563825E-3,-3.795819E-3,-1.2332931E-3,5.0456636E-4,2.554109E-3],"categories":[],"categories_nodes":[],"categories_segments":[],"categories_sizes":[],"default_left":[0,0,0,0,0,0,0,0,0,0,0],"id":87,"left_children":[1,3,5,-1,7,9,-1,-1,-1,-1,-1],"loss_changes":[3.7948923E2,4.4094666E1,3.4871338E1,0E0,5.9836082E0,3.2370625E0,0E0,0E0,0E0,0E0,0E0],"parents":[2147483647,0,0,1,1,2,2,4,4,5,5],"right_children":[2,4,6,-1,8,10,-1,-1,-1,-1,-1],"split_conditions":[1.6003741E2,9.8295975E1,2.1529158E2,-7.457768E-3,1.3024536E2,1.9188099E3,5.563825E-3,-3.795819E-3,-1.2332931E-3,5.0456636E-4,2.554109E-3],"split_indices":[2,2,2,0,2,3,0,0,0,0,0],"split_type":[0,0,0,0,0,0,0,0,0,0,0],"sum_hessian":[1.563E3,7.13E2,8.5E2,3E2,4.13E2,3.45E2,5.05E2,2.13E2,2E2,1.74E2,1.71E2],"tree_param":{"num_deleted":"0","num_feature":"5","num_nodes":"11","size_leaf_vector":"1"}},{"base_weights":[-2.173484E-2,-2.7034318E-1,8.649441E-2,-2.562016E-3,-0E0,2.1670723E-2,2.1072961E-1,-2.0472659E-4,1.3616409E-3,-0E0,2.7171012E-3],"categories":[],"categories_nodes":[],"categories_segments":[],"categories_sizes":[],"default_left":[0,0,0,0,0,0,0,0,0,0,0],"id":88,"left_children":[1,3,5,-1,-1,7,9,-1,-1,-1,-1],"loss_changes":[4.3661278E1,2.3103256E0,8.082818E0,0E0,0E0,4.8158984E0,7.9131947E0,0E0,0E0,0E0,0E0],"parents":[2147483647,0,0,1,1,2,2,5,5,6,6],"right_children":[2,4,6,-1,-1,8,10,-1,-1,-1,-1],"split_conditions":[4.443748E2,4.7807545E1,3.7677094E1,-2.562016E-3,-0E0,1.00524536E3,1.6301857E3,-2.0472659E-4,1.3616409E-3,-0E0,2.7171012E-3],"split_indices":[1,0,0,0,0,1,3,0,0,0,0],"split_type":[0,0,0,0,0,0,0,0,0,0,0],"sum_hessian":[1.582E3,4.85E2,1.097E3,4.65E2,2E1,7.46E2,3.51E2,5.42E2,2.04E2,9.8E1,2.53E2],"tree_param":{"num_deleted":"0","num_feature":"5","num_nodes":"11","size_leaf_vector":"1"}},{"base_weights":[4.2750966E-3,-3.0657375E-1,9.389153E-2,-0E0,-2.9260763E-3,2.9098973E-2,1.8004695E-1,-4.6193865E-5,1.4045648E-3,1.8744433E-3,-0E0],"categories":[],"categories_nodes":[],"categories_segments":[],"categories_sizes":[],"default_left":[0,0,0,0,0,0,0,0,0,0,0],"id":89,"left_children":[1,3,5,-1,-1,7,9,-1,-1,-1,-1],"loss_changes":[4.5195354E1,2.6369972E0,6.4312143E0,0E0,0E0,3.8568444E0,3.2757778E0,0E0,0E0,0E0,0E0],"parents":[2147483647,0,0,1,1,2,2,5,5,6,6],"right_children":[2,4,6,-1,-1,8,10,-1,-1,-1,-1],"split_conditions":[3.5346274E2,1.0854799E3,2.1487449E3,-0E0,-2.9260763E-3,1.0203891E3,2.9066177E3,-4.6193865E-5,1.4045648E-3,1.8744433E-3,-0E0],"split_indices":[1,3,3,0,0,1,3,0,0,0,0],"split_type":[0,0,0,0,0,0,0,0,0,0,0],"sum_hessian":[1.629E3,3.51E2,1.278E3,1.5E1,3.36E2,7.59E2,5.19E2,5.84E2,1.75E2,4.61E2,5.8E1],"tree_param":{"num_deleted":"0","num_feature":"5","num_nodes":"11","size_leaf_vector":"1"}},{"base_weights":[-2.0078352E-2,-5.1929814E-1,4.3573192E-1,-6.8562115E-3,-2.4960414E-1,3.0843902E-1,7.249402E-3,-3.5093508E-3,-1.0670172E-3,1.162085E-3,3.832576E-3],"categories":[],"categories_nodes":[],"categories_segments":[],"categories_sizes":[],"default_left":[0,0,0,0,0,0,0,0,0,0,0],"id":90,"left_children":[1,3,5,-1,7,9,-1,-1,-1,-1,-1],"loss_changes":[3.7410168E2,4.6291565E1,3.41595E1,0E0,5.0821323E0,1.1469467E1,0E0,0E0,0E0,0E0,0E0],"parents":[2147483647,0,0,1,1,2,2,4,4,5,5],"right_children":[2,4,6,-1,8,10,-1,-1,-1,-1,-1],"split_conditions":[1.633894E2,1.0689004E2,2.652798E2,-6.8562115E-3,1.3160252E2,2.054454E2,7.249402E-3,-3.5093508E-3,-1.0670172E-3,1.162085E-3,3.832576E-3],"split_indices":[2,2,2,0,2,2,0,0,0,0,0],"split_type":[0,0,0,0,0,0,0,0,0,0,0],"sum_hessian":[1.624E3,7.78E2,8.46E2,3.94E2,3.84E2,6.49E2,1.97E2,1.64E2,2.2E2,2.76E2,3.73E2],"tree_param":{"num_deleted":"0","num_feature":"5","num_nodes":"11","size_leaf_vector":"1"}},{"base_weights":[-0E0,-2.6155823E-1,7.2937734E-2,-3.6256998E-3,-1.3569087E-1,3.872684E-3,2.1775913E-1,5.527853E-4,-1.6004422E-3,-4.4310017E-4,7.602566E-4,2.5375995E-3,-0E0],"categories":[],"categories_nodes":[],"categories_segments":[],"categories_sizes":[],"default_left":[0,0,0,0,0,0,0,0,0,0,0,0,0],"id":91,"left_children":[1,3,5,-1,7,9,11,-1,-1,-1,-1,-1,-1],"loss_changes":[3.0036863E1,3.738577E0,1.1800709E1,0E0,2.2187946E0,3.9053416E0,4.7019424E0,0E0,0E0,0E0,0E0,0E0,0E0],"parents":[2147483647,0,0,1,1,2,2,4,4,5,5,6,6],"right_children":[2,4,6,-1,8,10,12,-1,-1,-1,-1,-1,-1],"split_conditions":[3.4560703E2,1.88E2,3.8007504E1,-3.6256998E-3,2.17E2,8.506468E2,4.6984913E1,5.527853E-4,-1.6004422E-3,-4.4310017E-4,7.602566E-4,2.5375995E-3,-0E0],"split_indices":[1,4,0,0,4,1,0,0,0,0,0,0,0],"split_type":[0,0,0,0,0,0,0,0,0,0,0,0,0],"sum_hessian":[1.578E3,3.32E2,1.246E3,1.34E2,1.98E2,8.66E2,3.8E2,2E1,1.78E2,4.99E2,3.67E2,2.82E2,9.8E1],"tree_param":{"num_deleted":"0","num_feature":"5","num_nodes":"13","size_leaf_vector":"1"}},{"base_weights":[-0E0,-5.0248516E-1,4.358517E-1,-6.593307E-1,-1.3094752E-1,2.2394682E-1,6.6794527E-1,-7.621774E-3,-4.679564E-3,-2.1476904E-3,-0E0,1.1309357E-3,2.9935224E-3,-0E0,6.5556406E-3],"categories":[],"categories_nodes":[],"categories_segments":[],"categories_sizes":[],"default_left":[0,0,0,0,0,0,0,0,0,0,0,0,0,0,0],"id":92,"left_children":[1,3,5,7,9,11,13,-1,-1,-1,-1,-1,-1,-1,-1],"loss_changes":[3.5052744E2,3.9956985E1,3.7600708E1,4.705887E0,2.581491E0,3.0617905E0,1.4282379E1,0E0,0E0,0E0,0E0,0E0,0E0,0E0,0E0],"parents":[2147483647,0,0,1,1,2,2,3,3,4,4,5,5,6,6],"right_children":[2,4,6,8,10,12,14,-1,-1,-1,-1,-1,-1,-1,-1],"split_conditions":[1.633894E2,1.3024536E2,2.3368462E2,7.902673E1,6.355124E2,2.054454E2,2.1542764E2,-7.621774E-3,