{"learner":{"attributes":{"best_iteration":"498","best_score":"0.7024667004729425"},"feature_names":["soil_moisture","total_rainfall","fertilizer_amount","sunlight_hours","field_id"],"feature_types":["float","float","float","float","int"],"gradient_booster":{"model":{"cats":{"enc":[],"feature_segments":[],"sorted_idx":[]},"gbtree_model_param":{"num_parallel_tree":"1","num_trees":"519"},"iteration_indptr":[0,1,2,3,4,5,6,7,8,9,10,11,12,13,14,15,16,17,18,19,20,21,22,23,24,25,26,27,28,29,30,31,32,33,34,35,36,37,38,39,40,41,42,43,44,45,46,47,48,49,50,51,52,53,54,55,56,57,58,59,60,61,62,63,64,65,66,67,68,69,70,71,72,73,74,75,76,77,78,79,80,81,82,83,84,85,86,87,88,89,90,91,92,93,94,95,96,97,98,99,100,101,102,103,104,105,106,107,108,109,110,111,112,113,114,115,116,117,118,119,120,121,122,123,124,125,126,127,128,129,130,131,132,133,134,135,136,137,138,139,140,141,142,143,144,145,146,147,148,149,150,151,152,153,154,155,156,157,158,159,160,161,162,163,164,165,166,167,168,169,170,171,172,173,174,175,176,177,178,179,180,181,182,183,184,185,186,187,188,189,190,191,192,193,194,195,196,197,198,199,200,201,202,203,204,205,206,207,208,209,210,211,212,213,214,215,216,217,218,219,220,221,222,223,224,225,226,227,228,229,230,231,232,233,234,235,236,237,238,239,240,241,242,243,244,245,246,247,248,249,250,251,252,253,254,255,256,257,258,259,260,261,262,263,264,265,266,267,268,269,270,271,272,273,274,275,276,277,278,279,280,281,282,283,284,285,286,287,288,289,290,291,292,293,294,295,296,297,298,299,300,301,302,303,304,305,306,307,308,309,310,311,312,313,314,315,316,317,318,319,320,321,322,323,324,325,326,327,328,329,330,331,332,333,334,335,336,337,338,339,340,341,342,343,344,345,346,347,348,349,350,351,352,353,354,355,356,357,358,359,360,361,362,363,364,365,366,367,368,369,370,371,372,373,374,375,376,377,378,379,380,381,382,383,384,385,386,387,388,389,390,391,392,393,394,395,396,397,398,399,400,401,402,403,404,405,406,407,408,409,410,411,412,413,414,415,416,417,418,419,420,421,422,423,424,425,426,427,428,429,430,431,432,433,434,435,436,437,438,439,440,441,442,443,444,445,446,447,448,449,450,451,452,453,454,455,456,457,458,459,460,461,462,463,464,465,466,467,468,469,470,471,472,473,474,475,476,477,478,479,480,481,482,483,484,485,486,487,488,489,490,491,492,493,494,495,496,497,498,499,500,501,502,503,504,505,506,507,508,509,510,511,512,513,514,515,516,517,518,519],"tree_info":[0,0,0,0,0,0,0,0,0,0,0,0,0,0,0,0,0,0,0,0,0,0,0,0,0,0,0,0,0,0,0,0,0,0,0,0,0,0,0,0,0,0,0,0,0,0,0,0,0,0,0,0,0,0,0,0,0,0,0,0,0,0,0,0,0,0,0,0,0,0,0,0,0,0,0,0,0,0,0,0,0,0,0,0,0,0,0,0,0,0,0,0,0,0,0,0,0,0,0,0,0,0,0,0,0,0,0,0,0,0,0,0,0,0,0,0,0,0,0,0,0,0,0,0,0,0,0,0,0,0,0,0,0,0,0,0,0,0,0,0,0,0,0,0,0,0,0,0,0,0,0,0,0,0,0,0,0,0,0,0,0,0,0,0,0,0,0,0,0,0,0,0,0,0,0,0,0,0,0,0,0,0,0,0,0,0,0,0,0,0,0,0,0,0,0,0,0,0,0,0,0,0,0,0,0,0,0,0,0,0,0,0,0,0,0,0,0,0,0,0,0,0,0,0,0,0,0,0,0,0,0,0,0,0,0,0,0,0,0,0,0,0,0,0,0,0,0,0,0,0,0,0,0,0,0,0,0,0,0,0,0,0,0,0,0,0,0,0,0,0,0,0,0,0,0,0,0,0,0,0,0,0,0,0,0,0,0,0,0,0,0,0,0,0,0,0,0,0,0,0,0,0,0,0,0,0,0,0,0,0,0,0,0,0,0,0,0,0,0,0,0,0,0,0,0,0,0,0,0,0,0,0,0,0,0,0,0,0,0,0,0,0,0,0,0,0,0,0,0,0,0,0,0,0,0,0,0,0,0,0,0,0,0,0,0,0,0,0,0,0,0,0,0,0,0,0,0,0,0,0,0,0,0,0,0,0,0,0,0,0,0,0,0,0,0,0,0,0,0,0,0,0,0,0,0,0,0,0,0,0,0,0,0,0,0,0,0,0,0,0,0,0,0,0,0,0,0,0,0,0,0,0,0,0,0,0,0,0,0,0,0,0,0,0,0,0,0,0,0,0,0,0,0,0,0,0,0,0,0,0,0,0,0,0,0,0,0,0,0,0,0,0,0,0,0,0,0,0,0,0,0,0,0,0,0,0,0,0,0,0,0,0,0,0,0,0,0,0,0,0,0,0,0,0,0,0,0,0,0,0,0,0,0,0,0,0,0,0,0],"trees":[{"base_weights":[-0E0,-8.63511E-1,7.071161E-1,-1.290028E0,-5.139659E-1,2.855967E-1,1.0017062E0,-1.4417343E-2,-1.062066E-2,-7.572038E-3,-2.4868764E-3,-7.207794E-5,3.9969543E-3,3.9348365E-3,1.0776426E-2],"categories":[],"categories_nodes":[],"categories_segments":[],"categories_sizes":[],"default_left":[0,0,0,0,0,0,0,0,0,0,0,0,0,0,0],"id":0,"left_children":[1,3,5,7,9,11,13,-1,-1,-1,-1,-1,-1,-1,-1],"loss_changes":[1.0152289E3,1.0868732E2,1.1211551E2,5.4952393E0,2.5934975E1,1.2891743E1,2.281372E1,0E0,0E0,0E0,0E0,0E0,0E0,0E0,0E0],"parents":[2147483647,0,0,1,1,2,2,3,3,4,4,5,5,6,6],"right_children":[2,4,6,8,10,12,14,-1,-1,-1,-1,-1,-1,-1,-1],"split_conditions":[1.5930504E2,1.0067473E2,2.1529158E2,7.6131065E1,1.3082303E2,4.207439E2,2.1542764E2,-1.4417343E-2,-1.062066E-2,-7.572038E-3,-2.4868764E-3,-7.207794E-5,3.9969543E-3,3.9348365E-3,1.0776426E-2],"split_indices":[2,2,2,2,2,1,1,0,0,0,0,0,0,0,0],"split_type":[0,0,0,0,0,0,0,0,0,0,0,0,0,0,0],"sum_hessian":[1.656E3,7.45E2,9.11E2,3.31E2,4.14E2,3.78E2,5.33E2,1.87E2,1.44E2,2.12E2,2.02E2,1.06E2,2.72E2,6.2E1,4.71E2],"tree_param":{"num_deleted":"0","num_feature":"5","num_nodes":"15","size_leaf_vector":"1"}},{"base_weights":[-1.3697666E-2,-8.4053296E-1,7.189478E-1,-1.2406486E0,-4.1081893E-1,3.7087363E-1,1.0551888E0,-1.46903545E-2,-9.735882E-3,-6.9867335E-3,-2.3425512E-3,2.3531923E-3,5.5185305E-3,8.356297E-3,1.3033872E-2],"categories":[],"categories_nodes":[],"categories_segments":[],"categories_sizes":[],"default_left":[0,0,0,0,0,0,0,0,0,0,0,0,0,0,0],"id":1,"left_children":[1,3,5,7,9,11,13,-1,-1,-1,-1,-1,-1,-1,-1],"loss_changes":[9.9699884E2,1.3065741E2,1.002673E2,1.859253E1,1.8343678E1,9.935589E0,1.9607452E1,0E0,0E0,0E0,0E0,0E0,0E0,0E0,0E0],"parents":[2147483647,0,0,1,1,2,2,3,3,4,4,5,5,6,6],"right_children":[2,4,6,8,10,12,14,-1,-1,-1,-1,-1,-1,-1,-1],"split_conditions":[1.633894E2,1.0771339E2,2.2662141E2,7.902673E1,1.3024536E2,2.0188345E2,2.6767502E2,-1.46903545E-2,-9.735882E-3,-6.9867335E-3,-2.3425512E-3,2.3531923E-3,5.5185305E-3,8.356297E-3,1.3033872E-2],"split_indices":[2,2,2,2,2,2,2,0,0,0,0,0,0,0,0],"split_type":[0,0,0,0,0,0,0,0,0,0,0,0,0,0,0],"sum_hessian":[1.639E3,7.7E2,8.69E2,3.95E2,3.75E2,4.31E2,4.38E2,2.04E2,1.91E2,1.38E2,2.37E2,2.52E2,1.79E2,2.41E2,1.97E2],"tree_param":{"num_deleted":"0","num_feature":"5","num_nodes":"15","size_leaf_vector":"1"}},{"base_weights":[-1.7759733E-2,-8.2446235E-1,6.714308E-1,-1.1928127E0,-3.830215E-1,4.3236503E-1,1.1584747E0,-1.4146568E-2,-9.402192E-3,-6.4535933E-3,-2.088391E-3,2.1014116E-3,6.1897496E-3,9.032582E-3,1.2679245E-2],"categories":[],"categories_nodes":[],"categories_segments":[],"categories_sizes":[],"default_left":[0,0,0,0,0,0,0,0,0,0,0,0,0,0,0],"id":2,"left_children":[1,3,5,7,9,11,13,-1,-1,-1,-1,-1,-1,-1,-1],"loss_changes":[9.016963E2,1.1941922E2,9.954669E1,1.7379822E1,1.5020462E1,2.3828842E1,3.325531E0,0E0,0E0,0E0,0E0,0E0,0E0,0E0,0E0],"parents":[2147483647,0,0,1,1,2,2,3,3,4,4,5,5,6,6],"right_children":[2,4,6,8,10,12,14,-1,-1,-1,-1,-1,-1,-1,-1],"split_conditions":[1.5930504E2,1.0932476E2,2.5172829E2,7.902673E1,1.3024536E2,2.0079028E2,2.6767502E2,-1.4146568E-2,-9.402192E-3,-6.4535933E-3,-2.088391E-3,2.1014116E-3,6.1897496E-3,9.032582E-3,1.2679245E-2],"split_indices":[2,2,2,2,2,2,2,0,0,0,0,0,0,0,0],"split_type":[0,0,0,0,0,0,0,0,0,0,0,0,0,0,0],"sum_hessian":[1.615E3,7.44E2,8.71E2,4.02E2,3.42E2,5.89E2,2.82E2,2.05E2,1.97E2,1.32E2,2.1E2,2.73E2,3.16E2,9.5E1,1.87E2],"tree_param":{"num_deleted":"0","num_feature":"5","num_nodes":"15","size_leaf_vector":"1"}},{"base_weights":[1.1159785E-2,-8.41391E-1,7.095238E-1,-1.2814472E0,-4.634031E-1,2.549082E-1,9.4622266E-1,-1.439081E-2,-1.0084579E-2,-7.0691984E-3,-2.256275E-3,-5.6446737E-5,4.2230305E-3,7.69737E-3,1.2333059E-2],"categories":[],"categories_nodes":[],"categories_segments":[],"categories_sizes":[],"default_left":[0,0,0,0,0,0,0,0,0,0,0,0,0,0,0],"id":3,"left_children":[1,3,5,7,9,11,13,-1,-1,-1,-1,-1,-1,-1,-1],"loss_changes":[1.00959454E3,1.2434607E2,9.908511E1,9.299072E0,2.323619E1,1.4305218E1,2.7052002E1,0E0,0E0,0E0,0E0,0E0,0E0,0E0,0E0],"parents":[2147483647,0,0,1,1,2,2,3,3,4,4,5,5,6,6],"right_children":[2,4,6,8,10,12,14,-1,-1,-1,-1,-1,-1,-1,-1],"split_conditions":[1.6003741E2,1.0067473E2,2.054454E2,7.902673E1,1.3024536E2,5.252137E2,2.652798E2,-1.439081E-2,-1.0084579E-2,-7.0691984E-3,-2.256275E-3,-5.6446737E-5,4.2230305E-3,7.69737E-3,1.2333059E-2],"split_indices":[2,2,2,2,2,1,2,0,0,0,0,0,0,0,0],"split_type":[0,0,0,0,0,0,0,0,0,0,0,0,0,0,0],"sum_hessian":[1.689E3,7.6E2,9.29E2,3.47E2,4.13E2,3.21E2,6.08E2,2.1E2,1.37E2,2E2,2.13E2,1.26E2,1.95E2,3.85E2,2.23E2],"tree_param":{"num_deleted":"0","num_feature":"5","num_nodes":"15","size_leaf_vector":"1"}},{"base_weights":[-7.1771992E-3,-8.2647127E-1,7.198157E-1,-1.3569391E-2,-5.5042624E-1,3.9902377E-1,1.0829545E0,-7.931784E-3,-2.3304278E-3,2.3162053E-3,5.713746E-3,5.1032514E-3,1.171049E-2],"categories":[],"categories_nodes":[],"categories_segments":[],"categories_sizes":[],"default_left":[0,0,0,0,0,0,0,0,0,0,0,0,0],"id":4,"left_children":[1,3,5,-1,7,9,11,-1,-1,-1,-1,-1,-1],"loss_changes":[9.921938E2,1.11506165E2,1.00799164E2,0E0,3.9177567E1,1.2951935E1,1.8131104E1,0E0,0E0,0E0,0E0,0E0,0E0],"parents":[2147483647,0,0,1,1,2,2,4,4,5,5,6,6],"right_children":[2,4,6,-1,8,10,12,-1,-1,-1,-1,-1,-1],"split_conditions":[1.633894E2,8.4866165E1,2.348891E2,-1.3569391E-2,1.3082303E2,2.0188345E2,2.8411014E2,-7.931784E-3,-2.3304278E-3,2.3162053E-3,5.713746E-3,5.1032514E-3,1.171049E-2],"split_indices":[2,2,2,0,2,2,1,0,0,0,0,0,0],"split_type":[0,0,0,0,0,0,0,0,0,0,0,0,0],"sum_hessian":[1.659E3,7.8E2,8.79E2,2.62E2,5.18E2,4.71E2,4.08E2,2.9E2,2.28E2,2.44E2,2.27E2,5.8E1,3.5E2],"tree_param":{"num_deleted":"0","num_feature":"5","num_nodes":"13","size_leaf_vector":"1"}},{"base_weights":[1.1210373E-2,-8.663502E-1,6.6026324E-1,-1.1887656E0,-4.826422E-1,3.1959528E-1,1.0284884E0,-1.3213746E-2,-9.229813E-3,-6.8512135E-3,-2.670734E-3,-1.8823352E-5,4.347771E-3,8.370524E-3,1.24074025E-2],"categories":[],"categories_nodes":[],"categories_segments":[],"categories_sizes":[],"default_left":[0,0,0,0,0,0,0,0,0,0,0,0,0,0,0],"id":5,"left_children":[1,3,5,7,9,11,13,-1,-1,-1,-1,-1,-1,-1,-1],"loss_changes":[9.5726355E2,8.5841125E1,1.1963138E2,8.659485E0,1.3548325E1,1.8945332E1,1.4535431E1,0E0,0E0,0E0,0E0,0E0,0E0,0E0,0E0],"parents":[2147483647,0,0,1,1,2,2,3,3,4,4,5,5,6,6],"right_children":[2,4,6,8,10,12,14,-1,-1,-1,-1,-1,-1,-1,-1],"split_conditions":[1.5473822E2,1.05750046E2,2.2662141E2,8.4866165E1,1.3082303E2,1.7468532E2,2.6767502E2,-1.3213746E-2,-9.229813E-3,-6.8512135E-3,-2.670734E-3,-1.8823352E-5,4.347771E-3,8.370524E-3,1.24074025E-2],"split_indices":[2,2,2,2,2,2,2,0,0,0,0,0,0,0,0],"split_type":[0,0,0,0,0,0,0,0,0,0,0,0,0,0,0],"sum_hessian":[1.674E3,7.11E2,9.63E2,3.82E2,3.29E2,5.04E2,4.59E2,2.45E2,1.37E2,1.65E2,1.64E2,1.33E2,3.71E2,2.51E2,2.08E2],"tree_param":{"num_deleted":"0","num_feature":"5","num_nodes":"15","size_leaf_vector":"1"}},{"base_weights":[1.0373621E-2,-7.918851E-1,7.1116835E-1,-1.1171604E0,-4.3496558E-1,3.4193885E-1,1.0343007E0,-1.3078638E-2,-8.926234E-3,-6.528276E-3,-2.632418E-3,1.5027133E-4,4.4365344E-3,4.9342257E-3,1.1290438E-2],"categories":[],"categories_nodes":[],"categories_segments":[],"categories_sizes":[],"default_left":[0,0,0,0,0,0,0,0,0,0,0,0,0,0,0],"id":6,"left_children":[1,3,5,7,9,11,13,-1,-1,-1,-1,-1,-1,-1,-1],"loss_changes":[9.291834E2,8.724112E1,1.0358859E2,1.2412689E1,1.3060013E1,1.3691517E1,2.1538727E1,0E0,0E0,0E0,0E0,0E0,0E0,0E0,0E0],"parents":[2147483647,0,0,1,1,2,2,3,3,4,4,5,5,6,6],"right_children":[2,4,6,8,10,12,14,-1,-1,-1,-1,-1,-1,-1,-1],"split_conditions":[1.6003741E2,1.0864254E2,2.2435637E2,7.902673E1,1.3082303E2,3.9621298E2,2.8411014E2,-1.3078638E-2,-8.926234E-3,-6.528276E-3,-2.632418E-3,1.5027133E-4,4.4365344E-3,4.9342257E-3,1.1290438E-2],"split_indices":[2,2,2,2,2,1,1,0,0,0,0,0,0,0,0],"split_type":[0,0,0,0,0,0,0,0,0,0,0,0,0,0,0],"sum_hessian":[1.646E3,7.67E2,8.79E2,3.97E2,3.7E2,4.14E2,4.65E2,2.05E2,1.92E2,1.58E2,2.12E2,1E2,3.14E2,7.3E1,3.92E2],"tree_param":{"num_deleted":"0","num_feature":"5","num_nodes":"15","size_leaf_vector":"1"}},{"base_weights":[2.5360282E-3,-7.9352945E-1,6.854337E-1,-1.1908041E0,-4.593496E-1,2.997344E-1,9.752017E-1,-1.3420057E-2,-9.796687E-3,-7.0307534E-3,-2.3180728E-3,2.0351724E-3,4.7751097E-3,7.6478706E-3,1.259863E-2],"categories":[],"categories_nodes":[],"categories_segments":[],"categories_sizes":[],"default_left":[0,0,0,0,0,0,0,0,0,0,0,0,0,0,0],"id":7,"left_children":[1,3,5,7,9,11,13,-1,-1,-1,-1,-1,-1,-1,-1],"loss_changes":[9.2019617E2,1.0129767E2,1.0041431E2,6.040863E0,2.2982231E1,6.2077217E0,2.7069366E1,0E0,0E0,0E0,0E0,0E0,0E0,0E0,0E0],"parents":[2147483647,0,0,1,1,2,2,3,3,4,4,5,5,6,6],"right_children":[2,4,6,8,10,12,14,-1,-1,-1,-1,-1,-1,-1,-1],"split_conditions":[1.6003741E2,1.0067473E2,2.1608968E2,7.6131065E1,1.3024536E2,2.0079028E2,2.652798E2,-1.3420057E-2,-9.796687E-3,-7.0307534E-3,-2.3180728E-3,2.0351724E-3,4.7751097E-3,7.6478706E-3,1.259863E-2],"split_indices":[2,2,2,2,2,2,2,0,0,0,0,0,0,0,0],"split_type":[0,0,0,0,0,0,0,0,0,0,0,0,0,0,0],"sum_hessian":[1.686E3,7.78E2,9.08E2,3.51E2,4.27E2,3.93E2,5.15E2,1.93E2,1.58E2,2.02E2,2.25E2,2.61E2,1.32E2,3.04E2,2.11E2],"tree_param":{"num_deleted":"0","num_feature":"5","num_nodes":"15","size_leaf_vector":"1"}},{"base_weights":[-5.555876E-3,-7.804554E-1,6.7465E-1,-1.164378E0,-4.5254058E-1,3.573819E-1,9.735465E-1,-1.4412436E-2,-1.0212606E-2,-6.7258994E-3,-2.3884962E-3,-1.711517E-4,4.6141655E-3,3.8367738E-3,1.0821168E-2],"categories":[],"categories_nodes":[],"categories_segments":[],"categories_sizes":[],"default_left":[0,0,0,0,0,0,0,0,0,0,0,0,0,0,0],"id":8,"left_children":[1,3,5,7,9,11,13,-1,-1,-1,-1,-1,-1,-1,-1],"loss_changes":[8.7856757E2,9.5759674E1,8.249808E1,8.2677E0,1.9180038E1,1.718753E1,2.7171661E1,0E0,0E0,0E0,0E0,0E0,0E0,0E0,0E0],"parents":[2147483647,0,0,1,1,2,2,3,3,4,4,5,5,6,6],"right_children":[2,4,6,8,10,12,14,-1,-1,-1,-1,-1,-1,-1,-1],"split_conditions":[1.6249374E2,1.0067473E2,2.2361906E2,6.545476E1,1.3024536E2,3.495318E2,3.4560703E2,-1.4412436E-2,-1.0212606E-2,-6.7258994E-3,-2.3884962E-3,-1.711517E-4,4.6141655E-3,3.8367738E-3,1.0821168E-2],"split_indices":[2,2,2,2,2,1,1,0,0,0,0,0,0,0,0],"split_type":[0,0,0,0,0,0,0,0,0,0,0,0,0,0,0],"sum_hessian":[1.66E3,7.76E2,8.84E2,3.53E2,4.23E2,4.33E2,4.51E2,1.09E2,2.44E2,2.04E2,2.19E2,9.4E1,3.39E2,7.3E1,3.78E2],"tree_param":{"num_deleted":"0","num_feature":"5","num_nodes":"15","size_leaf_vector":"1"}},{"base_weights":[1.5111789E-2,-7.2943014E-1,7.27316E-1,-1.2025918E0,-3.7779033E-1,3.636037E-1,1.0329314E0,-1.40455505E-2,-1.0236081E-2,-6.1202566E-3,-1.8225815E-3,-5.9829843E-5,4.4134906E-3,6.096342E-3,1.1305826E-2],"categories":[],"categories_nodes":[],"categories_segments":[],"categories_sizes":[],"default_left":[0,0,0,0,0,0,0,0,0,0,0,0,0,0,0],"id":9,"left_children":[1,3,5,7,9,11,13,-1,-1,-1,-1,-1,-1,-1,-1],"loss_changes":[8.7374786E2,1.3189972E2,9.186624E1,6.61438E0,2.0744637E1,1.1381981E1,1.5871674E1,0E0,0E0,0E0,0E0,0E0,0E0,0E0,0E0],"parents":[2147483647,0,0,1,1,2,2,3,3,4,4,5,5,6,6],"right_children":[2,4,6,8,10,12,14,-1,-1,-1,-1,-1,-1,-1,-1],"split_conditions":[1.6872975E2,1.0067473E2,2.2435637E2,5.556687E2,1.3082303E2,3.1427316E2,3.495318E2,-1.40455505E-2,-1.0236081E-2,-6.1202566E-3,-1.8225815E-3,-5.9829843E-5,4.4134906E-3,6.096342E-3,1.1305826E-2],"split_indices":[2,2,2,1,2,1,1,0,0,0,0,0,0,0,0],"split_type":[0,0,0,0,0,0,0,0,0,0,0,0,0,0,0],"sum_hessian":[1.641E3,8.02E2,8.39E2,3.38E2,4.64E2,3.87E2,4.52E2,1.47E2,1.91E2,2.07E2,2.57E2,6.7E1,3.2E2,9E1,3.62E2],"tree_param":{"num_deleted":"0","num_feature":"5","num_nodes":"15","size_leaf_vector":"1"}},{"base_weights":[1.3623221E-2,-7.3479587E-1,7.2904354E-1,-1.1860186E0,-3.7483233E-1,5.6661075E-1,1.2428648E0,-1.4470816E-2,-1.033235E-2,-7.845804E-3,-2.3994658E-3,1.0512805E-3,6.5451297E-3,8.111764E-3,1.3120471E-2],"categories":[],"categories_nodes":[],"categories_segments":[],"categories_sizes":[],"default_left":[0,0,0,0,0,0,0,0,0,0,0,0,0,0,0],"id":10,"left_children":[1,3,5,7,9,11,13,-1,-1,-1,-1,-1,-1,-1,-1],"loss_changes":[8.9243604E2,1.3021317E2,6.811365E1,8.39563E0,2.4331017E1,2.6040329E1,1.6587524E0,0E0,0E0,0E0,0E0,0E0,0E0,0E0,0E0],"parents":[2147483647,0,0,1,1,2,2,3,3,4,4,5,5,6,6],"right_children":[2,4,6,8,10,12,14,-1,-1,-1,-1,-1,-1,-1,-1],"split_conditions":[1.6872975E2,1.0067473E2,2.6767502E2,6.679321E1,3.409735E2,2.9370612E2,3.495318E2,-1.4470816E-2,-1.033235E-2,-7.845804E-3,-2.3994658E-3,1.0512805E-3,6.5451297E-3,8.111764E-3,1.3120471E-2],"split_indices":[2,2,2,2,1,1,1,0,0,0,0,0,0,0,0],"split_type":[0,0,0,0,0,0,0,0,0,0,0,0,0,0,0],"sum_hessian":[1.66E3,8.11E2,8.49E2,3.56E2,4.55E2,6.51E2,1.98E2,1.2E2,2.36E2,1.08E2,3.47E2,1.06E2,5.45E2,3.4E1,1.64E2],"tree_param":{"num_deleted":"0","num_feature":"5","num_nodes":"15","size_leaf_vector":"1"}},{"base_weights":[2.0886594E-3,-7.660177E-1,6.610256E-1,-1.1562767E0,-4.353103E-1,3.0936193E-1,9.661068E-1,-1.4436892E-2,-1.022264E-2,-6.606969E-3,-1.9141363E-3,-1.1313488E-4,4.087618E-3,7.6196804E-3,1.1749282E-2],"categories":[],"categories_nodes":[],"categories_segments":[],"categories_sizes":[],"default_left":[0,0,0,0,0,0,0,0,0,0,0,0,0,0,0],"id":11,"left_children":[1,3,5,7,9,11,13,-1,-1,-1,-1,-1,-1,-1,-1],"loss_changes":[8.4356335E2,9.702655E1,9.4809326E1,7.6273804E0,2.2485909E1,1.3621426E1,1.6674744E1,0E0,0E0,0E0,0E0,0E0,0E0,0E0,0E0],"parents":[2147483647,0,0,1,1,2,2,3,3,4,4,5,5,6,6],"right_children":[2,4,6,8,10,12,14,-1,-1,-1,-1,-1,-1,-1,-1],"split_conditions":[1.5930504E2,1.0067473E2,2.2222826E2,4.3846146E2,1.3024536E2,3.6382593E2,2.652798E2,-1.4436892E-2,-1.022264E-2,-6.606969E-3,-1.9141363E-3,-1.1313488E-4,4.087618E-3,7.6196804E-3,1.1749282E-2],"split_indices":[2,2,2,1,2,1,2,0,0,0,0,0,0,0,0],"split_type":[0,0,0,0,0,0,0,0,0,0,0,0,0,0,0],"sum_hessian":[1.66E3,7.66E2,8.94E2,3.47E2,4.19E2,4.19E2,4.75E2,9.9E1,2.48E2,2.14E2,2.05E2,9.9E1,3.2E2,2.49E2,2.26E2],"tree_param":{"num_deleted":"0","num_feature":"5","num_nodes":"15","size_leaf_vector":"1"}},{"base_weights":[-1.3157726E-2,-7.7636427E-1,6.45089E-1,-1.2255931E0,-3.9527035E-1,3.20283E-1,9.461951E-1,-1.5397119E-2,-1.079684E-2,-5.897229E-3,-1.9009755E-3,-7.054706E-4,3.876458E-3,3.9755073E-3,1.0427805E-2],"categories":[],"categories_nodes":[],"categories_segments":[],"categories_sizes":[],"default_left":[0,0,0,0,0,0,0,0,0,0,0,0,0,0,0],"id":12,"left_children":[1,3,5,7,9,11,13,-1,-1,-1,-1,-1,-1,-1,-1],"loss_changes":[8.3989453E2,1.3035495E2,8.628693E1,9.643127E0,1.6272919E1,1.1721058E1,2.2638458E1,0E0,0E0,0E0,0E0,0E0,0E0,0E0,0E0],"parents":[2147483647,0,0,1,1,2,2,3,3,4,4,5,5,6,6],"right_children":[2,4,6,8,10,12,14,-1,-1,-1,-1,-1,-1,-1,-1],"split_conditions":[1.5930504E2,1.0067473E2,2.2435637E2,4.3431604E2,1.3082303E2,2.616318E2,2.8411014E2,-1.5397119E-2,-1.079684E-2,-5.897229E-3,-1.9009755E-3,-7.054706E-4,3.876458E-3,3.9755073E-3,1.0427805E-2],"split_indices":[2,2,2,1,2,1,1,0,0,0,0,0,0,0,0],"split_type":[0,0,0,0,0,0,0,0,0,0,0,0,0,0,0],"sum_hessian":[1.665E3,7.71E2,8.94E2,3.5E2,4.21E2,4.34E2,4.6E2,1E2,2.5E2,2.12E2,2.09E2,6.3E1,3.71E2,7.2E1,3.88E2],"tree_param":{"num_deleted":"0","num_feature":"5","num_nodes":"15","size_leaf_vector":"1"}},{"base_weights":[1.639717E-2,-3.907311E-1,1.2760642E-1,-5.273009E-1,-2.9275566E-1,6.518299E-2,3.3278316E-1,-4.3787877E-3,-8.576854E-3,1.4643563E-3,-3.4630203E-3,-1.9273111E-4,1.8991139E-3,8.468888E-3,2.8743562E-3],"categories":[],"categories_nodes":[],"categories_segments":[],"categories_sizes":[],"default_left":[0,0,0,0,0,0,0,0,0,0,0,0,0,0,0],"id":13,"left_children":[1,3,5,7,9,11,13,-1,-1,-1,-1,-1,-1,-1,-1],"loss_changes":[7.588384E1,3.9932938E0,1.6669613E1,2.532631E0,5.3785095E0,1.0780134E1,5.8906174E0,0E0,0E0,0E0,0E0,0E0,0E0,0E0,0E0],"parents":[2147483647,0,0,1,1,2,2,3,3,4,4,5,5,6,6],"right_children":[2,4,6,8,10,12,14,-1,-1,-1,-1,-1,-1,-1,-1],"split_conditions":[3.495318E2,1.88E2,1.0203891E3,1.49E2,2.19E2,2.73E2,1.0297664E3,-4.3787877E-3,-8.576854E-3,1.4643563E-3,-3.4630203E-3,-1.9273111E-4,1.8991139E-3,8.468888E-3,2.8743562E-3],"split_indices":[1,4,1,4,4,4,1,0,0,0,0,0,0,0,0],"split_type":[0,0,0,0,0,0,0,0,0,0,0,0,0,0,0],"sum_hessian":[1.671E3,3.56E2,1.315E3,1.41E2,2.15E2,1.013E3,3.02E2,1.18E2,2.3E1,2.2E1,1.93E2,6.04E2,4.09E2,1.9E1,2.83E2],"tree_param":{"num_deleted":"0","num_feature":"5","num_nodes":"15","size_leaf_vector":"1"}},{"base_weights":[8.199059E-3,-7.6500124E-1,6.511014E-1,-1.0624126E0,-3.4266433E-1,2.8323284E-1,9.17087E-1,-1.28233265E-2,-8.608415E-3,-7.3196846E-3,-2.034054E-3,-3.4041455E-4,3.4788917E-3,4.6315296E-3,1.0318526E-2],"categories":[],"categories_nodes":[],"categories_segments":[],"categories_sizes":[],"default_left":[0,0,0,0,0,0,0,0,0,0,0,0,0,0,0],"id":14,"left_children":[1,3,5,7,9,11,13,-1,-1,-1,-1,-1,-1,-1,-1],"loss_changes":[8.240193E2,9.277127E1,8.7281555E1,1.4981079E1,1.6313915E1,8.058075E0,2.5115845E1,0E0,0E0,0E0,0E0,0E0,0E0,0E0,0E0],"parents":[2147483647,0,0,1,1,2,2,3,3,4,4,5,5,6,6],"right_children":[2,4,6,8,10,12,14,-1,-1,-1,-1,-1,-1,-1,-1],"split_conditions":[1.6003741E2,1.1533673E2,2.1529158E2,7.902673E1,3.495318E2,2.9370612E2,3.5346274E2,-1.28233265E-2,-8.608415E-3,-7.3196846E-3,-2.034054E-3,-3.4041455E-4,3.4788917E-3,4.6315296E-3,1.0318526E-2],"split_indices":[2,2,2,2,1,1,1,0,0,0,0,0,0,0,0],"split_type":[0,0,0,0,0,0,0,0,0,0,0,0,0,0,0],"sum_hessian":[1.651E3,7.49E2,9.02E2,4.36E2,3.13E2,3.82E2,5.2E2,1.99E2,2.37E2,7.8E1,2.35E2,6.4E1,3.18E2,1.09E2,4.11E2],"tree_param":{"num_deleted":"0","num_feature":"5","num_nodes":"15","size_leaf_vector":"1"}},{"base_weights":[8.0585765E-4,-7.56888E-1,6.3833E-1,-1.1361021E0,-4.32484E-1,3.1210712E-1,9.6111286E-1,-1.38351E-2,-9.598065E-3,-7.5886687E-3,-3.077408E-3,8.3000725E-4,3.7924596E-3,4.5874557E-3,1.0356805E-2],"categories":[],"categories_nodes":[],"categories_segments":[],"categories_sizes":[],"default_left":[0,0,0,0,0,0,0,0,0,0,0,0,0,0,0],"id":15,"left_children":[1,3,5,7,9,11,13,-1,-1,-1,-1,-1,-1,-1,-1],"loss_changes":[7.93487E2,9.008859E1,9.249704E1,9.652557E0,1.5537025E1,6.640255E0,1.4581146E1,0E0,0E0,0E0,0E0,0E0,0E0,0E0,0E0],"parents":[2147483647,0,0,1,1,2,2,3,3,4,4,5,5,6,6],"right_children":[2,4,6,8,10,12,14,-1,-1,-1,-1,-1,-1,-1,-1],"split_conditions":[1.5930504E2,1.0067473E2,2.2639665E2,5.556687E2,3.495318E2,1.7597455E2,2.9370612E2,-1.38351E-2,-9.598065E-3,-7.5886687E-3,-3.077408E-3,8.3000725E-4,3.7924596E-3,4.5874557E-3,1.0356805E-2],"split_indices":[2,2,2,1,1,2,1,0,0,0,0,0,0,0,0],"split_type":[0,0,0,0,0,0,0,0,0,0,0,0,0,0,0],"sum_hessian":[1.636E3,7.47E2,8.89E2,3.4E2,4.07E2,4.46E2,4.43E2,1.31E2,2.09E2,1.07E2,3E2,1.04E2,3.42E2,6.1E1,3.82E2],"tree_param":{"num_deleted":"0","num_feature":"5","num_nodes":"15","size_leaf_vector":"1"}},{"base_weights":[-6.725761E-3,-3.5762826E-1,8.757241E-2,7.259205E-4,-3.8444102E-3,1.3087496E-2,2.6176816E-1,-9.160913E-4,1.5354619E-3,-3.6357292E-3,3.6031543E-3],"categories":[],"categories_nodes":[],"categories_segments":[],"categories_sizes":[],"default_left":[0,0,0,0,0,0,0,0,0,0,0],"id":16,"left_children":[1,3,5,-1,-1,7,9,-1,-1,-1,-1],"loss_changes":[5.4084713E1,4.2016525E0,1.6567589E1,0E0,0E0,1.3383778E1,2.4067081E1,0E0,0E0,0E0,0E0],"parents":[2147483647,0,0,1,1,2,2,5,5,6,6],"right_children":[2,4,6,-1,-1,8,10,-1,-1,-1,-1],"split_conditions":[3.5346274E2,1.0854799E3,3.837088E1,7.259205E-4,-3.8444102E-3,8.506468E2,1.2887594E3,-9.160913E-4,1.5354619E-3,-3.6357292E-3,3.6031543E-3],"split_indices":[1,3,0,0,0,1,3,0,0,0,0],"split_type":[0,0,0,0,0,0,0,0,0,0,0],"sum_hessian":[1.625E3,3.43E2,1.282E3,1.9E1,3.24E2,9.02E2,3.8E2,5.16E2,3.86E2,5E1,3.3E2],"tree_param":{"num_deleted":"0","num_feature":"5","num_nodes":"11","size_leaf_vector":"1"}},{"base_weights":[-7.726676E-3,-7.1399E-1,6.641976E-1,-9.7188705E-1,-1.7613101E-1,4.1718936E-1,1.0935402E0,-1.1403103E-2,-6.8158833E-3,-5.2574323E-3,-7.041193E-4,1.8501178E-3,5.644684E-3,3.761835E-3,1.1610552E-2],"categories":[],"categories_nodes":[],"categories_segments":[],"categories_sizes":[],"default_left":[0,0,0,0,0,0,0,0,0,0,0,0,0,0,0],"id":17,"left_children":[1,3,5,7,9,11,13,-1,-1,-1,-1,-1,-1,-1,-1],"loss_changes":[7.710526E2,1.0892267E2,8.619217E1,2.2849426E1,9.321904E0,1.7651558E1,1.2570251E1,0E0,0E0,0E0,0E0,0E0,0E0,0E0,0E0],"parents":[2147483647,0,0,1,1,2,2,3,3,4,4,5,5,6,6],"right_children":[2,4,6,8,10,12,14,-1,-1,-1,-1,-1,-1,-1,-1],"split_conditions":[1.6872975E2,1.3082303E2,2.5066922E2,1.0067473E2,3.1427316E2,2.0079028E2,2.1542764E2,-1.1403103E-2,-6.8158833E-3,-5.2574323E-3,-7.041193E-4,1.8501178E-3,5.644684E-3,3.761835E-3,1.1610552E-2],"split_indices":[2,2,2,2,1,2,1,0,0,0,0,0,0,0,0],"split_type":[0,0,0,0,0,0,0,0,0,0,0,0,0,0,0],"sum_hessian":[1.618E3,7.89E2,8.29E2,5.31E2,2.58E2,5.31E2,2.98E2,3.29E2,2.02E2,5.6E1,2.02E2,2.1E2,3.21E2,2.8E1,2.7E2],"tree_param":{"num_deleted":"0","num_feature":"5","num_nodes":"15","size_leaf_vector":"1"}},{"base_weights":[1.3041676E-2,-6.895448E-1,6.5352577E-1,-1.1212349E0,-3.492503E-1,3.3452755E-1,9.069095E-1,-1.3911598E-2,-9.851235E-3,-5.7776547E-3,-1.6873262E-3,-0E0,4.0538767E-3,4.6252925E-3,1.02128945E-2],"categories":[],"categories_nodes":[],"categories_segments":[],"categories_sizes":[],"default_left":[0,0,0,0,0,0,0,0,0,0,0,0,0,0,0],"id":18,"left_children":[1,3,5,7,9,11,13,-1,-1,-1,-1,-1,-1,-1,-1],"loss_changes":[7.5452094E2,1.1558023E2,6.9447815E1,7.392761E0,1.8064133E1,9.337986E0,2.2594421E1,0E0,0E0,0E0,0E0,0E0,0E0,0E0,0E0],"parents":[2147483647,0,0,1,1,2,2,3,3,4,4,5,5,6,6],"right_children":[2,4,6,8,10,12,14,-1,-1,-1,-1,-1,-1,-1,-1],"split_conditions":[1.6872975E2,1.0067473E2,2.2080727E2,4.3846146E2,1.3082303E2,2.8823465E2,3.5346274E2,-1.3911598E-2,-9.851235E-3,-5.7776547E-3,-1.6873262E-3,-0E0,4.0538767E-3,4.6252925E-3,1.02128945E-2],"split_indices":[2,2,2,1,2,1,1,0,0,0,0,0,0,0,0],"split_type":[0,0,0,0,0,0,0,0,0,0,0,0,0,0,0],"sum_hessian":[1.67E3,7.96E2,8.74E2,3.47E2,4.49E2,3.91E2,4.83E2,1.05E2,2.42E2,1.94E2,2.55E2,6.9E1,3.22E2,1.03E2,3.8E2],"tree_param":{"num_deleted":"0","num_feature":"5","num_nodes":"15","size_leaf_vector":"1"}},{"base_weights":[1.3644693E-3,-7.7139544E-1,5.997064E-1,-1.1143986E0,-4.32463E-1,2.313479E-1,8.9012426E-1,-1.3694373E-2,-1.0003528E-2,-7.6761073E-3,-2.834038E-3,1.7521419E-5,3.6574255E-3,6.257579E-3,1.0557042E-2],"categories":[],"categories_nodes":[],"categories_segments":[],"categories_sizes":[],"default_left":[0,0,0,0,0,0,0,0,0,0,0,0,0,0,0],"id":19,"left_children":[1,3,5,7,9,11,13,-1,-1,-1,-1,-1,-1,-1,-1],"loss_changes":[7.6135657E2,8.133276E1,9.821826E1,4.8315125E0,1.72415E1,1.2652269E1,1.9813751E1,0E0,0E0,0E0,0E0,0E0,0E0,0E0,0E0],"parents":[2147483647,0,0,1,1,2,2,3,3,4,4,5,5,6,6],"right_children":[2,4,6,8,10,12,14,-1,-1,-1,-1,-1,-1,-1,-1],"split_conditions":[1.5473822E2,1.0067473E2,2.1529158E2,4.3431604E2,4.207439E2,5.252137E2,5.556687E2,-1.3694373E-2,-1.0003528E-2,-7.6761073E-3,-2.834038E-3,1.7521419E-5,3.6574255E-3,6.257579E-3,1.0557042E-2],"split_indices":[2,2,2,1,1,1,1,0,0,0,0,0,0,0,0],"split_type":[0,0,0,0,0,0,0,0,0,0,0,0,0,0,0],"sum_hessian":[1.64E3,7.15E2,9.25E2,3.51E2,3.64E2,4.11E2,5.14E2,9.6E1,2.55E2,1.07E2,2.57E2,1.54E2,2.57E2,2.05E2,3.09E2],"tree_param":{"num_deleted":"0","num_feature":"5","num_nodes":"15","size_leaf_vector":"1"}},{"base_weights":[-7.4388937E-4,-2.7017403E-1,1.10652E-1,-3.8790813E-1,-1.4590096E-1,5.4416835E-2,2.7171475E-1,-4.8887995E-3,-1.4379898E-3,-4.7077313E-3,-8.52881E-4,-1.7837696E-3,1.0268305E-3,7.5206207E-3,2.2637048E-3],"categories":[],"categories_nodes":[],"categories_segments":[],"categories_sizes":[],"default_left":[0,0,0,0,0,0,0,0,0,0,0,0,0,0,0],"id":20,"left_children":[1,3,5,7,9,11,13,-1,-1,-1,-1,-1,-1,-1,-1],"loss_changes":[5.0892136E1,6.8800507E0,1.067824E1,5.731724E0,4.555928E0,1.0072766E1,5.7692394E0,0E0,0E0,0E0,0E0,0E0,0E0,0E0,0E0],"parents":[2147483647,0,0,1,1,2,2,3,3,4,4,5,5,6,6],"right_children":[2,4,6,8,10,12,14,-1,-1,-1,-1,-1,-1,-1,-1],"split_conditions":[4.443748E2,2.982868E1,1.0203891E3,3.07E2,8E1,1.7449797E1,1.0297664E3,-4.8887995E-3,-1.4379898E-3,-4.7077313E-3,-8.52881E-4,-1.7837696E-3,1.0268305E-3,7.5206207E-3,2.2637048E-3],"split_indices":[1,0,1,4,4,0,1,0,0,0,0,0,0,0,0],"split_type":[0,0,0,0,0,0,0,0,0,0,0,0,0,0,0],"sum_hessian":[1.687E3,4.93E2,1.194E3,2.48E2,2.45E2,8.9E2,3.04E2,1.72E2,7.6E1,3.4E1,2.11E2,1.5E2,7.4E2,2.1E1,2.83E2],"tree_param":{"num_deleted":"0","num_feature":"5","num_nodes":"15","size_leaf_vector":"1"}},{"base_weights":[-1.032366E-2,-7.2706807E-1,6.175145E-1,-1.0460454E0,-3.6210296E-1,3.1899834E-1,8.917599E-1,-1.2248083E-2,-8.263227E-3,-6.027902E-3,-1.9911046E-3,1.6125431E-3,5.1145838E-3,7.059928E-3,1.1225707E-2],"categories":[],"categories_nodes":[],"categories_segments":[],"categories_sizes":[],"default_left":[0,0,0,0,0,0,0,0,0,0,0,0,0,0,0],"id":21,"left_children":[1,3,5,7,9,11,13,-1,-1,-1,-1,-1,-1,-1,-1],"loss_changes":[7.451242E2,8.8249054E1,7.08425E1,1.1965698E1,1.3680206E1,1.2485561E1,1.6278961E1,0E0,0E0,0E0,0E0,0E0,0E0,0E0,0E0],"parents":[2147483647,0,0,1,1,2,2,3,3,4,4,5,5,6,6],"right_children":[2,4,6,8,10,12,14,-1,-1,-1,-1,-1,-1,-1,-1],"split_conditions":[1.633894E2,1.0932476E2,2.2435637E2,7.902673E1,1.3082303E2,1.99176E2,2.6767502E2,-1.2248083E-2,-8.263227E-3,-6.027902E-3,-1.9911046E-3,1.6125431E-3,5.1145838E-3,7.059928E-3,1.1225707E-2],"split_indices":[2,2,2,2,2,2,2,0,0,0,0,0,0,0,0],"split_type":[0,0,0,0,0,0,0,0,0,0,0,0,0,0,0],"sum_hessian":[1.649E3,7.7E2,8.79E2,4.07E2,3.63E2,4.25E2,4.54E2,2.15E2,1.92E2,1.42E2,2.21E2,2.38E2,1.87E2,2.6E2,1.94E2],"tree_param":{"num_deleted":"0","num_feature":"5","num_nodes":"15","size_leaf_vector":"1"}},{"base_weights":[-7.1633635E-3,-7.2993773E-1,5.6965715E-1,-1.0226234E0,-3.8670477E-1,3.6014408E-1,1.0164366E0,-1.1972441E-2,-8.288835E-3,-5.774148E-3,-2.1930777E-3,-5.799478E-4,4.49884E-3,7.4556456E-3,1.2155845E-2],"categories":[],"categories_nodes":[],"categories_segments":[],"categories_sizes":[],"default_left":[0,0,0,0,0,0,0,0,0,0,0,0,0,0,0],"id":22,"left_children":[1,3,5,7,9,11,13,-1,-1,-1,-1,-1,-1,-1,-1],"loss_changes":[6.924405E2,7.223569E1,8.470398E1,9.298279E0,1.0312618E1,2.403283E1,1.2008118E1,0E0,0E0,0E0,0E0,0E0,0E0,0E0,0E0],"parents":[2147483647,0,0,1,1,2,2,3,3,4,4,5,5,6,6],"right_children":[2,4,6,8,10,12,14,-1,-1,-1,-1,-1,-1,-1,-1],"split_conditions":[1.5578758E2,1.05750046E2,2.5066922E2,7.6131065E1,1.3024536E2,2.980549E2,6.591151E2,-1.1972441E-2,-8.288835E-3,-5.774148E-3,-2.1930777E-3,-5.799478E-4,4.49884E-3,7.4556456E-3,1.2155845E-2],"split_indices":[2,2,2,2,2,1,1,0,0,0,0,0,0,0,0],"split_type":[0,0,0,0,0,0,0,0,0,0,0,0,0,0,0],"sum_hessian":[1.654E3,7.34E2,9.2E2,3.92E2,3.42E2,6.31E2,2.89E2,1.96E2,1.96E2,1.55E2,1.87E2,1.11E2,5.2E2,1.3E2,1.59E2],"tree_param":{"num_deleted":"0","num_feature":"5","num_nodes":"15","size_leaf_vector":"1"}},{"base_weights":[-7.097815E-3,-6.9657075E-1,6.044758E-1,-1.0644773E0,-3.9602676E-1,3.986822E-1,9.8100907E-1,-1.3339652E-2,-9.238004E-3,-7.2799735E-3,-2.7833062E-3,1.1253889E-3,4.9646883E-3,3.7216358E-3,1.0777993E-2],"categories":[],"categories_nodes":[],"categories_segments":[],"categories_sizes":[],"default_left":[0,0,0,0,0,0,0,0,0,0,0,0,0,0,0],"id":23,"left_children":[1,3,5,7,9,11,13,-1,-1,-1,-1,-1,-1,-1,-1],"loss_changes":[7.079002E2,8.5335785E1,6.710068E1,8.387787E0,1.6161179E1,1.5860458E1,1.6475098E1,0E0,0E0,0E0,0E0,0E0,0E0,0E0,0E0],"parents":[2147483647,0,0,1,1,2,2,3,3,4,4,5,5,6,6],"right_children":[2,4,6,8,10,12,14,-1,-1,-1,-1,-1,-1,-1,-1],"split_conditions":[1.633894E2,1.0067473E2,2.5066922E2,6.488402E1,3.5346274E2,4.0641898E2,2.7853864E2,-1.3339652E-2,-9.238004E-3,-7.2799735E-3,-2.7833062E-3,1.1253889E-3,4.9646883E-3,3.7216358E-3,1.0777993E-2],"split_indices":[2,2,2,2,1,1,1,0,0,0,0,0,0,0,0],"split_type":[0,0,0,0,0,0,0,0,0,0,0,0,0,0,0],"sum_hessian":[1.672E3,7.86E2,8.86E2,3.49E2,4.37E2,5.78E2,3.08E2,1.09E2,2.4E2,1.09E2,3.28E2,1.5E2,4.28E2,4.5E1,2.63E2],"tree_param":{"num_deleted":"0","num_feature":"5","num_nodes":"15","size_leaf_vector":"1"}},{"base_weights":[-2.796115E-3,-2.5563738E-1,1.1082191E-1,-5.3187025E-1,-1.950101E-1,5.118784E-2,2.8176096E-1,-7.0072017E-3,-9.425305E-4,-4.6767574E-3,-1.5207591E-3,-2.4172089E-4,2.0845185E-3,5.5766134E-3,1.7449355E-3],"categories":[],"categories_nodes":[],"categories_segments":[],"categories_sizes":[],"default_left":[0,0,0,0,0,0,0,0,0,0,0,0,0,0,0],"id":24,"left_children":[1,3,5,7,9,11,13,-1,-1,-1,-1,-1,-1,-1,-1],"loss_changes":[4.752979E1,7.986759E0,1.1446485E1,6.096136E0,4.5407677E0,1.0161254E1,8.061806E0,0E0,0E0,0E0,0E0,0E0,0E0,0E0,0E0],"parents":[2147483647,0,0,1,1,2,2,3,3,4,4,5,5,6,6],"right_children":[2,4,6,8,10,12,14,-1,-1,-1,-1,-1,-1,-1,-1],"split_conditions":[4.4768768E2,1.5682465E1,1.0203891E3,2.3318286E3,6.2E1,3.7478096E1,1.0686859E3,-7.0072017E-3,-9.425305E-4,-4.6767574E-3,-1.5207591E-3,-2.4172089E-4,2.0845185E-3,5.5766134E-3,1.7449355E-3],"split_indices":[1,0,1,3,4,0,1,0,0,0,0,0,0,0,0],"split_type":[0,0,0,0,0,0,0,0,0,0,0,0,0,0,0],"sum_hessian":[1.646E3,5.1E2,1.136E3,8.6E1,4.24E2,8.47E2,2.89E2,6E1,2.6E1,5.2E1,3.72E2,5.73E2,2.74E2,7.6E1,2.13E2],"tree_param":{"num_deleted":"0","num_feature":"5","num_nodes":"15","size_leaf_vector":"1"}},{"base_weights":[-1.1096131E-2,-7.621192E-1,5.2642596E-1,-1.0612919E0,-4.3945876E-1,1.1823372E-1,7.961504E-1,-1.2379095E-2,-8.041203E-3,-6.198783E-3,-1.7006574E-3,-2.3884212E-3,2.271867E-3,6.258733E-3,1.0346486E-2],"categories":[],"categories_nodes":[],"categories_segments":[],"categories_sizes":[],"default_left":[0,0,0,0,0,0,0,0,0,0,0,0,0,0,0],"id":25,"left_children":[1,3,5,7,9,11,13,-1,-1,-1,-1,-1,-1,-1,-1],"loss_changes":[6.737378E2,6.510901E1,1.06412415E2,1.2184143E1,1.5952972E1,1.5405378E1,2.0949799E1,0E0,0E0,0E0,0E0,0E0,0E0,0E0,0E0],"parents":[2147483647,0,0,1,1,2,2,3,3,4,4,5,5,6,6],"right_children":[2,4,6,8,10,12,14,-1,-1,-1,-1,-1,-1,-1,-1],"split_conditions":[1.4803336E2,1.0067473E2,2.054454E2,7.6131065E1,7.686945E2,3.495318E2,2.619223E2,-1.2379095E-2,-8.041203E-3,-6.198783E-3,-1.7006574E-3,-2.3884212E-3,2.271867E-3,6.258733E-3,1.0346486E-2],"split_indices":[2,2,2,2,1,1,2,0,0,0,0,0,0,0,0],"split_type":[0,0,0,0,0,0,0,0,0,0,0,0,0,0,0],"sum_hessian":[1.662E3,6.93E2,9.69E2,3.55E2,3.38E2,3.88E2,5.81E2,2.02E2,1.53E2,1.99E2,1.39E2,8.9E1,2.99E2,3.47E2,2.34E2],"tree_param":{"num_deleted":"0","num_feature":"5","num_nodes":"15","size_leaf_vector":"1"}},{"base_weights":[-1.7909288E-2,-2.165212E-1,1.3380918E-1,-3.439552E-1,-9.0966955E-2,5.213999E-2,2.579377E-1,-7.452354E-3,-2.9395951E-3,3.3211426E-3,-1.5876272E-3,-5.668983E-4,1.5465134E-3,3.36461E-3,7.7487266E-4],"categories":[],"categories_nodes":[],"categories_segments":[],"categories_sizes":[],"default_left":[0,0,0,0,0,0,0,0,0,0,0,0,0,0,0],"id":26,"left_children":[1,3,5,7,9,11,13,-1,-1,-1,-1,-1,-1,-1,-1],"loss_changes":[5.0159794E1,1.1280338E1,9.396727E0,6.017269E0,1.0710789E1,6.4726486E0,5.0257835E0,0E0,0E0,0E0,0E0,0E0,0E0,0E0,0E0],"parents":[2147483647,0,0,1,1,2,2,3,3,4,4,5,5,6,6],"right_children":[2,4,6,8,10,12,14,-1,-1,-1,-1,-1,-1,-1,-1],"split_conditions":[5.936148E2,3.5346274E2,9.6398956E2,5.1E1,3.8159518E2,2.8601414E1,1.1255219E3,-7.452354E-3,-2.9395951E-3,3.3211426E-3,-1.5876272E-3,-5.668983E-4,1.5465134E-3,3.36461E-3,7.7487266E-4],"split_indices":[1,1,1,4,1,0,1,0,0,0,0,0,0,0,0],"split_type":[0,0,0,0,0,0,0,0,0,0,0,0,0,0,0],"sum_hessian":[1.657E3,7.18E2,9.39E2,3.52E2,3.66E2,5.71E2,3.68E2,3.3E1,3.19E2,4.8E1,3.18E2,2.76E2,2.95E2,2.53E2,1.15E2],"tree_param":{"num_deleted":"0","num_feature":"5","num_nodes":"15","size_leaf_vector":"1"}},{"base_weights":[-0E0,-7.0759106E-1,5.9155375E-1,-1.0442683E0,-4.1140646E-1,2.9466677E-1,8.67784E-1,-1.3259735E-2,-9.090194E-3,-5.902845E-3,-2.2849066E-3,1.7084306E-3,4.6371296E-3,6.705944E-3,1.06269E-2],"categories":[],"categories_nodes":[],"categories_segments":[],"categories_sizes":[],"default_left":[0,0,0,0,0,0,0,0,0,0,0,0,0,0,0],"id":27,"left_children":[1,3,5,7,9,11,13,-1,-1,-1,-1,-1,-1,-1,-1],"loss_changes":[7.055873E2,7.454901E1,7.4035034E1,8.706299E0,1.2809212E1,8.890339E0,1.5165466E1,0E0,0E0,0E0,0E0,0E0,0E0,0E0,0E0],"parents":[2147483647,0,0,1,1,2,2,3,3,4,4,5,5,6,6],"right_children":[2,4,6,8,10,12,14,-1,-1,-1,-1,-1,-1,-1,-1],"split_conditions":[1.5930504E2,1.0067473E2,2.2435637E2,6.488402E1,1.3024536E2,2.0079028E2,2.6306198E2,-1.3259735E-2,-9.090194E-3,-5.902845E-3,-2.2849066E-3,1.7084306E-3,4.6371296E-3,6.705944E-3,1.06269E-2],"split_indices":[2,2,2,2,2,2,2,0,0,0,0,0,0,0,0],"split_type":[0,0,0,0,0,0,0,0,0,0,0,0,0,0,0],"sum_hessian":[1.679E3,7.64E2,9.15E2,3.53E2,4.11E2,4.45E2,4.7E2,1.04E2,2.49E2,2.03E2,2.08E2,2.62E2,1.83E2,2.42E2,2.28E2],"tree_param":{"num_deleted":"0","num_feature":"5","num_nodes":"15","size_leaf_vector":"1"}},{"base_weights":[1.2742886E-2,-6.772691E-1,5.852165E-1,-9.843315E-1,-3.2261404E-1,2.6123452E-1,8.7943906E-1,-1.1686532E-2,-7.5599863E-3,-4.4953227E-3,-7.18307E-4,-2.7346876E-4,3.581093E-3,3.608908E-3,9.572235E-3],"categories":[],"categories_nodes":[],"categories_segments":[],"categories_sizes":[],"default_left":[0,0,0,0,0,0,0,0,0,0,0,0,0,0,0],"id":28,"left_children":[1,3,5,7,9,11,13,-1,-1,-1,-1,-1,-1,-1,-1],"loss_changes":[6.512519E2,7.984924E1,8.473697E1,1.3092712E1,1.0919815E1,1.2295225E1,1.7333435E1,0E0,0E0,0E0,0E0,0E0,0E0,0E0,0E0],"parents":[2147483647,0,0,1,1,2,2,3,3,4,4,5,5,6,6],"right_children":[2,4,6,8,10,12,14,-1,-1,-1,-1,-1,-1,-1,-1],"split_conditions":[1.5930504E2,1.0771339E2,2.2361906E2,7.902673E1,8.324422E2,4.1695978E2,2.8411014E2,-1.1686532E-2,-7.5599863E-3,-4.4953227E-3,-7.18307E-4,-2.7346876E-4,3.581093E-3,3.608908E-3,9.572235E-3],"split_indices":[2,2,2,2,1,1,1,0,0,0,0,0,0,0,0],"split_type":[0,0,0,0,0,0,0,0,0,0,0,0,0,0,0],"sum_hessian":[1.642E3,7.44E2,8.98E2,3.95E2,3.49E2,4.31E2,4.67E2,2.1E2,1.85E2,2.29E2,1.2E2,1.08E2,3.23E2,6.4E1,4.03E2],"tree_param":{"num_deleted":"0","num_feature":"5","num_nodes":"15","size_leaf_vector":"1"}},{"base_weights":[2.5475316E-3,-6.5103793E-1,5.8540213E-1,-9.977078E-1,-3.6389995E-1,2.5910878E-1,8.1780803E-1,-1.1278568E-2,-7.952633E-3,-5.2655805E-3,-1.9925039E-3,1.4361707E-3,3.6634435E-3,6.5607876E-3,1.0281995E-2],"categories":[],"categories_nodes":[],"categories_segments":[],"categories_sizes":[],"default_left":[0,0,0,0,0,0,0,0,0,0,0,0,0,0,0],"id":29,"left_children":[1,3,5,7,9,11,13,-1,-1,-1,-1,-1,-1,-1,-1],"loss_changes":[6.4215704E2,7.735968E1,6.649362E1,5.697632E0,1.1179451E1,4.3008366E0,1.4756561E1,0E0,0E0,0E0,0E0,0E0,0E0,0E0,0E0],"parents":[2147483647,0,0,1,1,2,2,3,3,4,4,5,5,6,6],"right_children":[2,4,6,8,10,12,14,-1,-1,-1,-1,-1,-1,-1,-1],"split_conditions":[1.6249374E2,1.0067473E2,2.1529158E2,7.811267E1,1.3024536E2,1.905932E2,2.652798E2,-1.1278568E-2,-7.952633E-3,-5.2655805E-3,-1.9925039E-3,1.4361707E-3,3.6634435E-3,6.5607876E-3,1.0281995E-2],"split_indices":[2,2,2,2,2,2,2,0,0,0,0,0,0,0,0],"split_type":[0,0,0,0,0,0,0,0,0,0,0,0,0,0,0],"sum_hessian":[1.679E3,7.91E2,8.88E2,3.54E2,4.37E2,3.73E2,5.15E2,2.05E2,1.49E2,2.15E2,2.22E2,1.85E2,1.88E2,3E2,2.15E2],"tree_param":{"num_deleted":"0","num_feature":"5","num_nodes":"15","size_leaf_vector":"1"}},{"base_weights":[-9.02179E-3,-6.189515E-1,5.9471864E-1,-9.423484E-1,-2.4467734E-1,3.3883664E-1,8.474049E-1,-1.1376198E-2,-7.4015325E-3,-5.0118268E-3,-1.635126E-3,2.3088383E-3,4.6930397E-3,6.5749334E-3,1.0195546E-2],"categories":[],"categories_nodes":[],"categories_segments":[],"categories_sizes":[],"default_left":[0,0,0,0,0,0,0,0,0,0,0,0,0,0,0],"id":30,"left_children":[1,3,5,7,9,11,13,-1,-1,-1,-1,-1,-1,-1,-1],"loss_changes":[6.167183E2,9.966693E1,5.3006653E1,1.4068054E1,7.6330757E0,5.3600883E0,1.0878387E1,0E0,0E0,0E0,0E0,0E0,0E0,0E0,0E0],"parents":[2147483647,0,0,1,1,2,2,3,3,4,4,5,5,6,6],"right_children":[2,4,6,8,10,12,14,-1,-1,-1,-1,-1,-1,-1,-1],"split_conditions":[1.7388445E2,1.1533673E2,2.32647E2,7.902673E1,1.2801825E2,2.0589136E2,2.652798E2,-1.1376198E-2,-7.4015325E-3,-5.0118268E-3,-1.635126E-3,2.3088383E-3,4.6930397E-3,6.5749334E-3,1.0195546E-2],"split_indices":[2,2,2,2,2,2,2,0,0,0,0,0,0,0,0],"split_type":[0,0,0,0,0,0,0,0,0,0,0,0,0,0,0],"sum_hessian":[1.668E3,8.3E2,8.38E2,4.42E2,3.88E2,4.21E2,4.17E2,2.16E2,2.26E2,8.8E1,3E2,2.37E2,1.84E2,2.07E2,2.1E2],"tree_param":{"num_deleted":"0","num_feature":"5","num_nodes":"15","size_leaf_vector":"1"}},{"base_weights":[2.3262457E-3,-6.488281E-1,5.540682E-1,-9.4837976E-1,-3.1877333E-1,2.0660669E-1,8.115815E-1,-1.0784901E-2,-6.9794217E-3,-6.2839496E-3,-2.1125926E-3,-9.788723E-4,2.7338648E-3,3.7038936E-3,9.074571E-3],"categories":[],"categories_nodes":[],"categories_segments":[],"categories_sizes":[],"default_left":[0,0,0,0,0,0,0,0,0,0,0,0,0,0,0],"id":31,"left_children":[1,3,5,7,9,11,13,-1,-1,-1,-1,-1,-1,-1,-1],"loss_changes":[5.973431E2,7.389978E1,7.96308E1,9.769409E0,1.1513409E1,8.05057E0,2.020697E1,0E0,0E0,0E0,0E0,0E0,0E0,0E0,0E0],"parents":[2147483647,0,0,1,1,2,2,3,3,4,4,5,5,6,6],"right_children":[2,4,6,8,10,12,14,-1,-1,-1,-1,-1,-1,-1,-1],"split_conditions":[1.6003741E2,1.0689004E2,2.1529158E2,8.4866165E1,3.495318E2,2.9370612E2,3.495318E2,-1.0784901E-2,-6.9794217E-3,-6.2839496E-3,-2.1125926E-3,-9.788723E-4,2.7338648E-3,3.7038936E-3,9.074571E-3],"split_indices":[2,2,2,2,1,1,1,0,0,0,0,0,0,0,0],"split_type":[0,0,0,0,0,0,0,0,0,0,0,0,0,0,0],"sum_hessian":[1.656E3,7.59E2,8.97E2,3.94E2,3.65E2,3.85E2,5.12E2,2.51E2,1.43E2,8.9E1,2.76E2,6.8E1,3.17E2,9.5E1,4.17E2],"tree_param":{"num_deleted":"0","num_feature":"5","num_nodes":"15","size_leaf_vector":"1"}},{"base_weights":[1.7712248E-2,-6.970971E-1,5.4636985E-1,-1.0206974E0,-4.080515E-1,3.458415E-1,9.3179345E-1,-1.11446E-2,-7.956179E-3,-5.879663E-3,-2.0198782E-3,2.1577282E-4,4.219118E-3,7.419919E-3,1.0219312E-2],"categories":[],"categories_nodes":[],"categories_segments":[],"categories_sizes":[],"default_left":[0,0,0,0,0,0,0,0,0,0,0,0,0,0,0],"id":32,"left_children":[1,3,5,7,9,11,13,-1,-1,-1,-1,-1,-1,-1,-1],"loss_changes":[6.298047E2,6.4339386E1,7.2525055E1,3.314209E0,1.3417759E1,1.5507675E1,2.3735352E0,0E0,0E0,0E0,0E0,0E0,0E0,0E0,0E0],"parents":[2147483647,0,0,1,1,2,2,3,3,4,4,5,5,6,6],"right_children":[2,4,6,8,10,12,14,-1,-1,-1,-1,-1,-1,-1,-1],"split_conditions":[1.5473822E2,9.8295975E1,2.4938431E2,8.125638E1,1.2801825E2,1.7468532E2,2.659923E2,-1.11446E-2,-7.956179E-3,-5.879663E-3,-2.0198782E-3,2.1577282E-4,4.219118E-3,7.419919E-3,1.0219312E-2],"split_indices":[2,2,2,2,2,2,2,0,0,0,0,0,0,0,0],"split_type":[0,0,0,0,0,0,0,0,0,0,0,0,0,0,0],"sum_hessian":[1.66E3,7.05E2,9.55E2,3.28E2,3.77E2,6.33E2,3.22E2,2.21E2,1.07E2,1.97E2,1.8E2,1.22E2,5.11E2,1.15E2,2.07E2],"tree_param":{"num_deleted":"0","num_feature":"5","num_nodes":"15","size_leaf_vector":"1"}},{"base_weights":[1.5381073E-2,-6.666025E-1,5.506728E-1,-9.7177356E-1,-3.2251692E-1,2.0776047E-1,7.846553E-1,-1.1284977E-2,-7.911147E-3,-6.6695726E-3,-2.0711818E-3,-1.2530258E-3,2.8861472E-3,4.346901E-3,8.6657135E-3],"categories":[],"categories_nodes":[],"categories_segments":[],"categories_sizes":[],"default_left":[0,0,0,0,0,0,0,0,0,0,0,0,0,0,0],"id":33,"left_children":[1,3,5,7,9,11,13,-1,-1,-1,-1,-1,-1,-1,-1],"loss_changes":[6.073356E2,7.527573E1,7.390335E1,7.2082825E0,1.3107128E1,1.050486E1,1.4096741E1,0E0,0E0,0E0,0E0,0E0,0E0,0E0,0E0],"parents":[2147483647,0,0,1,1,2,2,3,3,4,4,5,5,6,6],"right_children":[2,4,6,8,10,12,14,-1,-1,-1,-1,-1,-1,-1,-1],"split_conditions":[1.5578758E2,1.0689004E2,2.1164792E2,7.811267E1,3.409735E2,3.344351E2,3.5346274E2,-1.1284977E-2,-7.911147E-3,-6.6695726E-3,-2.0711818E-3,-1.2530258E-3,2.8861472E-3,4.346901E-3,8.6657135E-3],"split_indices":[2,2,2,2,1,1,1,0,0,0,0,0,0,0,0],"split_type":[0,0,0,0,0,0,0,0,0,0,0,0,0,0,0],"sum_hessian":[1.657E3,7.28E2,9.29E2,3.82E2,3.46E2,3.8E2,5.49E2,1.94E2,1.88E2,8.2E1,2.64E2,7.3E1,3.07E2,1.09E2,4.4E2],"tree_param":{"num_deleted":"0","num_feature":"5","num_nodes":"15","size_leaf_vector":"1"}},{"base_weights":[-1.5361668E-2,-6.392472E-1,5.143916E-1,-9.742993E-1,-3.3931136E-1,3.2748872E-1,8.809377E-1,-1.208127E-2,-8.162542E-3,-6.5938383E-3,-2.2460949E-3,-2.4327305E-4,4.133616E-3,1.9279348E-3,9.456825E-3],"categories":[],"categories_nodes":[],"categories_segments":[],"categories_sizes":[],"default_left":[0,0,0,0,0,0,0,0,0,0,0,0,0,0,0],"id":34,"left_children":[1,3,5,7,9,11,13,-1,-1,-1,-1,-1,-1,-1,-1],"loss_changes":[5.449611E2,7.4524506E1,5.9659378E1,9.077057E0,1.4065468E1,1.8190868E1,1.2269928E1,0E0,0E0,0E0,0E0,0E0,0E0,0E0,0E0],"parents":[2147483647,0,0,1,1,2,2,3,3,4,4,5,5,6,6],"right_children":[2,4,6,8,10,12,14,-1,-1,-1,-1,-1,-1,-1,-1],"split_conditions":[1.6003741E2,1.0067473E2,2.5066922E2,5.513143E2,3.5346274E2,3.344351E2,1.8744092E2,-1.208127E-2,-8.162542E-3,-6.5938383E-3,-2.2460949E-3,-2.4327305E-4,4.133616E-3,1.9279348E-3,9.456825E-3],"split_indices":[2,2,2,1,1,1,1,0,0,0,0,0,0,0,0],"split_type":[0,0,0,0,0,0,0,0,0,0,0,0,0,0,0],"sum_hessian":[1.642E3,7.54E2,8.88E2,3.52E2,4.02E2,5.93E2,2.95E2,1.32E2,2.2E2,1.01E2,3.01E2,1.16E2,4.77E2,2.7E1,2.68E2],"tree_param":{"num_deleted":"0","num_feature":"5","num_nodes":"15","size_leaf_vector":"1"}},{"base_weights":[-1.4332393E-2,-5.7536054E-1,5.906748E-1,-8.077916E-1,-1.147778E-1,3.215367E-1,8.06306E-1,-1.0555967E-2,-6.29772E-3,-5.157854E-3,-2.7210405E-4,1.0009262E-3,3.9758626E-3,2.468084E-3,8.884438E-3],"categories":[],"categories_nodes":[],"categories_segments":[],"categories_sizes":[],"default_left":[0,0,0,0,0,0,0,0,0,0,0,0,0,0,0],"id":35,"left_children":[1,3,5,7,9,11,13,-1,-1,-1,-1,-1,-1,-1,-1],"loss_changes":[5.711666E2,9.285437E1,4.5691895E1,2.2709442E1,1.0200359E1,5.8572235E0,1.936615E1,0E0,0E0,0E0,0E0,0E0,0E0,0E0,0E0],"parents":[2147483647,0,0,1,1,2,2,3,3,4,4,5,5,6,6],"right_children":[2,4,6,8,10,12,14,-1,-1,-1,-1,-1,-1,-1,-1],"split_conditions":[1.7176108E2,1.3024536E2,2.2564786E2,7.902673E1,2.616318E2,4.0221954E2,2.8411014E2,-1.0555967E-2,-6.29772E-3,-5.157854E-3,-2.7210405E-4,1.0009262E-3,3.9758626E-3,2.468084E-3,8.884438E-3],"split_indices":[2,2,2,2,1,1,1,0,0,0,0,0,0,0,0],"split_type":[0,0,0,0,0,0,0,0,0,0,0,0,0,0,0],"sum_hessian":[1.676E3,8.7E2,8.06E2,5.76E2,2.94E2,3.63E2,4.43E2,2.33E2,3.43E2,4.9E1,2.45E2,9.6E1,2.67E2,5.9E1,3.84E2],"tree_param":{"num_deleted":"0","num_feature":"5","num_nodes":"15","size_leaf_vector":"1"}},{"base_weights":[5.0198906E-3,-5.8754754E-1,5.816814E-1,-9.805184E-1,-2.9693252E-1,4.0888622E-1,9.1391945E-1,-1.1201469E-2,-7.691053E-3,-5.908558E-3,-2.0547004E-3,2.153518E-3,5.257753E-3,2.1753607E-3,9.685604E-3],"categories":[],"categories_nodes":[],"categories_segments":[],"categories_sizes":[],"default_left":[0,0,0,0,0,0,0,0,0,0,0,0,0,0,0],"id":36,"left_children":[1,3,5,7,9,11,13,-1,-1,-1,-1,-1,-1,-1,-1],"loss_changes":[5.630534E2,9.133484E1,4.6222046E1,6.54953E0,1.2003384E1,1.1938293E1,9.607925E0,0E0,0E0,0E0,0E0,0E0,0E0,0E0,0E0],"parents":[2147483647,0,0,1,1,2,2,3,3,4,4,5,5,6,6],"right_children":[2,4,6,8,10,12,14,-1,-1,-1,-1,-1,-1,-1,-1],"split_conditions":[1.6872975E2,1.0067473E2,2.5172829E2,7.811267E1,3.409735E2,2.0079028E2,1.8744092E2,-1.1201469E-2,-7.691053E-3,-5.908558E-3,-2.0547004E-3,2.153518E-3,5.257753E-3,2.1753607E-3,9.685604E-3],"split_indices":[2,2,2,2,1,2,1,0,0,0,0,0,0,0,0],"split_type":[0,0,0,0,0,0,0,0,0,0,0,0,0,0,0],"sum_hessian":[1.641E3,8.09E2,8.32E2,3.4E2,4.69E2,5.53E2,2.79E2,1.95E2,1.45E2,1.06E2,3.63E2,2.13E2,3.4E2,2.2E1,2.57E2],"tree_param":{"num_deleted":"0","num_feature":"5","num_nodes":"15","size_leaf_vector":"1"}},{"base_weights":[-1.644017E-2,-6.8944365E-1,4.4983634E-1,-1.0656182E-2,-4.6313444E-1,1.7605865E-1,7.614095E-1,-7.7952766E-3,-3.3159547E-3,-4.3039332E-4,2.8351848E-3,3.362491E-5,8.0810655E-3],"categories":[],"categories_nodes":[],"categories_segments":[],"categories_sizes":[],"default_left":[0,0,0,0,0,0,0,0,0,0,0,0,0],"id":37,"left_children":[1,3,5,-1,7,9,11,-1,-1,-1,-1,-1,-1],"loss_changes":[5.215414E2,5.570691E1,8.292439E1,0E0,1.6681755E1,1.2544119E1,1.589035E1,0E0,0E0,0E0,0E0,0E0,0E0],"parents":[2147483647,0,0,1,1,2,2,4,4,5,5,6,6],"right_children":[2,4,6,-1,8,10,12,-1,-1,-1,-1,-1,-1],"split_conditions":[1.4803336E2,8.4866165E1,2.2080727E2,-1.0656182E-2,4.125646E2,1.7388445E2,1.6184741E2,-7.7952766E-3,-3.3159547E-3,-4.3039332E-4,2.8351848E-3,3.362491E-5,8.0810655E-3],"split_indices":[2,2,2,0,1,2,1,0,0,0,0,0,0],"split_type":[0,0,0,0,0,0,0,0,0,0,0,0,0],"sum_hessian":[1.655E3,6.77E2,9.78E2,2.49E2,4.28E2,5.24E2,4.54E2,1.2E2,3.08E2,1.72E2,3.52E2,2.7E1,4.27E2],"tree_param":{"num_deleted":"0","num_feature":"5","num_nodes":"13","size_leaf_vector":"1"}},{"base_weights":[-9.198807E-3,-5.959908E-1,5.56752E-1,-1.0290813E0,-3.8734946E-1,3.6372495E-1,8.988633E-3,-1.2137704E-2,-8.862365E-3,-5.740384E-3,-1.7740647E-3,1.5789351E-3,4.888071E-3],"categories":[],"categories_nodes":[],"categories_segments":[],"categories_sizes":[],"default_left":[0,0,0,0,0,0,0,0,0,0,0,0,0],"id":38,"left_children":[1,3,5,7,9,11,-1,-1,-1,-1,-1,-1,-1],"loss_changes":[5.615048E2,7.317935E1,5.5259705E1,2.6683655E0,2.1585258E1,1.3831871E1,0E0,0E0,0E0,0E0,0E0,0E0,0E0],"parents":[2147483647,0,0,1,1,2,2,3,3,4,4,5,5],"right_children":[2,4,6,8,10,12,-1,-1,-1,-1,-1,-1,-1],"split_conditions":[1.6872975E2,8.4866165E1,2.5066922E2,6.488402E1,1.3024536E2,2.0079028E2,8.988633E-3,-1.2137704E-2,-8.862365E-3,-5.740384E-3,-1.7740647E-3,1.5789351E-3,4.888071E-3],"split_indices":[2,2,2,2,2,2,0,0,0,0,0,0,0],"split_type":[0,0,0,0,0,0,0,0,0,0,0,0,0],"sum_hessian":[1.684E3,8.27E2,8.57E2,2.64E2,5.63E2,5.53E2,3.04E2,1.03E2,1.61E2,2.94E2,2.69E2,2.13E2,3.4E2],"tree_param":{"num_deleted":"0","num_feature":"5","num_nodes":"13","size_leaf_vector":"1"}},{"base_weights":[2.0773826E-2,-5.762489E-1,5.611349E-1,-9.312519E-1,-3.1032747E-1,2.7799326E-1,8.2174844E-1,-9.914159E-3,-6.597349E-3,-5.159142E-3,-1.4114508E-3,1.8965726E-3,3.7382015E-3,6.666716E-3,9.986621E-3],"categories":[],"categories_nodes":[],"categories_segments":[],"categories_sizes":[],"default_left":[0,0,0,0,0,0,0,0,0,0,0,0,0,0,0],"id":39,"left_children":[1,3,5,7,9,11,13,-1,-1,-1,-1,-1,-1,-1,-1],"loss_changes":[5.21252E2,7.102147E1,6.14364E1,2.5307617E0,1.4974667E1,3.0492973E0,9.208984E0,0E0,0E0,0E0,0E0,0E0,0E0,0E0,0E0],"parents":[2147483647,0,0,1,1,2,2,3,3,4,4,5,5,6,6],"right_children":[2,4,6,8,10,12,14,-1,-1,-1,-1,-1,-1,-1,-1],"split_conditions":[1.6872975E2,9.913585E1,2.2662141E2,4.16876E1,1.3082303E2,2.0079028E2,2.6767502E2,-9.914159E-3,-6.597349E-3,-5.159142E-3,-1.4114508E-3,1.8965726E-3,3.7382015E-3,6.666716E-3,9.986621E-3],"split_indices":[2,2,2,0,2,2,2,0,0,0,0,0,0,0,0],"split_type":[0,0,0,0,0,0,0,0,0,0,0,0,0,0,0],"sum_hessian":[1.609E3,7.64E2,8.45E2,3.23E2,4.41E2,4.09E2,4.36E2,2.56E2,6.7E1,1.95E2,2.46E2,2.2E2,1.89E2,2.42E2,1.94E2],"tree_param":{"num_deleted":"0","num_feature":"5","num_nodes":"15","size_leaf_vector":"1"}},{"base_weights":[-1.948904E-2,-3.4775165E-1,6.978788E-2,-6.3041267E-3,-2.8003946E-1,2.8368507E-3,2.1695903E-1,-3.1103182E-3,1.0485832E-3,-6.264952E-4,1.7423738E-3,-2.3754449E-3,2.7888194E-3],"categories":[],"categories_nodes":[],"categories_segments":[],"categories_sizes":[],"default_left":[0,0,0,0,0,0,0,0,0,0,0,0,0],"id":40,"left_children":[1,3,5,-1,7,9,11,-1,-1,-1,-1,-1,-1],"loss_changes":[4.8284267E1,5.8217316E0,1.265324E1,0E0,3.6598682E0,1.0104494E1,1.1563105E1,0E0,0E0,0E0,0E0,0E0,0E0],"parents":[2147483647,0,0,1,1,2,2,4,4,5,5,6,6],"right_children":[2,4,6,-1,8,10,12,-1,-1,-1,-1,-1,-1],"split_conditions":[3.4560703E2,8.4E1,3.7478096E1,-6.3041267E-3,4.7171227E1,9.5733234E2,1.2527185E3,-3.1103182E-3,1.0485832E-3,-6.264952E-4,1.7423738E-3,-2.3754449E-3,2.7888194E-3],"split_indices":[1,4,0,0,0,1,3,0,0,0,0,0,0],"split_type":[0,0,0,0,0,0,0,0,0,0,0,0,0],"sum_hessian":[1.638E3,3.49E2,1.289E3,6.1E1,2.88E2,8.9E2,3.99E2,2.68E2,2E1,6.44E2,2.46E2,4.6E1,3.53E2],"tree_param":{"num_deleted":"0","num_feature":"5","num_nodes":"13","size_leaf_vector":"1"}},{"base_weights":[1.0110662E-2,-5.368792E-1,5.8142537E-1,-8.298393E-1,-1.9482993E-1,2.9016912E-1,7.478841E-1,-1.0171482E-2,-6.1334064E-3,-4.2652776E-3,-1.1101579E-3,1.6936035E-3,3.5813923E-3,6.103535E-3,9.4921645E-3],"categories":[],"categories_nodes":[],"categories_segments":[],"categories_sizes":[],"default_left":[0,0,0,0,0,0,0,0,0,0,0,0,0,0,0],"id":41,"left_children":[1,3,5,7,9,11,13,-1,-1,-1,-1,-1,-1,-1,-1],"loss_changes":[5.1119336E2,8.279704E1,3.7698944E1,1.5491272E1,7.228303E0,2.0479088E0,1.1505554E1,0E0,0E0,0E0,0E0,0E0,0E0,0E0,0E0],"parents":[2147483647,0,0,1,1,2,2,3,3,4,4,5,5,6,6],"right_children":[2,4,6,8,10,12,14,-1,-1,-1,-1,-1,-1,-1,-1],"split_conditions":[1.7176108E2,1.1533673E2,2.1608968E2,8.125638E1,1.3024536E2,2.5196972E1,2.6767502E2,-1.0171482E-2,-6.1334064E-3,-4.2652776E-3,-1.1101579E-3,1.6936035E-3,3.5813923E-3,6.103535E-3,9.4921645E-3],"split_indices":[2,2,2,2,2,0,2,0,0,0,0,0,0,0,0],"split_type":[0,0,0,0,0,0,0,0,0,0,0,0,0,0,0],"sum_hessian":[1.629E3,8.32E2,7.97E2,4.45E2,3.87E2,2.94E2,5.03E2,2.31E2,2.14E2,9.8E1,2.89E2,1.12E2,1.82E2,3.08E2,1.95E2],"tree_param":{"num_deleted":"0","num_feature":"5","num_nodes":"15","size_leaf_vector":"1"}},{"base_weights":[7.732494E-3,-5.558719E-1,5.3843457E-1,-8.3521533E-1,-2.2599357E-1,3.6539263E-1,8.42905E-1,-1.1397677E-2,-7.1448386E-3,-4.857133E-3,-1.3797597E-3,1.13348906E-4,4.4479272E-3,1.3356339E-4,9.159536E-3],"categories":[],"categories_nodes":[],"categories_segments":[],"categories_sizes":[],"default_left":[0,0,0,0,0,0,0,0,0,0,0,0,0,0,0],"id":42,"left_children":[1,3,5,7,9,11,13,-1,-1,-1,-1,-1,-1,-1,-1],"loss_changes":[4.9135208E2,7.2367676E1,4.311902E1,1.2372864E1,8.016842E0,1.5179306E1,1.8009354E1,0E0,0E0,0E0,0E0,0E0,0E0,0E0,0E0],"parents":[2147483647,0,0,1,1,2,2,3,3,4,4,5,5,6,6],"right_children":[2,4,6,8,10,12,14,-1,-1,-1,-1,-1,-1,-1,-1],"split_conditions":[1.6872975E2,1.14815186E2,2.5066922E2,6.545476E1,3.409735E2,3.344351E2,1.8744092E2,-1.1397677E-2,-7.1448386E-3,-4.857133E-3,-1.3797597E-3,1.13348906E-4,4.4479272E-3,1.3356339E-4,9.159536E-3],"split_indices":[2,2,2,2,1,1,1,0,0,0,0,0,0,0,0],"split_type":[0,0,0,0,0,0,0,0,0,0,0,0,0,0,0],"sum_hessian":[1.636E3,7.93E2,8.43E2,4.26E2,3.67E2,5.43E2,3E2,1.12E2,3.14E2,8.8E1,2.79E2,1.01E2,4.42E2,2.5E1,2.75E2],"tree_param":{"num_deleted":"0","num_feature":"5","num_nodes":"15","size_leaf_vector":"1"}},{"base_weights":[-1.1559861E-2,-6.5270627E-1,4.8887983E-1,-9.518345E-1,-3.595009E-1,1.9321671E-1,7.2025764E-1,-1.1878638E-2,-8.121178E-3,-6.214703E-3,-2.5808567E-3,-1.627527E-4,2.8658626E-3,5.616659E-3,8.920897E-3],"categories":[],"categories_nodes":[],"categories_segments":[],"categories_sizes":[],"default_left":[0,0,0,0,0,0,0,0,0,0,0,0,0,0,0],"id":43,"left_children":[1,3,5,7,9,11,13,-1,-1,-1,-1,-1,-1,-1,-1],"loss_changes":[5.3516016E2,6.2520386E1,6.325995E1,7.8764343E0,9.1158905E0,8.257077E0,1.2049286E1,0E0,0E0,0E0,0E0,0E0,0E0,0E0,0E0],"parents":[2147483647,0,0,1,1,2,2,3,3,4,4,5,5,6,6],"right_children":[2,4,6,8,10,12,14,-1,-1,-1,-1,-1,-1,-1,-1],"split_conditions":[1.5473822E2,1.0067473E2,2.1529158E2,6.742617E1,3.7268668E2,1.7468532E2,2.619223E2,-1.1878638E-2,-8.121178E-3,-6.214703E-3,-2.5808567E-3,-1.627527E-4,2.8658626E-3,5.616659E-3,8.920897E-3],"split_indices":[2,2,2,2,1,2,2,0,0,0,0,0,0,0,0],"split_type":[0,0,0,0,0,0,0,0,0,0,0,0,0,0,0],"sum_hessian":[1.661E3,7.28E2,9.33E2,3.56E2,3.72E2,4.13E2,5.2E2,1.22E2,2.34E2,9.8E1,2.74E2,1.27E2,2.86E2,2.79E2,2.41E2],"tree_param":{"num_deleted":"0","num_feature":"5","num_nodes":"15","size_leaf_vector":"1"}},{"base_weights":[-8.113032E-3,-6.0299134E-1,4.9790215E-1,-7.716668E-1,-1.6064484E-1,1.9632646E-1,7.027882E-1,-9.742656E-3,-5.904385E-3,-3.4309553E-3,1.2612874E-5,-1.362237E-3,2.555593E-3,5.4678223E-3,9.212973E-3],"categories":[],"categories_nodes":[],"categories_segments":[],"categories_sizes":[],"default_left":[0,0,0,0,0,0,0,0,0,0,0,0,0,0,0],"id":44,"left_children":[1,3,5,7,9,11,13,-1,-1,-1,-1,-1,-1,-1,-1],"loss_changes":[4.9453265E2,5.5608032E1,5.4041504E1,1.7520782E1,6.4271603E0,7.3378105E0,1.5715973E1,0E0,0E0,0E0,0E0,0E0,0E0,0E0,0E0],"parents":[2147483647,0,0,1,1,2,2,3,3,4,4,5,5,6,6],"right_children":[2,4,6,8,10,12,14,-1,-1,-1,-1,-1,-1,-1,-1],"split_conditions":[1.6003741E2,1.3082303E2,2.1164792E2,8.4866165E1,5.7789056E2,2.616318E2,2.652798E2,-9.742656E-3,-5.904385E-3,-3.4309553E-3,1.2612874E-5,-1.362237E-3,2.555593E-3,5.4678223E-3,9.212973E-3],"split_indices":[2,2,2,2,1,1,2,0,0,0,0,0,0,0,0],"split_type":[0,0,0,0,0,0,0,0,0,0,0,0,0,0,0],"sum_hessian":[1.636E3,7.52E2,8.84E2,5.42E2,2.1E2,3.61E2,5.23E2,2.48E2,2.94E2,9.8E1,1.12E2,5.3E1,3.08E2,3.13E2,2.1E2],"tree_param":{"num_deleted":"0","num_feature":"5","num_nodes":"15","size_leaf_vector":"1"}},{"base_weights":[-1.6855048E-2,-6.1322856E-1,4.588156E-1,-9.841282E-3,-4.073043E-1,1.2055198E-1,6.6207117E-1,-7.187196E-3,-2.8642353E-3,-7.193449E-4,2.3475583E-3,1.0257481E-3,7.2047734E-3],"categories":[],"categories_nodes":[],"categories_segments":[],"categories_sizes":[],"default_left":[0,0,0,0,0,0,0,0,0,0,0,0,0],"id":45,"left_children":[1,3,5,-1,7,9,11,-1,-1,-1,-1,-1,-1],"loss_changes":[4.7513736E2,5.492453E1,6.3485703E1,0E0,1.717836E1,7.905571E0,1.8420883E1,0E0,0E0,0E0,0E0,0E0,0E0],"parents":[2147483647,0,0,1,1,2,2,4,4,5,5,6,6],"right_children":[2,4,6,-1,8,10,12,-1,-1,-1,-1,-1,-1],"split_conditions":[1.5473822E2,8.4866165E1,2.085225E2,-9.841282E-3,4.207439E2,5.0593274E2,2.1542764E2,-7.187196E-3,-2.8642353E-3,-7.193449E-4,2.3475583E-3,1.0257481E-3,7.2047734E-3],"split_indices":[2,2,2,0,1,1,1,0,0,0,0,0,0],"split_type":[0,0,0,0,0,0,0,0,0,0,0,0,0],"sum_hessian":[1.668E3,7.4E2,9.28E2,2.59E2,4.81E2,3.51E2,5.77E2,1.29E2,3.52E2,1.3E2,2.21E2,5.6E1,5.21E2],"tree_param":{"num_deleted":"0","num_feature":"5","num_nodes":"13","size_leaf_vector":"1"}},{"base_weights":[-6.387951E-4,-3.5823745E-1,9.718554E-2,-5.345571E-3,-2.314817E-1,3.4150157E-2,2.3884076E-1,2.0100765E-3,-2.8301338E-3,-5.6610384E-4,1.5377164E-3,-3.866556E-3,3.0655148E-3],"categories":[],"categories_nodes":[],"categories_segments":[],"categories_sizes":[],"default_left":[0,0,0,0,0,0,0,0,0,0,0,0,0],"id":46,"left_children":[1,3,5,-1,7,9,11,-1,-1,-1,-1,-1,-1],"loss_changes":[5.881896E1,7.3840714E0,1.1637815E1,0E0,5.0661716E0,1.0024115E1,1.7455706E1,0E0,0E0,0E0,0E0,0E0,0E0],"parents":[2147483647,0,0,1,1,2,2,4,4,5,5,6,6],"right_children":[2,4,6,-1,8,10,12,-1,-1,-1,-1,-1,-1],"split_conditions":[3.495318E2,1.85E2,3.782563E1,-5.345571E-3,1.1763973E3,8.402606E2,1.2260507E3,2.0100765E-3,-2.8301338E-3,-5.6610384E-4,1.5377164E-3,-3.866556E-3,3.0655148E-3],"split_indices":[1,4,0,0,3,1,3,0,0,0,0,0,0],"split_type":[0,0,0,0,0,0,0,0,0,0,0,0,0],"sum_hessian":[1.672E3,3.58E2,1.314E3,1.44E2,2.14E2,9.14E2,4E2,2.1E1,1.93E2,5.19E2,3.95E2,3.7E1,3.63E2],"tree_param":{"num_deleted":"0","num_feature":"5","num_nodes":"13","size_leaf_vector":"1"}},{"base_weights":[-1.5427062E-3,-5.303013E-1,5.02047E-1,-7.8948975E-1,-1.853258E-1,3.755719E-1,8.7908244E-1,-1.0046215E-2,-6.1630616E-3,-3.6951688E-3,-1.2307193E-3,1.6489362E-3,4.7991327E-3,5.734313E-3,9.54835E-3],"categories":[],"categories_nodes":[],"categories_segments":[],"categories_sizes":[],"default_left":[0,0,0,0,0,0,0,0,0,0,0,0,0,0,0],"id":47,"left_children":[1,3,5,7,9,11,13,-1,-1,-1,-1,-1,-1,-1,-1],"loss_changes":[4.443614E2,7.197281E1,3.9176666E1,1.4592072E1,3.733305E0,1.371051E1,2.4972076E0,0E0,0E0,0E0,0E0,0E0,0E0,0E0,0E0],"parents":[2147483647,0,0,1,1,2,2,3,3,4,4,5,5,6,6],"right_children":[2,4,6,8,10,12,14,-1,-1,-1,-1,-1,-1,-1,-1],"split_conditions":[1.6872975E2,1.179167E2,2.652798E2,7.902673E1,1.3024536E2,2.0079028E2,1.9811172E1,-1.0046215E-2,-6.1630616E-3,-3.6951688E-3,-1.2307193E-3,1.6489362E-3,4.7991327E-3,5.734313E-3,9.54835E-3],"split_indices":[2,2,2,2,2,2,0,0,0,0,0,0,0,0,0],"split_type":[0,0,0,0,0,0,0,0,0,0,0,0,0,0,0],"sum_hessian":[1.662E3,8.11E2,8.51E2,4.6E2,3.51E2,6.43E2,2.08E2,1.97E2,2.63E2,8.3E1,2.68E2,2.17E2,4.26E2,4.8E1,1.6E2],"tree_param":{"num_deleted":"0","num_feature":"5","num_nodes":"15","size_leaf_vector":"1"}},{"base_weights":[-1.0818803E-2,-5.4891694E-1,5.0296956E-1,-8.206264E-1,-2.5596744E-1,2.4480091E-1,7.21341E-1,-1.0663869E-2,-7.0604556E-3,-3.7707586E-3,-8.4320654E-4,4.9486098E-5,3.2419497E-3,4.707982E-3,8.76686E-3],"categories":[],"categories_nodes":[],"categories_segments":[],"categories_sizes":[],"default_left":[0,0,0,0,0,0,0,0,0,0,0,0,0,0,0],"id":48,"left_children":[1,3,5,7,9,11,13,-1,-1,-1,-1,-1,-1,-1,-1],"loss_changes":[4.6192615E2,6.3885895E1,4.7224182E1,8.687653E0,8.008604E0,7.4437523E0,1.6041153E1,0E0,0E0,0E0,0E0,0E0,0E0,0E0,0E0],"parents":[2147483647,0,0,1,1,2,2,3,3,4,4,5,5,6,6],"right_children":[2,4,6,8,10,12,14,-1,-1,-1,-1,-1,-1,-1,-1],"split_conditions":[1.6872975E2,1.0932476E2,2.2564786E2,4.3431604E2,7.686945E2,4.0641898E2,5.7789056E2,-1.0663869E-2,-7.0604556E-3,-3.7707586E-3,-8.4320654E-4,4.9486098E-5,3.2419497E-3,4.707982E-3,8.76686E-3],"split_indices":[2,2,2,1,1,1,1,0,0,0,0,0,0,0,0],"split_type":[0,0,0,0,0,0,0,0,0,0,0,0,0,0,0],"sum_hessian":[1.664E3,8.13E2,8.51E2,4.18E2,3.95E2,3.94E2,4.57E2,1.23E2,2.95E2,2.28E2,1.67E2,1E2,2.94E2,1.81E2,2.76E2],"tree_param":{"num_deleted":"0","num_feature":"5","num_nodes":"15","size_leaf_vector":"1"}},{"base_weights":[1.9968008E-3,-5.8884996E-1,4.590911E-1,-7.8479975E-1,-2.645146E-1,1.9392082E-1,6.7671704E-1,-1.0392535E-2,-6.7950008E-3,-4.2299167E-3,-1.7209261E-3,1.1745468E-4,2.711098E-3,5.432217E-3,8.927609E-3],"categories":[],"categories_nodes":[],"categories_segments":[],"categories_sizes":[],"default_left":[0,0,0,0,0,0,0,0,0,0,0,0,0,0,0],"id":49,"left_children":[1,3,5,7,9,11,13,-1,-1,-1,-1,-1,-1,-1,-1],"loss_changes":[4.5982172E2,4.6103333E1,5.466603E1,9.33432E0,3.7206554E0,6.0522537E0,1.2999695E1,0E0,0E0,0E0,0E0,0E0,0E0,0E0,0E0],"parents":[2147483647,0,0,1,1,2,2,3,3,4,4,5,5,6,6],"right_children":[2,4,6,8,10,12,14,-1,-1,-1,-1,-1,-1,-1,-1],"split_conditions":[1.5473822E2,1.1533673E2,2.1529158E2,6.679321E1,1.3082303E2,1.7597455E2,2.6767502E2,-1.0392535E-2,-6.7950008E-3,-4.2299167E-3,-1.7209261E-3,1.1745468E-4,2.711098E-3,5.432217E-3,8.927609E-3],"split_indices":[2,2,2,2,2,2,2,0,0,0,0,0,0,0,0],"split_type":[0,0,0,0,0,0,0,0,0,0,0,0,0,0,0],"sum_hessian":[1.696E3,7.39E2,9.57E2,4.57E2,2.82E2,4.35E2,5.22E2,1.24E2,3.33E2,9.8E1,1.84E2,1.32E2,3.03E2,3.31E2,1.91E2],"tree_param":{"num_deleted":"0","num_feature":"5","num_nodes":"15","size_leaf_vector":"1"}},{"base_weights":[-1.47003E-2,-5.857946E-1,4.5914117E-1,-8.980286E-1,-3.3865482E-1,1.9951391E-1,7.1014756E-1,-9.757078E-3,-6.345024E-3,-4.7825165E-3,-1.8395485E-3,8.6482574E-4,3.5855602E-3,5.529178E-3,8.6285975E-3],"categories":[],"categories_nodes":[],"categories_segments":[],"categories_sizes":[],"default_left":[0,0,0,0,0,0,0,0,0,0,0,0,0,0,0],"id":50,"left_children":[1,3,5,7,9,11,13,-1,-1,-1,-1,-1,-1,-1,-1],"loss_changes":[4.5243018E2,5.705005E1,5.87184E1,4.1359253E0,8.738129E0,7.9039288E0,8.983322E0,0E0,0E0,0E0,0E0,0E0,0E0,0E0,0E0],"parents":[2147483647,0,0,1,1,2,2,3,3,4,4,5,5,6,6],"right_children":[2,4,6,8,10,12,14,-1,-1,-1,-1,-1,-1,-1,-1],"split_conditions":[1.6003741E2,9.8295975E1,2.2564786E2,8.4866165E1,1.3082303E2,2.0079028E2,2.6306198E2,-9.757078E-3,-6.345024E-3,-4.7825165E-3,-1.8395485E-3,8.6482574E-4,3.5855602E-3,5.529178E-3,8.6285975E-3],"split_indices":[2,2,2,2,2,2,2,0,0,0,0,0,0,0,0],"split_type":[0,0,0,0,0,0,0,0,0,0,0,0,0,0,0],"sum_hessian":[1.665E3,7.55E2,9.1E2,3.29E2,4.26E2,4.51E2,4.59E2,2.46E2,8.3E1,2.19E2,2.07E2,2.68E2,1.83E2,2.35E2,2.24E2],"tree_param":{"num_deleted":"0","num_feature":"5","num_nodes":"15","size_leaf_vector":"1"}},{"base_weights":[-5.135372E-4,-5.757907E-1,4.5403537E-1,-8.1979996E-1,-3.497726E-1,2.3274773E-1,6.9510204E-1,-1.0724232E-2,-7.040153E-3,-5.8433376E-3,-2.1506303E-3,-4.6035793E-6,3.1899873E-3,2.465767E-3,7.6663345E-3],"categories":[],"categories_nodes":[],"categories_segments":[],"categories_sizes":[],"default_left":[0,0,0,0,0,0,0,0,0,0,0,0,0,0,0],"id":51,"left_children":[1,3,5,7,9,11,13,-1,-1,-1,-1,-1,-1,-1,-1],"loss_changes":[4.343167E2,3.9058426E1,4.8591965E1,7.032654E0,1.1529182E1,9.958246E0,1.3159332E1,0E0,0E0,0E0,0E0,0E0,0E0,0E0,0E0],"parents":[2147483647,0,0,1,1,2,2,3,3,4,4,5,5,6,6],"right_children":[2,4,6,8,10,12,14,-1,-1,-1,-1,-1,-1,-1,-1],"split_conditions":[1.5473822E2,1.0067473E2,2.2639665E2,4.4768768E2,4.4768768E2,1.7597455E2,2.8411014E2,-1.0724232E-2,-7.040153E-3,-5.8433376E-3,-2.1506303E-3,-4.6035793E-6,3.1899873E-3,2.465767E-3,7.6663345E-3],"split_indices":[2,2,2,1,1,2,1,0,0,0,0,0,0,0,0],"split_type":[0,0,0,0,0,0,0,0,0,0,0,0,0,0,0],"sum_hessian":[1.654E3,7.3E2,9.24E2,3.46E2,3.84E2,4.86E2,4.38E2,9.9E1,2.47E2,1.35E2,2.49E2,1.31E2,3.55E2,6.3E1,3.75E2],"tree_param":{"num_deleted":"0","num_feature":"5","num_nodes":"15","size_leaf_vector":"1"}},{"base_weights":[4.3319045E-3,-5.1389617E-1,5.003116E-1,-8.388754E-1,-2.655866E-1,3.2958183E-1,7.964257E-1,-1.0622999E-2,-7.3036193E-3,-5.3397696E-3,-1.7414616E-3,1.4938605E-3,4.3202355E-3,1.4245033E-3,8.669967E-3],"categories":[],"categories_nodes":[],"categories_segments":[],"categories_sizes":[],"default_left":[0,0,0,0,0,0,0,0,0,0,0,0,0,0,0],"id":52,"left_children":[1,3,5,7,9,11,13,-1,-1,-1,-1,-1,-1,-1,-1],"loss_changes":[4.255749E2,6.416464E1,4.149884E1,5.1833954E0,1.082869E1,9.604084E0,1.3360809E1,0E0,0E0,0E0,0E0,0E0,0E0,0E0,0E0],"parents":[2147483647,0,0,1,1,2,2,3,3,4,4,5,5,6,6],"right_children":[2,4,6,8,10,12,14,-1,-1,-1,-1,-1,-1,-1,-1],"split_conditions":[1.6872975E2,1.0067473E2,2.5066922E2,4.3431604E2,3.495318E2,5.252137E2,2.1542764E2,-1.0622999E-2,-7.3036193E-3,-5.3397696E-3,-1.7414616E-3,1.4938605E-3,4.3202355E-3,1.4245033E-3,8.669967E-3],"split_indices":[2,2,2,1,1,1,1,0,0,0,0,0,0,0,0],"split_type":[0,0,0,0,0,0,0,0,0,0,0,0,0,0,0],"sum_hessian":[1.649E3,8.06E2,8.43E2,3.45E2,4.61E2,5.4E2,3.03E2,1.02E2,2.43E2,1.12E2,3.49E2,2E2,3.4E2,3.1E1,2.72E2],"tree_param":{"num_deleted":"0","num_feature":"5","num_nodes":"15","size_leaf_vector":"1"}},{"base_weights":[-6.9306446E-3,-5.011108E-1,4.7696406E-1,-6.665197E-1,-1.4571814E-1,2.7220556E-1,6.991323E-1,-8.555354E-3,-5.0129653E-3,7.398326E-4,-1.811224E-3,1.2829868E-3,3.9343517E-3,6.2150955E-3,9.313448E-3],"categories":[],"categories_nodes":[],"categories_segments":[],"categories_sizes":[],"default_left":[0,0,0,0,0,0,0,0,0,0,0,0,0,0,0],"id":53,"left_children":[1,3,5,7,9,11,13,-1,-1,-1,-1,-1,-1,-1,-1],"loss_changes":[4.02168E2,4.831218E1,3.764792E1,1.5753006E1,2.1789804E0,7.4647484E0,4.7773743E0,0E0,0E0,0E0,0E0,0E0,0E0,0E0,0E0],"parents":[2147483647,0,0,1,1,2,2,3,3,4,4,5,5,6,6],"right_children":[2,4,6,8,10,12,14,-1,-1,-1,-1,-1,-1,-1,-1],"split_conditions":[1.7176108E2,1.3082303E2,2.32647E2,8.4866165E1,6.1E1,2.0079028E2,4.020376E1,-8.555354E-3,-5.0129653E-3,7.398326E-4,-1.811224E-3,1.2829868E-3,3.9343517E-3,6.2150955E-3,9.313448E-3],"split_indices":[2,2,2,2,4,2,0,0,0,0,0,0,0,0,0],"split_type":[0,0,0,0,0,0,0,0,0,0,0,0,0,0,0],"sum_hessian":[1.675E3,8.29E2,8.46E2,5.63E2,2.66E2,4.45E2,4.01E2,2.55E2,3.08E2,3.5E1,2.31E2,2.08E2,2.37E2,3.11E2,9E1],"tree_param":{"num_deleted":"0","num_feature":"5","num_nodes":"15","size_leaf_vector":"1"}},{"base_weights":[-1.8378314E-2,-6.198484E-1,4.2165962E-1,-8.2447326E-1,-4.0530592E-1,1.2877493E-1,6.75625E-1,-1.0015577E-2,-6.9342637E-3,-6.1308932E-3,-2.1791828E-3,-2.938245E-4,2.1835053E-3,4.412728E-3,8.322679E-3],"categories":[],"categories_nodes":[],"categories_segments":[],"categories_sizes":[],"default_left":[0,0,0,0,0,0,0,0,0,0,0,0,0,0,0],"id":54,"left_children":[1,3,5,7,9,11,13,-1,-1,-1,-1,-1,-1,-1,-1],"loss_changes":[4.398757E2,2.9265442E1,7.077872E1,5.293915E0,1.289315E1,6.469932E0,1.711229E1,0E0,0E0,0E0,0E0,0E0,0E0,0E0,0E0],"parents":[2147483647,0,0,1,1,2,2,3,3,4,4,5,5,6,6],"right_children":[2,4,6,8,10,12,14,-1,-1,-1,-1,-1,-1,-1,-1],"split_conditions":[1.4803336E2,1.0067473E2,2.1529158E2,5.556687E2,6.146156E2,1.7468532E2,5.7789056E2,-1.0015577E-2,-6.9342637E-3,-6.1308932E-3,-2.1791828E-3,-2.938245E-4,2.1835053E-3,4.412728E-3,8.322679E-3],"split_indices":[2,2,2,1,1,2,1,0,0,0,0,0,0,0,0],"split_type":[0,0,0,0,0,0,0,0,0,0,0,0,0,0,0],"sum_hessian":[1.655E3,6.99E2,9.56E2,3.52E2,3.47E2,4.47E2,5.09E2,1.39E2,2.13E2,1.6E2,1.87E2,1.61E2,2.86E2,2.1E2,2.99E2],"tree_param":{"num_deleted":"0","num_feature":"5","num_nodes":"15","size_leaf_vector":"1"}},{"base_weights":[-1.0474501E-3,-2.99585E-1,8.237306E-2,-3.694451E-1,-2.9639855E-2,-2.9524654E-1,1.0138615E-1,-4.401082E-3,-7.0331554E-4,-1.3976337E-3,2.4609955E-3,-5.0231917E-3,6.543712E-4,4.970483E-4,1.970975E-3],"categories":[],"categories_nodes":[],"categories_segments":[],"categories_sizes":[],"default_left":[0,0,0,0,0,0,0,0,0,0,0,0,0,0,0],"id":55,"left_children":[1,3,5,7,9,11,13,-1,-1,-1,-1,-1,-1,-1,-1],"loss_changes":[4.02663E1,6.484045E0,9.080726E0,5.617447E0,2.4276087E0,4.777067E0,5.8309145E0,0E0,0E0,0E0,0E0,0E0,0E0,0E0,0E0],"parents":[2147483647,0,0,1,1,2,2,3,3,4,4,5,5,6,6],"right_children":[2,4,6,8,10,12,14,-1,-1,-1,-1,-1,-1,-1,-1],"split_conditions":[3.495318E2,3.6E2,1.1782802E1,4.16876E1,2.8823465E2,9.2293286E2,3.689052E1,-4.401082E-3,-7.0331554E-4,-1.3976337E-3,2.4609955E-3,-5.0231917E-3,6.543712E-4,4.970483E-4,1.970975E-3],"split_indices":[1,4,0,0,1,1,0,0,0,0,0,0,0,0,0],"split_type":[0,0,0,0,0,0,0,0,0,0,0,0,0,0,0],"sum_hessian":[1.607E3,3.5E2,1.257E3,2.76E2,7.4E1,5.7E1,1.2E3,2.21E2,5.5E1,5.5E1,1.9E1,3.6E1,2.1E1,7.85E2,4.15E2],"tree_param":{"num_deleted":"0","num_feature":"5","num_nodes":"15","size_leaf_vector":"1"}},{"base_weights":[-7.1472763E-3,-5.3805816E-1,4.4174665E-1,-8.133424E-1,-3.14609E-1,1.5987164E-1,6.324262E-1,-9.935172E-3,-6.7945817E-3,-4.59339E-3,-1.5617984E-3,-9.496503E-4,2.118256E-3,4.8890477E-3,8.609107E-3],"categories":[],"categories_nodes":[],"categories_segments":[],"categories_sizes":[],"default_left":[0,0,0,0,0,0,0,0,0,0,0,0,0,0,0],"id":56,"left_children":[1,3,5,7,9,11,13,-1,-1,-1,-1,-1,-1,-1,-1],"loss_changes":[3.9487442E2,4.544226E1,4.760652E1,5.258896E0,9.290707E0,4.9738207E0,1.5585342E1,0E0,0E0,0E0,0E0,0E0,0E0,0E0,0E0],"parents":[2147483647,0,0,1,1,2,2,3,3,4,4,5,5,6,6],"right_children":[2,4,6,8,10,12,14,-1,-1,-1,-1,-1,-1,-1,-1],"split_conditions":[1.6003741E2,1.0067473E2,2.1529158E2,5.556687E2,1.3082303E2,2.9370612E2,2.6767502E2,-9.935172E-3,-6.7945817E-3,-4.59339E-3,-1.5617984E-3,-9.496503E-4,2.118256E-3,4.8890477E-3,8.609107E-3],"split_indices":[2,2,2,1,2,1,2,0,0,0,0,0,0,0,0],"split_type":[0,0,0,0,0,0,0,0,0,0,0,0,0,0,0],"sum_hessian":[1.65E3,7.56E2,8.94E2,3.34E2,4.22E2,3.64E2,5.3E2,1.32E2,2.02E2,2.16E2,2.06E2,6E1,3.04E2,3.33E2,1.97E2],"tree_param":{"num_deleted":"0","num_feature":"5","num_nodes":"15","size_leaf_vector":"1"}},{"base_weights":[-2.043295E-2,-5.198689E-1,4.3836316E-1,-7.4292123E-1,-2.0244093E-1,2.0924278E-1,6.442749E-1,-8.937377E-3,-5.933264E-3,-4.0546814E-3,-1.1464885E-3,1.4179401E-3,3.4158372E-3,5.052716E-3,7.876262E-3],"categories":[],"categories_nodes":[],"categories_segments":[],"categories_sizes":[],"default_left":[0,0,0,0,0,0,0,0,0,0,0,0,0,0,0],"id":57,"left_children":[1,3,5,7,9,11,13,-1,-1,-1,-1,-1,-1,-1,-1],"loss_changes":[3.8148553E2,5.5609863E1,4.0160324E1,8.198151E0,5.616521E0,3.379797E0,7.246567E0,0E0,0E0,0E0,0E0,0E0,0E0,0E0,0E0],"parents":[2147483647,0,0,1,1,2,2,3,3,4,4,5,5,6,6],"right_children":[2,4,6,8,10,12,14,-1,-1,-1,-1,-1,-1,-1,-1],"split_conditions":[1.633894E2,1.1533673E2,2.2564786E2,7.902673E1,1.3082303E2,2.054454E2,2.652798E2,-8.937377E-3,-5.933264E-3,-4.0546814E-3,-1.1464885E-3,1.4179401E-3,3.4158372E-3,5.052716E-3,7.876262E-3],"split_indices":[2,2,2,2,2,2,2,0,0,0,0,0,0,0,0],"split_type":[0,0,0,0,0,0,0,0,0,0,0,0,0,0,0],"sum_hessian":[1.658E3,7.94E2,8.64E2,4.63E2,3.31E2,4.13E2,4.51E2,2.21E2,2.42E2,9.5E1,2.36E2,2.8E2,1.33E2,2.38E2,2.13E2],"tree_param":{"num_deleted":"0","num_feature":"5","num_nodes":"15","size_leaf_vector":"1"}},{"base_weights":[9.314706E-4,-5.5914307E-1,4.335174E-1,-7.6428217E-1,-3.208051E-1,1.8427695E-1,6.7664677E-1,-1.0248905E-2,-6.3796756E-3,-6.0712635E-3,-1.983079E-3,-1.3127731E-4,2.5568507E-3,4.531559E-3,8.220814E-3],"categories":[],"categories_nodes":[],"categories_segments":[],"categories_sizes":[],"default_left":[0,0,0,0,0,0,0,0,0,0,0,0,0,0,0],"id":58,"left_children":[1,3,5,7,9,11,13,-1,-1,-1,-1,-1,-1,-1,-1],"loss_changes":[3.928745E2,3.3319443E1,5.473996E1,9.585541E0,1.0997341E1,6.5456247E0,1.3280975E1,0E0,0E0,0E0,0E0,0E0,0E0,0E0,0E0],"parents":[2147483647,0,0,1,1,2,2,3,3,4,4,5,5,6,6],"right_children":[2,4,6,8,10,12,14,-1,-1,-1,-1,-1,-1,-1,-1],"split_conditions":[1.5473822E2,1.0771339E2,2.2435637E2,6.545476E1,4.1003604E2,1.7597455E2,5.836277E2,-1.0248905E-2,-6.3796756E-3,-6.0712635E-3,-1.983079E-3,-1.3127731E-4,2.5568507E-3,4.531559E-3,8.220814E-3],"split_indices":[2,2,2,2,1,2,1,0,0,0,0,0,0,0,0],"split_type":[0,0,0,0,0,0,0,0,0,0,0,0,0,0,0],"sum_hessian":[1.615E3,7.03E2,9.12E2,3.73E2,3.3E2,4.54E2,4.58E2,1.13E2,2.6E2,9.4E1,2.36E2,1.2E2,3.34E2,1.87E2,2.71E2],"tree_param":{"num_deleted":"0","num_feature":"5","num_nodes":"15","size_leaf_vector":"1"}},{"base_weights":[3.5238299E-3,-4.7881866E-1,4.833734E-1,-6.684494E-1,-9.4040185E-2,2.684492E-1,6.8110716E-1,-9.167633E-3,-5.1455325E-3,-2.4950898E-3,5.568098E-4,-3.000375E-4,3.4370534E-3,4.3674214E-3,8.332574E-3],"categories":[],"categories_nodes":[],"categories_segments":[],"categories_sizes":[],"default_left":[0,0,0,0,0,0,0,0,0,0,0,0,0,0,0],"id":59,"left_children":[1,3,5,7,9,11,13,-1,-1,-1,-1,-1,-1,-1,-1],"loss_changes":[3.8230313E2,5.9592697E1,3.4246246E1,1.8926208E1,6.549633E0,9.207323E0,1.4242828E1,0E0,0E0,0E0,0E0,0E0,0E0,0E0,0E0],"parents":[2147483647,0,0,1,1,2,2,3,3,4,4,5,5,6,6],"right_children":[2,4,6,8,10,12,14,-1,-1,-1,-1,-1,-1,-1,-1],"split_conditions":[1.7176108E2,1.3024536E2,2.3072502E2,7.902673E1,6.355124E2,3.344351E2,5.7789056E2,-9.167633E-3,-5.1455325E-3,-2.4950898E-3,5.568098E-4,-3.000375E-4,3.4370534E-3,4.3674214E-3,8.332574E-3],"split_indices":[2,2,2,2,1,1,1,0,0,0,0,0,0,0,0],"split_type":[0,0,0,0,0,0,0,0,0,0,0,0,0,0,0],"sum_hessian":[1.645E3,8.2E2,8.25E2,5.47E2,2.73E2,4E2,4.25E2,2.02E2,3.45E2,1.34E2,1.39E2,8E1,3.2E2,1.69E2,2.56E2],"tree_param":{"num_deleted":"0","num_feature":"5","num_nodes":"15","size_leaf_vector":"1"}},{"base_weights":[3.56787E-3,-5.384117E-1,4.2123556E-1,-7.362328E-1,-2.2300695E-1,1.7529726E-1,6.153223E-1,-1.024038E-2,-6.3543436E-3,-5.9447777E-3,-7.71844E-4,-6.0842893E-5,2.852549E-3,4.138719E-3,7.537532E-3],"categories":[],"categories_nodes":[],"categories_segments":[],"categories_sizes":[],"default_left":[0,0,0,0,0,0,0,0,0,0,0,0,0,0,0],"id":60,"left_children":[1,3,5,7,9,11,13,-1,-1,-1,-1,-1,-1,-1,-1],"loss_changes":[3.8314365E2,4.504692E1,4.5003357E1,1.0273102E1,1.5279429E1,8.629691E0,1.3374237E1,0E0,0E0,0E0,0E0,0E0,0E0,0E0,0E0],"parents":[2147483647,0,0,1,1,2,2,3,3,4,4,5,5,6,6],"right_children":[2,4,6,8,10,12,14,-1,-1,-1,-1,-1,-1,-1,-1],"split_conditions":[1.5473822E2,1.1533673E2,2.1529158E2,6.488402E1,4.207439E2,5.252137E2,5.7789056E2,-1.024038E-2,-6.3543436E-3,-5.9447777E-3,-7.71844E-4,-6.0842893E-5,2.852549E-3,4.138719E-3,7.537532E-3],"split_indices":[2,2,2,2,1,1,1,0,0,0,0,0,0,0,0],"split_type":[0,0,0,0,0,0,0,0,0,0,0,0,0,0,0],"sum_hessian":[1.686E3,7.33E2,9.53E2,4.47E2,2.86E2,4.24E2,5.29E2,1.07E2,3.4E2,7.7E1,2.09E2,1.6E2,2.64E2,2.22E2,3.07E2],"tree_param":{"num_deleted":"0","num_feature":"5","num_nodes":"15","size_leaf_vector":"1"}},{"base_weights":[-1.5503452E-2,-5.402183E-1,3.9163274E-1,-6.9719464E-1,-2.4614748E-1,8.814568E-2,5.705989E-1,-9.320668E-3,-6.157479E-3,-5.885049E-3,-1.0236854E-3,-2.733839E-3,1.6326813E-3,5.7507417E-4,6.136516E-3],"categories":[],"categories_nodes":[],"categories_segments":[],"categories_sizes":[],"default_left":[0,0,0,0,0,0,0,0,0,0,0,0,0,0,0],"id":61,"left_children":[1,3,5,7,9,11,13,-1,-1,-1,-1,-1,-1,-1,-1],"loss_changes":[3.5162943E2,3.2290207E1,4.990912E1,6.4285126E0,1.2168684E1,9.572816E0,1.2482803E1,0E0,0E0,0E0,0E0,0E0,0E0,0E0,0E0],"parents":[2147483647,0,0,1,1,2,2,3,3,4,4,5,5,6,6],"right_children":[2,4,6,8,10,12,14,-1,-1,-1,-1,-1,-1,-1,-1],"split_conditions":[1.5473822E2,1.1533673E2,2.0589136E2,6.488402E1,3.9226483E2,2.616318E2,1.8744092E2,-9.320668E-3,-6.157479E-3,-5.885049E-3,-1.0236854E-3,-2.733839E-3,1.6326813E-3,5.7507417E-4,6.136516E-3],"split_indices":[2,2,2,2,1,1,1,0,0,0,0,0,0,0,0],"split_type":[0,0,0,0,0,0,0,0,0,0,0,0,0,0,0],"sum_hessian":[1.639E3,7.16E2,9.23E2,4.63E2,2.53E2,3.45E2,5.78E2,1.09E2,3.54E2,7.1E1,1.82E2,5.7E1,2.88E2,4.6E1,5.32E2],"tree_param":{"num_deleted":"0","num_feature":"5","num_nodes":"15","size_leaf_vector":"1"}},{"base_weights":[5.2572773E-3,-4.493827E-1,4.7343162E-1,-6.887849E-1,-1.6931653E-1,2.4124193E-1,6.1065364E-1,-9.193935E-3,-5.970393E-3,-4.8063057E-3,-7.2347774E-4,1.6518999E-3,3.950099E-3,8.47092E-4,6.728239E-3],"categories":[],"categories_nodes":[],"categories_segments":[],"categories_sizes":[],"default_left":[0,0,0,0,0,0,0,0,0,0,0,0,0,0,0],"id":62,"left_children":[1,3,5,7,9,11,13,-1,-1,-1,-1,-1,-1,-1,-1],"loss_changes":[3.590352E2,5.6650192E1,2.5686035E1,7.3217926E0,1.1740586E1,3.2669125E0,1.651854E1,0E0,0E0,0E0,0E0,0E0,0E0,0E0,0E0],"parents":[2147483647,0,0,1,1,2,2,3,3,4,4,5,5,6,6],"right_children":[2,4,6,8,10,12,14,-1,-1,-1,-1,-1,-1,-1,-1],"split_conditions":[1.7468532E2,1.1533673E2,2.1529158E2,4.261739E2,3.409735E2,8.823646E2,2.1542764E2,-9.193935E-3,-5.970393E-3,-4.8063057E-3,-7.2347774E-4,1.6518999E-3,3.950099E-3,8.47092E-4,6.728239E-3],"split_indices":[2,2,2,1,1,1,1,0,0,0,0,0,0,0,0],"split_type":[0,0,0,0,0,0,0,0,0,0,0,0,0,0,0],"sum_hessian":[1.68E3,8.52E2,8.28E2,4.56E2,3.96E2,3.12E2,5.16E2,1.2E2,3.36E2,9E1,3.06E2,2.15E2,9.7E1,5.6E1,4.6E2],"tree_param":{"num_deleted":"0","num_feature":"5","num_nodes":"15","size_leaf_vector":"1"}},{"base_weights":[1.4761669E-2,-5.05559E-1,4.077905E-1,-8.358511E-1,-3.418543E-1,1.7691539E-1,6.502679E-1,-1.0000932E-2,-6.9438056E-3,-5.64329E-3,-2.486513E-3,6.255463E-4,3.1338641E-3,2.9075565E-3,7.225559E-3],"categories":[],"categories_nodes":[],"categories_segments":[],"categories_sizes":[],"default_left":[0,0,0,0,0,0,0,0,0,0,0,0,0,0,0],"id":63,"left_children":[1,3,5,7,9,11,13,-1,-1,-1,-1,-1,-1,-1,-1],"loss_changes":[3.3059842E2,3.6212082E1,5.089543E1,2.3305206E0,9.008785E0,7.2493925E0,1.0553833E1,0E0,0E0,0E0,0E0,0E0,0E0,0E0,0E0],"parents":[2147483647,0,0,1,1,2,2,3,3,4,4,5,5,6,6],"right_children":[2,4,6,8,10,12,14,-1,-1,-1,-1,-1,-1,-1,-1],"split_conditions":[1.5473822E2,8.125638E1,2.2564786E2,5.556687E2,4.207439E2,1.9535153E2,3.2326636E2,-1.0000932E-2,-6.9438056E-3,-5.64329E-3,-2.486513E-3,6.255463E-4,3.1338641E-3,2.9075565E-3,7.225559E-3],"split_indices":[2,2,2,1,1,2,1,0,0,0,0,0,0,0,0],"split_type":[0,0,0,0,0,0,0,0,0,0,0,0,0,0,0],"sum_hessian":[1.61E3,6.92E2,9.18E2,2.24E2,4.68E2,4.74E2,4.44E2,9.3E1,1.31E2,1.32E2,3.36E2,2.62E2,2.12E2,7.8E1,3.66E2],"tree_param":{"num_deleted":"0","num_feature":"5","num_nodes":"15","size_leaf_vector":"1"}},{"base_weights":[-1.1540137E-2,-5.1398295E-1,4.1960925E-1,-7.126898E-1,-2.2081956E-1,2.7193883E-1,6.980942E-1,-9.720554E-3,-6.0649714E-3,-5.0898814E-3,-9.18145E-4,-1.641359E-4,3.3650019E-3,1.9810106E-4,7.6059005E-3],"categories":[],"categories_nodes":[],"categories_segments":[],"categories_sizes":[],"default_left":[0,0,0,0,0,0,0,0,0,0,0,0,0,0,0],"id":64,"left_children":[1,3,5,7,9,11,13,-1,-1,-1,-1,-1,-1,-1,-1],"loss_changes":[3.537307E2,4.307898E1,3.5133453E1,9.765076E0,1.1165092E1,1.0937965E1,1.2444672E1,0E0,0E0,0E0,0E0,0E0,0E0,0E0,0E0],"parents":[2147483647,0,0,1,1,2,2,3,3,4,4,5,5,6,6],"right_children":[2,4,6,8,10,12,14,-1,-1,-1,-1,-1,-1,-1,-1],"split_conditions":[1.6003741E2,1.1533673E2,2.5066922E2,4.3431604E2,4.0641898E2,3.1427316E2,1.8744092E2,-9.720554E-3,-6.0649714E-3,-5.0898814E-3,-9.18145E-4,-1.641359E-4,3.3650019E-3,1.9810106E-4,7.6059005E-3],"split_indices":[2,2,2,1,1,1,1,0,0,0,0,0,0,0,0],"split_type":[0,0,0,0,0,0,0,0,0,0,0,0,0,0,0],"sum_hessian":[1.626E3,7.51E2,8.75E2,4.44E2,3.07E2,5.77E2,2.98E2,1.2E2,3.24E2,9.1E1,2.16E2,1.05E2,4.72E2,2.6E1,2.72E2],"tree_param":{"num_deleted":"0","num_feature":"5","num_nodes":"15","size_leaf_vector":"1"}},{"base_weights":[-2.2296668E-3,-4.722624E-1,4.685082E-1,-6.564863E-1,-9.509313E-2,3.369364E-1,8.2666963E-1,-8.671415E-3,-4.947382E-3,-4.152183E-3,-2.4449918E-4,2.7093058E-4,4.0546106E-3,3.1125625E-3,8.821991E-3],"categories":[],"categories_nodes":[],"categories_segments":[],"categories_sizes":[],"default_left":[0,0,0,0,0,0,0,0,0,0,0,0,0,0,0],"id":65,"left_children":[1,3,5,7,9,11,13,-1,-1,-1,-1,-1,-1,-1,-1],"loss_changes":[3.701186E2,5.7703674E1,3.8008423E1,1.719075E1,6.126088E0,1.2915901E1,4.9807434E0,0E0,0E0,0E0,0E0,0E0,0E0,0E0,0E0],"parents":[2147483647,0,0,1,1,2,2,3,3,4,4,5,5,6,6],"right_children":[2,4,6,8,10,12,14,-1,-1,-1,-1,-1,-1,-1,-1],"split_conditions":[1.7108157E2,1.3024536E2,2.652798E2,8.125638E1,2.616318E2,3.344351E2,2.1542764E2,-8.671415E-3,-4.947382E-3,-4.152183E-3,-2.4449918E-4,2.7093058E-4,4.0546106E-3,3.1125625E-3,8.821991E-3],"split_indices":[2,2,2,2,1,1,1,0,0,0,0,0,0,0,0],"split_type":[0,0,0,0,0,0,0,0,0,0,0,0,0,0,0],"sum_hessian":[1.666E3,8.34E2,8.32E2,5.58E2,2.76E2,6.14E2,2.18E2,2.35E2,3.23E2,4.6E1,2.3E2,1.13E2,5.01E2,2.4E1,1.94E2],"tree_param":{"num_deleted":"0","num_feature":"5","num_nodes":"15","size_leaf_vector":"1"}},{"base_weights":[-5.321567E-4,-4.3903506E-1,4.4443724E-1,-7.1244544E-1,-2.3294522E-1,3.34718E-1,8.184041E-1,-9.886747E-3,-5.849766E-3,-3.5568438E-3,8.9045614E-5,1.3531178E-3,4.9213343E-3,3.0367032E-3,8.8680275E-3],"categories":[],"categories_nodes":[],"categories_segments":[],"categories_sizes":[],"default_left":[0,0,0,0,0,0,0,0,0,0,0,0,0,0,0],"id":66,"left_children":[1,3,5,7,9,11,13,-1,-1,-1,-1,-1,-1,-1,-1],"loss_changes":[3.2502066E2,4.6397034E1,3.2568832E1,1.0101364E1,1.4513496E1,1.9808273E1,5.155121E0,0E0,0E0,0E0,0E0,0E0,0E0,0E0,0E0],"parents":[2147483647,0,0,1,1,2,2,3,3,4,4,5,5,6,6],"right_children":[2,4,6,8,10,12,14,-1,-1,-1,-1,-1,-1,-1,-1],"split_conditions":[1.6872975E2,1.0067473E2,2.7104105E2,4.3431604E2,8.274848E2,5.836277E2,2.1542764E2,-9.886747E-3,-5.849766E-3,-3.5568438E-3,8.9045614E-5,1.3531178E-3,4.9213343E-3,3.0367032E-3,8.8680275E-3],"split_indices":[2,2,2,1,1,1,1,0,0,0,0,0,0,0,0],"split_type":[0,0,0,0,0,0,0,0,0,0,0,0,0,0,0],"sum_hessian":[1.659E3,8.36E2,8.23E2,3.55E2,4.81E2,6.42E2,1.81E2,1.04E2,2.51E2,3.19E2,1.62E2,2.87E2,3.55E2,2.4E1,1.57E2],"tree_param":{"num_deleted":"0","num_feature":"5","num_nodes":"15","size_leaf_vector":"1"}},{"base_weights":[1.09310975E-4,-5.1139325E-1,3.88825E-1,-7.7620965E-1,-2.5856197E-1,1.4120297E-1,5.6668335E-1,-8.800919E-3,-5.948583E-3,-5.8202394E-3,-1.6683029E-3,-1.0709267E-3,2.1615566E-3,3.3703714E-3,7.0477617E-3],"categories":[],"categories_nodes":[],"categories_segments":[],"categories_sizes":[],"default_left":[0,0,0,0,0,0,0,0,0,0,0,0,0,0,0],"id":67,"left_children":[1,3,5,7,9,11,13,-1,-1,-1,-1,-1,-1,-1,-1],"loss_changes":[3.3553067E2,4.7718857E1,4.1728516E1,4.36055E0,1.063068E1,7.680129E0,1.64684E1,0E0,0E0,0E0,0E0,0E0,0E0,0E0,0E0],"parents":[2147483647,0,0,1,1,2,2,3,3,4,4,5,5,6,6],"right_children":[2,4,6,8,10,12,14,-1,-1,-1,-1,-1,-1,-1,-1],"split_conditions":[1.5473822E2,9.913585E1,2.1164792E2,7.902673E1,3.409735E2,3.495318E2,5.7789056E2,-8.800919E-3,-5.948583E-3,-5.8202394E-3,-1.6683029E-3,-1.0709267E-3,2.1615566E-3,3.3703714E-3,7.0477617E-3],"split_indices":[2,2,2,2,1,1,1,0,0,0,0,0,0,0,0],"split_type":[0,0,0,0,0,0,0,0,0,0,0,0,0,0,0],"sum_hessian":[1.681E3,7.25E2,9.56E2,3.5E2,3.75E2,4.03E2,5.53E2,2.13E2,1.37E2,7.8E1,2.97E2,9.2E1,3.11E2,2.13E2,3.4E2],"tree_param":{"num_deleted":"0","num_feature":"5","num_nodes":"15","size_leaf_vector":"1"}},{"base_weights":[2.6277273E-3,-4.7080266E-1,4.0331733E-1,-6.228125E-1,-1.1308517E-1,2.6690984E-1,6.650422E-1,-8.3726E-3,-4.7945455E-3,-2.8666353E-3,3.1157254E-4,1.1705976E-3,3.574408E-3,4.179001E-3,8.203148E-3],"categories":[],"categories_nodes":[],"categories_segments":[],"categories_sizes":[],"default_left":[0,0,0,0,0,0,0,0,0,0,0,0,0,0,0],"id":68,"left_children":[1,3,5,7,9,11,13,-1,-1,-1,-1,-1,-1,-1,-1],"loss_changes":[3.172956E2,4.117125E1,3.142517E1,1.4661987E1,5.964919E0,7.8604546E0,1.0193771E1,0E0,0E0,0E0,0E0,0E0,0E0,0E0,0E0],"parents":[2147483647,0,0,1,1,2,2,3,3,4,4,5,5,6,6],"right_children":[2,4,6,8,10,12,14,-1,-1,-1,-1,-1,-1,-1,-1],"split_conditions":[1.6249374E2,1.3024536E2,2.5066922E2,7.902673E1,5.7789056E2,1.99176E2,5.7789056E2,-8.3726E-3,-4.7945455E-3,-2.8666353E-3,3.1157254E-4,1.1705976E-3,3.574408E-3,4.179001E-3,8.203148E-3],"split_indices":[2,2,2,2,1,2,1,0,0,0,0,0,0,0,0],"split_type":[0,0,0,0,0,0,0,0,0,0,0,0,0,0,0],"sum_hessian":[1.666E3,7.63E2,9.03E2,5.33E2,2.3E2,5.99E2,3.04E2,2.06E2,3.27E2,1.04E2,1.26E2,2.3E2,3.69E2,1.23E2,1.81E2],"tree_param":{"num_deleted":"0","num_feature":"5","num_nodes":"15","size_leaf_vector":"1"}},{"base_weights":[-8.62288E-3,-4.9865115E-1,4.2997056E-1,-7.2336555E-1,-2.727523E-1,2.7626234E-1,7.046244E-1,-8.535186E-3,-5.626546E-3,-5.210442E-3,-1.8522913E-3,1.1038497E-3,3.9339745E-3,-0E0,7.6801293E-3],"categories":[],"categories_nodes":[],"categories_segments":[],"categories_sizes":[],"default_left":[0,0,0,0,0,0,0,0,0,0,0,0,0,0,0],"id":69,"left_children":[1,3,5,7,9,11,13,-1,-1,-1,-1,-1,-1,-1,-1],"loss_changes":[3.558828E2,3.869214E1,3.5861893E1,6.0150757E0,8.034626E0,1.0677456E1,1.3637238E1,0E0,0E0,0E0,0E0,0E0,0E0,0E0,0E0],"parents":[2147483647,0,0,1,1,2,2,3,3,4,4,5,5,6,6],"right_children":[2,4,6,8,10,12,14,-1,-1,-1,-1,-1,-1,-1,-1],"split_conditions":[1.633894E2,1.0771339E2,2.5066922E2,7.902673E1,3.409735E2,5.704695E2,1.8744092E2,-8.535186E-3,-5.626546E-3,-5.210442E-3,-1.8522913E-3,1.1038497E-3,3.9339745E-3,-0E0,7.6801293E-3],"split_indices":[2,2,2,2,1,1,1,0,0,0,0,0,0,0,0],"split_type":[0,0,0,0,0,0,0,0,0,0,0,0,0,0,0],"sum_hessian":[1.649E3,7.79E2,8.7E2,3.86E2,3.93E2,5.63E2,3.07E2,2.04E2,1.82E2,9.7E1,2.96E2,2.37E2,3.26E2,2.6E1,2.81E2],"tree_param":{"num_deleted":"0","num_feature":"5","num_nodes":"15","size_leaf_vector":"1"}},{"base_weights":[-1.9767268E-2,-4.965914E-1,3.568306E-1,-7.509442E-1,-3.542549E-1,1.4604731E-1,5.6787753E-1,-1.0048363E-2,-6.3654897E-3,-6.139777E-3,-2.50208E-3,2.201193E-4,2.8292781E-3,3.3646878E-3,7.1523557E-3],"categories":[],"categories_nodes":[],"categories_segments":[],"categories_sizes":[],"default_left":[0,0,0,0,0,0,0,0,0,0,0,0,0,0,0],"id":70,"left_children":[1,3,5,7,9,11,13,-1,-1,-1,-1,-1,-1,-1,-1],"loss_changes":[3.0077927E2,2.5473526E1,4.107435E1,4.8428955E0,1.2179783E1,7.906638E0,1.4679535E1,0E0,0E0,0E0,0E0,0E0,0E0,0E0,0E0],"parents":[2147483647,0,0,1,1,2,2,3,3,4,4,5,5,6,6],"right_children":[2,4,6,8,10,12,14,-1,-1,-1,-1,-1,-1,-1,-1],"split_conditions":[1.5473822E2,8.4866165E1,2.2361906E2,4.226241E2,4.1695978E2,6.6643256E2,5.7789056E2,-1.0048363E-2,-6.3654897E-3,-6.139777E-3,-2.50208E-3,2.201193E-4,2.8292781E-3,3.3646878E-3,7.1523557E-3],"split_indices":[2,2,2,1,1,1,1,0,0,0,0,0,0,0,0],"split_type":[0,0,0,0,0,0,0,0,0,0,0,0,0,0,0],"sum_hessian":[1.668E3,7.36E2,9.32E2,2.58E2,4.78E2,4.7E2,4.62E2,7.1E1,1.87E2,1.31E2,3.47E2,2.5E2,2.2E2,1.85E2,2.77E2],"tree_param":{"num_deleted":"0","num_feature":"5","num_nodes":"15","size_leaf_vector":"1"}},{"base_weights":[-3.7578943E-3,-5.116656E-1,3.6523658E-1,-7.718385E-1,-3.5626596E-1,1.5694344E-1,6.043394E-1,-1.0387535E-2,-6.5121637E-3,-5.909343E-3,-2.036175E-3,-1.1674337E-3,2.0651189E-3,3.7499084E-3,7.4700145E-3],"categories":[],"categories_nodes":[],"categories_segments":[],"categories_sizes":[],"default_left":[0,0,0,0,0,0,0,0,0,0,0,0,0,0,0],"id":71,"left_children":[1,3,5,7,9,11,13,-1,-1,-1,-1,-1,-1,-1,-1],"loss_changes":[3.1804807E2,2.7549713E1,4.833252E1,5.589325E0,1.5585354E1,7.308818E0,1.3551376E1,0E0,0E0,0E0,0E0,0E0,0E0,0E0,0E0],"parents":[2147483647,0,0,1,1,2,2,3,3,4,4,5,5,6,6],"right_children":[2,4,6,8,10,12,14,-1,-1,-1,-1,-1,-1,-1,-1],"split_conditions":[1.5117319E2,8.4866165E1,2.2639665E2,4.3431604E2,5.303238E2,2.5717673E2,5.7789056E2,-1.0387535E-2,-6.5121637E-3,-5.909343E-3,-2.036175E-3,-1.1674337E-3,2.0651189E-3,3.7499084E-3,7.4700145E-3],"split_indices":[2,2,2,1,1,1,1,0,0,0,0,0,0,0,0],"split_type":[0,0,0,0,0,0,0,0,0,0,0,0,0,0,0],"sum_hessian":[1.69E3,7.11E2,9.79E2,2.6E2,4.51E2,5.27E2,4.52E2,7.2E1,1.88E2,1.73E2,2.78E2,7.9E1,4.48E2,1.79E2,2.73E2],"tree_param":{"num_deleted":"0","num_feature":"5","num_nodes":"15","size_leaf_vector":"1"}},{"base_weights":[9.897662E-3,-5.0287265E-1,3.9487085E-1,-6.659939E-1,-2.8652152E-1,9.703778E-2,5.6051826E-1,-8.078097E-3,-5.896198E-3,-4.1111065E-3,-1.6143823E-3,5.355677E-4,3.2235205E-3,4.460698E-3,7.576535E-3],"categories":[],"categories_nodes":[],"categories_segments":[],"categories_sizes":[],"default_left":[0,0,0,0,0,0,0,0,0,0,0,0,0,0,0],"id":72,"left_children":[1,3,5,7,9,11,13,-1,-1,-1,-1,-1,-1,-1,-1],"loss_changes":[3.2622348E2,2.4013718E1,4.617166E1,2.2269897E0,4.423086E0,3.1611447E0,1.2085495E1,0E0,0E0,0E0,0E0,0E0,0E0,0E0,0E0],"parents":[2147483647,0,0,1,1,2,2,3,3,4,4,5,5,6,6],"right_children":[2,4,6,8,10,12,14,-1,-1,-1,-1,-1,-1,-1,-1],"split_conditions":[1.5473822E2,1.0771339E2,2.054454E2,6.742617E1,1.3082303E2,2.710787E3,2.659923E2,-8.078097E-3,-5.896198E-3,-4.1111065E-3,-1.6143823E-3,5.355677E-4,3.2235205E-3,4.460698E-3,7.576535E-3],"split_indices":[2,2,2,2,2,3,2,0,0,0,0,0,0,0,0],"split_type":[0,0,0,0,0,0,0,0,0,0,0,0,0,0,0],"sum_hessian":[1.646E3,7.05E2,9.41E2,3.97E2,3.08E2,3.39E2,6.02E2,1.26E2,2.71E2,1.49E2,1.59E2,2.89E2,5E1,3.89E2,2.13E2],"tree_param":{"num_deleted":"0","num_feature":"5","num_nodes":"15","size_leaf_vector":"1"}},{"base_weights":[1.6211564E-2,-4.0529332E-1,4.1888398E-1,-7.172233E-1,-2.583175E-1,2.6716003E-1,6.645708E-1,-9.0110935E-3,-6.29482E-3,-3.987059E-3,-1.1954178E-3,1.452312E-3,4.00303E-3,1.2034125E-3,7.2546327E-3],"categories":[],"categories_nodes":[],"categories_segments":[],"categories_sizes":[],"default_left":[0,0,0,0,0,0,0,0,0,0,0,0,0,0,0],"id":73,"left_children":[1,3,5,7,9,11,13,-1,-1,-1,-1,-1,-1,-1,-1],"loss_changes":[2.7679025E2,3.5535385E1,3.0169052E1,1.607605E0,1.031749E1,8.088314E0,9.853348E0,0E0,0E0,0E0,0E0,0E0,0E0,0E0,0E0],"parents":[2147483647,0,0,1,1,2,2,3,3,4,4,5,5,6,6],"right_children":[2,4,6,8,10,12,14,-1,-1,-1,-1,-1,-1,-1,-1],"split_conditions":[1.7176108E2,8.4866165E1,2.5066922E2,4.261739E2,1.2801825E2,6.893763E2,2.1542764E2,-9.0110935E-3,-6.29482E-3,-3.987059E-3,-1.1954178E-3,1.452312E-3,4.00303E-3,1.2034125E-3,7.2546327E-3],"split_indices":[2,2,2,1,2,1,1,0,0,0,0,0,0,0,0],"split_type":[0,0,0,0,0,0,0,0,0,0,0,0,0,0,0],"sum_hessian":[1.624E3,7.93E2,8.31E2,2.49E2,5.44E2,5.19E2,3.12E2,6.9E1,1.8E2,2.66E2,2.78E2,2.76E2,2.43E2,3.3E1,2.79E2],"tree_param":{"num_deleted":"0","num_feature":"5","num_nodes":"15","size_leaf_vector":"1"}},{"base_weights":[-8.823274E-3,-4.2875698E-1,3.7844986E-1,-6.8408775E-1,-2.3141775E-1,2.436526E-1,6.314291E-1,-8.55925E-3,-5.474417E-3,-3.223348E-3,-4.3712786E-4,9.349417E-4,3.4158318E-3,-0E0,6.9088177E-3],"categories":[],"categories_nodes":[],"categories_segments":[],"categories_sizes":[],"default_left":[0,0,0,0,0,0,0,0,0,0,0,0,0,0,0],"id":74,"left_children":[1,3,5,7,9,11,13,-1,-1,-1,-1,-1,-1,-1,-1],"loss_changes":[2.7660883E2,4.0271713E1,2.9324738E1,6.2120667E0,7.780163E0,8.314774E0,1.1518318E1,0E0,0E0,0E0,0E0,0E0,0E0,0E0,0E0],"parents":[2147483647,0,0,1,1,2,2,3,3,4,4,5,5,6,6],"right_children":[2,4,6,8,10,12,14,-1,-1,-1,-1,-1,-1,-1,-1],"split_conditions":[1.633894E2,9.913585E1,2.5066922E2,5.8828735E2,8.467505E2,2.0079028E2,1.8744092E2,-8.55925E-3,-5.474417E-3,-3.223348E-3,-4.3712786E-4,9.349417E-4,3.4158318E-3,-0E0,6.9088177E-3],"split_indices":[2,2,2,1,1,2,1,0,0,0,0,0,0,0,0],"split_type":[0,0,0,0,0,0,0,0,0,0,0,0,0,0,0],"sum_hessian":[1.694E3,8.13E2,8.81E2,3.5E2,4.63E2,5.8E2,3.01E2,1.46E2,2.04E2,3.09E2,1.54E2,2.33E2,3.47E2,2.6E1,2.75E2],"tree_param":{"num_deleted":"0","num_feature":"5","num_nodes":"15","size_leaf_vector":"1"}},{"base_weights":[-1.1295957E-2,-5.5762297E-1,3.1817967E-1,-7.114482E-1,-3.5689622E-1,4.5658503E-2,4.870589E-1,-8.680067E-3,-6.280726E-3,-4.278668E-3,-1.8471444E-3,-1.4133462E-3,9.2334655E-4,3.952837E-3,7.868049E-3],"categories":[],"categories_nodes":[],"categories_segments":[],"categories_sizes":[],"default_left":[0,0,0,0,0,0,0,0,0,0,0,0,0,0,0],"id":75,"left_children":[1,3,5,7,9,11,13,-1,-1,-1,-1,-1,-1,-1,-1],"loss_changes":[2.9721524E2,1.7945618E1,4.7109077E1,2.1568909E0,2.9029694E0,3.5035827E0,1.5977112E1,0E0,0E0,0E0,0E0,0E0,0E0,0E0,0E0],"parents":[2147483647,0,0,1,1,2,2,3,3,4,4,5,5,6,6],"right_children":[2,4,6,8,10,12,14,-1,-1,-1,-1,-1,-1,-1,-1],"split_conditions":[1.4173927E2,1.0067473E2,2.0079028E2,6.488402E1,3.717574E1,1.678821E1,2.7782056E2,-8.680067E-3,-6.280726E-3,-4.278668E-3,-1.8471444E-3,-1.4133462E-3,9.2334655E-4,3.952837E-3,7.868049E-3],"split_indices":[2,2,2,2,0,0,2,0,0,0,0,0,0,0,0],"split_type":[0,0,0,0,0,0,0,0,0,0,0,0,0,0,0],"sum_hessian":[1.644E3,6.18E2,1.026E3,3.44E2,2.74E2,3.95E2,6.31E2,1.07E2,2.37E2,1.89E2,8.5E1,7.6E1,3.19E2,4.9E2,1.41E2],"tree_param":{"num_deleted":"0","num_feature":"5","num_nodes":"15","size_leaf_vector":"1"}},{"base_weights":[9.07756E-3,-3.9803782E-1,4.21053E-1,-5.6030524E-1,-6.818903E-2,2.652124E-1,6.218751E-1,-7.215397E-3,-4.2209737E-3,-2.598395E-3,1.0568567E-3,-0E0,3.3125468E-3,4.6874685E-3,8.154094E-3],"categories":[],"categories_nodes":[],"categories_segments":[],"categories_sizes":[],"default_left":[0,0,0,0,0,0,0,0,0,0,0,0,0,0,0],"id":76,"left_children":[1,3,5,7,9,11,13,-1,-1,-1,-1,-1,-1,-1,-1],"loss_changes":[2.7704254E2,4.4090485E1,2.4830978E1,1.0937378E1,9.424412E0,8.175144E0,8.780594E0,0E0,0E0,0E0,0E0,0E0,0E0,0E0,0E0],"parents":[2147483647,0,0,1,1,2,2,3,3,4,4,5,5,6,6],"right_children":[2,4,6,8,10,12,14,-1,-1,-1,-1,-1,-1,-1,-1],"split_conditions":[1.7468532E2,1.3082303E2,2.4203429E2,8.4866165E1,6.146156E2,3.344351E2,3.2815445E1,-7.215397E-3,-4.2209737E-3,-2.598395E-3,1.0568567E-3,-0E0,3.3125468E-3,4.6874685E-3,8.154094E-3],"split_indices":[2,2,2,2,1,1,0,0,0,0,0,0,0,0,0],"split_type":[0,0,0,0,0,0,0,0,0,0,0,0,0,0,0],"sum_hessian":[1.645E3,8.27E2,8.18E2,5.52E2,2.75E2,4.66E2,3.52E2,2.47E2,3.05E2,1.31E2,1.44E2,9.4E1,3.72E2,2.04E2,1.48E2],"tree_param":{"num_deleted":"0","num_feature":"5","num_nodes":"15","size_leaf_vector":"1"}},{"base_weights":[-1.0174971E-2,-3.73831E-1,3.6505443E-1,-5.7435215E-1,-1.3656561E-1,2.4238332E-1,5.860854E-1,-7.4243895E-3,-4.326024E-3,-2.3211257E-3,3.8667305E-4,1.2694291E-3,4.0840283E-3,-6.2086235E-4,6.549514E-3],"categories":[],"categories_nodes":[],"categories_segments":[],"categories_sizes":[],"default_left":[0,0,0,0,0,0,0,0,0,0,0,0,0,0,0],"id":77,"left_children":[1,3,5,7,9,11,13,-1,-1,-1,-1,-1,-1,-1,-1],"loss_changes":[2.2757562E2,3.9795647E1,2.1467003E1,9.391647E0,6.6859713E0,9.874498E0,1.3266815E1,0E0,0E0,0E0,0E0,0E0,0E0,0E0,0E0],"parents":[2147483647,0,0,1,1,2,2,3,3,4,4,5,5,6,6],"right_children":[2,4,6,8,10,12,14,-1,-1,-1,-1,-1,-1,-1,-1],"split_conditions":[1.7176108E2,1.1533673E2,2.5459615E2,7.902673E1,8.536773E2,7.477658E2,2.1542764E2,-7.4243895E-3,-4.326024E-3,-2.3211257E-3,3.8667305E-4,1.2694291E-3,4.0840283E-3,-6.2086235E-4,6.549514E-3],"split_indices":[2,2,2,2,1,1,1,0,0,0,0,0,0,0,0],"split_type":[0,0,0,0,0,0,0,0,0,0,0,0,0,0,0],"sum_hessian":[1.661E3,8.44E2,8.17E2,4.54E2,3.9E2,5.31E2,2.86E2,2E2,2.54E2,2.53E2,1.37E2,3.18E2,2.13E2,2.7E1,2.59E2],"tree_param":{"num_deleted":"0","num_feature":"5","num_nodes":"15","size_leaf_vector":"1"}},{"base_weights":[-2.4642453E-3,-2.6318783E-1,6.630245E-2,-5.9765778E-3,-2.1903296E-1,8.584976E-4,2.0500554E-1,-2.9776741E-3,-1.3935947E-3,-4.3633964E-4,1.4113934E-3,-2.2221608E-3,2.5975837E-3],"categories":[],"categories_nodes":[],"categories_segments":[],"categories_sizes":[],"default_left":[0,0,0,0,0,0,0,0,0,0,0,0,0],"id":78,"left_children":[1,3,5,-1,7,9,11,-1,-1,-1,-1,-1,-1],"loss_changes":[2.9647577E1,4.365795E0,1.1765783E1,0E0,1.656414E0,5.6192336E0,9.948116E0,0E0,0E0,0E0,0E0,0E0,0E0],"parents":[2147483647,0,0,1,1,2,2,4,4,5,5,6,6],"right_children":[2,4,6,-1,8,10,12,-1,-1,-1,-1,-1,-1],"split_conditions":[3.495318E2,5.1E1,3.7677094E1,-5.9765778E-3,2.8843313E1,1.0203891E3,1.2418975E3,-2.9776741E-3,-1.3935947E-3,-4.3633964E-4,1.4113934E-3,-2.2221608E-3,2.5975837E-3],"split_indices":[1,4,0,0,0,1,3,0,0,0,0,0,0],"split_type":[0,0,0,0,0,0,0,0,0,0,0,0,0],"sum_hessian":[1.643E3,3.42E2,1.301E3,3.4E1,3.08E2,8.88E2,4.13E2,1.48E2,1.6E2,6.74E2,2.14E2,4.5E1,3.68E2],"tree_param":{"num_deleted":"0","num_feature":"5","num_nodes":"13","size_leaf_vector":"1"}},{"base_weights":[3.0171915E-3,-3.9990398E-1,3.6173937E-1,-6.374886E-1,-2.0641546E-1,1.8531005E-1,5.8089024E-1,-8.901873E-3,-5.172126E-3,-3.264443E-3,-0E0,2.0554266E-5,2.8641862E-3,2.146136E-3,6.62237E-3],"categories":[],"categories_nodes":[],"categories_segments":[],"categories_sizes":[],"default_left":[0,0,0,0,0,0,0,0,0,0,0,0,0,0,0],"id":79,"left_children":[1,3,5,7,9,11,13,-1,-1,-1,-1,-1,-1,-1,-1],"loss_changes":[2.3930405E2,3.508091E1,3.3246567E1,8.498596E0,1.0688972E1,8.999111E0,1.0777496E1,0E0,0E0,0E0,0E0,0E0,0E0,0E0,0E0],"parents":[2147483647,0,0,1,1,2,2,3,3,4,4,5,5,6,6],"right_children":[2,4,6,8,10,12,14,-1,-1,-1,-1,-1,-1,-1,-1],"split_conditions":[1.633894E2,1.0067473E2,2.348891E2,4.3846146E2,8.083939E2,5.252137E2,3.495318E2,-8.901873E-3,-5.172126E-3,-3.264443E-3,-0E0,2.0554266E-5,2.8641862E-3,2.146136E-3,6.62237E-3],"split_indices":[2,2,2,1,1,1,1,0,0,0,0,0,0,0,0],"split_type":[0,0,0,0,0,0,0,0,0,0,0,0,0,0,0],"sum_hessian":[1.649E3,7.76E2,8.73E2,3.44E2,4.32E2,4.88E2,3.85E2,1.03E2,2.41E2,2.71E2,1.61E2,1.76E2,3.12E2,7.3E1,3.12E2],"tree_param":{"num_deleted":"0","num_feature":"5","num_nodes":"15","size_leaf_vector":"1"}},{"base_weights":[6.0157254E-3,-4.6542257E-1,3.439975E-1,-6.711773E-1,-2.5885892E-1,1.0374088E-1,5.0561535E-1,-7.8017875E-3,-5.2655493E-3,-3.613479E-3,-1.0799932E-3,-8.5106454E-5,1.7914217E-3,4.138806E-3,6.9834213E-3],"categories":[],"categories_nodes":[],"categories_segments":[],"categories_sizes":[],"default_left":[0,0,0,0,0,0,0,0,0,0,0,0,0,0,0],"id":80,"left_children":[1,3,5,7,9,11,13,-1,-1,-1,-1,-1,-1,-1,-1],"loss_changes":[2.6394217E2,2.8464325E1,3.7089752E1,3.55719E0,5.132723E0,3.3958368E0,8.797668E0,0E0,0E0,0E0,0E0,0E0,0E0,0E0,0E0],"parents":[2147483647,0,0,1,1,2,2,3,3,4,4,5,5,6,6],"right_children":[2,4,6,8,10,12,14,-1,-1,-1,-1,-1,-1,-1,-1],"split_conditions":[1.5117319E2,1.0067473E2,2.085225E2,7.6131065E1,1.3082303E2,1.7468532E2,2.7104105E2,-7.8017875E-3,-5.2655493E-3,-3.613479E-3,-1.0799932E-3,-8.5106454E-5,1.7914217E-3,4.138806E-3,6.9834213E-3],"split_indices":[2,2,2,2,2,2,2,0,0,0,0,0,0,0,0],"split_type":[0,0,0,0,0,0,0,0,0,0,0,0,0,0,0],"sum_hessian":[1.65E3,6.88E2,9.62E2,3.4E2,3.48E2,3.9E2,5.72E2,1.84E2,1.56E2,2.03E2,1.45E2,1.56E2,2.34E2,3.96E2,1.76E2],"tree_param":{"num_deleted":"0","num_feature":"5","num_nodes":"15","size_leaf_vector":"1"}},{"base_weights":[-5.2490365E-4,-5.5448115E-1,2.7980262E-1,-7.112463E-1,-4.1878235E-1,3.9887425E-2,4.9589714E-1,-4.8312824E-3,-7.7963597E-3,-5.386381E-3,-2.8063983E-3,-4.9900793E-4,1.3479134E-3,3.7401223E-3,7.1165077E-3],"categories":[],"categories_nodes":[],"categories_segments":[],"categories_sizes":[],"default_left":[0,0,0,0,0,0,0,0,0,0,0,0,0,0,0],"id":81,"left_children":[1,3,5,7,9,11,13,-1,-1,-1,-1,-1,-1,-1,-1],"loss_changes":[2.5333647E2,1.0254486E1,5.585624E1,2.150154E0,4.2188263E0,4.4618526E0,1.3658569E1,0E0,0E0,0E0,0E0,0E0,0E0,0E0,0E0],"parents":[2147483647,0,0,1,1,2,2,3,3,4,4,5,5,6,6],"right_children":[2,4,6,8,10,12,14,-1,-1,-1,-1,-1,-1,-1,-1],"split_conditions":[1.3082303E2,8.4866165E1,2.0589136E2,1.09E2,2.982868E1,1.6941591E2,2.6767502E2,-4.8312824E-3,-7.7963597E-3,-5.386381E-3,-2.8063983E-3,-4.9900793E-4,1.3479134E-3,3.7401223E-3,7.1165077E-3],"split_indices":[2,2,2,4,0,2,2,0,0,0,0,0,0,0,0],"split_type":[0,0,0,0,0,0,0,0,0,0,0,0,0,0,0],"sum_hessian":[1.624E3,5.45E2,1.079E3,2.45E2,3E2,5.14E2,5.65E2,6.4E1,1.81E2,1.54E2,1.46E2,2.63E2,2.51E2,3.68E2,1.97E2],"tree_param":{"num_deleted":"0","num_feature":"5","num_nodes":"15","size_leaf_vector":"1"}},{"base_weights":[3.0183322E-3,-4.2011392E-1,3.552697E-1,-5.4072607E-1,-1.06005065E-1,1.8904918E-1,5.177605E-1,-8.430432E-3,-4.649726E-3,-2.2356657E-3,1.0337443E-3,4.3445217E-4,2.7226578E-3,1.7677513E-3,5.976075E-3],"categories":[],"categories_nodes":[],"categories_segments":[],"categories_sizes":[],"default_left":[0,0,0,0,0,0,0,0,0,0,0,0,0,0,0],"id":82,"left_children":[1,3,5,7,9,11,13,-1,-1,-1,-1,-1,-1,-1,-1],"loss_changes":[2.5123727E2,2.8571106E1,2.4274765E1,1.08346405E1,5.4718695E0,5.437208E0,1.1954582E1,0E0,0E0,0E0,0E0,0E0,0E0,0E0,0E0],"parents":[2147483647,0,0,1,1,2,2,3,3,4,4,5,5,6,6],"right_children":[2,4,6,8,10,12,14,-1,-1,-1,-1,-1,-1,-1,-1],"split_conditions":[1.5930504E2,1.3024536E2,2.2639665E2,6.488402E1,8.083939E2,5.252137E2,3.495318E2,-8.430432E-3,-4.649726E-3,-2.2356657E-3,1.0337443E-3,4.3445217E-4,2.7226578E-3,1.7677513E-3,5.976075E-3],"split_indices":[2,2,2,2,1,1,1,0,0,0,0,0,0,0,0],"split_type":[0,0,0,0,0,0,0,0,0,0,0,0,0,0,0],"sum_hessian":[1.679E3,7.62E2,9.17E2,5.48E2,2.14E2,4.58E2,4.59E2,1.02E2,4.46E2,1.38E2,7.6E1,1.7E2,2.88E2,9E1,3.69E2],"tree_param":{"num_deleted":"0","num_feature":"5","num_nodes":"15","size_leaf_vector":"1"}},{"base_weights":[-3.736188E-3,-1.8288866E-1,7.468612E-2,-2.6299277E-1,-2.001184E-2,2.51634E-2,1.797709E-1,-3.7919122E-3,-9.4257836E-4,-1.3021916E-3,8.331764E-4,-1.7246219E-3,4.5392336E-4,-1.446714E-3,2.2259848E-3],"categories":[],"categories_nodes":[],"categories_segments":[],"categories_sizes":[],"default_left":[0,0,0,0,0,0,0,0,0,0,0,0,0,0,0],"id":83,"left_children":[1,3,5,7,9,11,13,-1,-1,-1,-1,-1,-1,-1,-1],"loss_changes":[2.3665365E1,6.5788364E0,5.991574E0,6.422434E0,2.0392027E0,3.1805863E0,5.2970057E0,0E0,0E0,0E0,0E0,0E0,0E0,0E0,0E0],"parents":[2147483647,0,0,1,1,2,2,3,3,4,4,5,5,6,6],"right_children":[2,4,6,8,10,12,14,-1,-1,-1,-1,-1,-1,-1,-1],"split_conditions":[4.4768768E2,3.07E2,3.7677094E1,3.2959007E1,2.7853864E2,1.2834868E1,5.4E1,-3.7919122E-3,-9.4257836E-4,-1.3021916E-3,8.331764E-4,-1.7246219E-3,4.5392336E-4,-1.446714E-3,2.2259848E-3],"split_indices":[1,4,0,0,1,0,4,0,0,0,0,0,0,0,0],"split_type":[0,0,0,0,0,0,0,0,0,0,0,0,0,0,0],"sum_hessian":[1.675E3,5.1E2,1.165E3,3.39E2,1.71E2,7.97E2,3.68E2,1.97E2,1.42E2,